tree
version=v3
num_class=1
num_tree_per_iteration=1
label_index=0
max_feature_idx=23
objective=binary sigmoid:1
feature_names=0 1 2 3 4 5 6 7 8 9 10 11 12 13 14 15 16 17 18 19 20 21 22 23
feature_infos=-1:30:31:29:28:33:34:32:27:19:10:18:1:9:20:26:11:2:8:17:21:3:25:7:12:16:22:13:24:4:6:15:5:23 -1:34:32:33:31:30:29:28:10:19:18:9:27:1:20:11:2:17:26:8:12:21:25:3:16:7:24:22:4:13:6:0:15:23:5 -1:32:33:34:28:29:30:31:19:9:27:18:10:1:11:20:8:2:17:26:0:21:3:16:12:7:25:22:15:4:24:13:6:14:5 -1:34:33:32:28:29:0:9:10:18:1:19:27:30:31:20:11:26:2:17:8:21:3:7:25:12:16:13:24:22:6:4:15:23:5:14 -1:0:34:32:33:9:10:28:19:1:27:18:29:20:17:11:2:26:8:30:31:16:25:12:21:7:3:22:13:24:4:6:15:23:14:5 -1:0:9:18:19:1:27:10:20:11:26:8:34:2:17:32:33:28:29:30:31:25:12:21:16:7:3:13:24:22:6:4:15:23:5:14 -1:0:27:19:9:1:10:18:26:2:8:20:11:17:33:29:3:34:32:28:21:16:25:7:12:30:31:13:24:4:6:22:5:15:14:23 -1:0:9:18:1:10:8:11:26:27:19:17:20:2:16:25:12:3:21:7:28:29:34:31:32:30:33:24:4:14:22:13:6:23:15:5 -1:0:2:19:9:10:27:26:8:20:1:17:18:11:3:21:16:12:7:25:28:29:32:34:33:15:31:22:6:30:13:14:23:5:24:4 -1:0:1:27:17:19:20:10:11:18:8:2:12:9:26:3:25:7:21:16:31:28:34:30:29:33:32:6:14:23:15:5:13:4:24 -1:0:26:9:25:2:18:10:17:27:20:1:8:16:12:11:19:21:7:3:13:30:23:28:29:31:32:34:6:33:22:14:5:15:4 -1:0:20:26:10:11:17:2:8:18:27:16:19:7:21:1:3:9:25:29:12:28:33:31:30:32:14:34:22:5:4:24:15:23:13 -1:0:17:1:9:12:7:26:16:18:3:20:2:8:11:21:25:27:19:10:33:29:28:5:31:13:23:6:30:32:14:4:24:15:34 -1:0:20:17:16:11:10:25:26:7:21:12:32:1:23:33:8:31:3:14:19:5:27:28:29:2:4:30:15:24:18:34:22:9:6 -1:0:2:25:4:11:15:17:7:3:12:19:27:18:23:13:8:10:14:21:33:24:34:22:32:1:5:20:29:16:6:26:28:30:9 -1:0:3:11:5:12:16:23:8:7:17:13:2:20:6:9:15:34:24:10:14:4:31:26:21:29:19:22:25:1:30:18:27:32:33 -1:0:25:13:22:12:24:5:21:7:26:29:20:23:2:4:8:11:14:15:16:9:19:18:3:6:17:31:1:10:32:34:27:28:30 -1:0:20:4:14:21:24:27:1:2:5:6:15:9:10:12:16:23:28:29:7:8:11:32:33 -1:0:6 none none none none none
tree_sizes=3215 3298 3305 3308 3296 3307 3319 3333 3347 3353 3337 3334 3372 3348 3332 3359 3362 3374 3368 3344 3386 3396 3392 3385 3373 3372 3362 3344 3335 3406 3412 3355 3411 3393 3450 3401 3402 3433 3443 3446 3434 3431 3406 3402 3401 3401 3403 3443 3394 3457 3419 3392 3442 3428 3426 3400 3439 3412 3432 3406 3406 3402 3399 3435 3409 3423 3430 3461 3423 3452 3422 3404 3421 3466 3418 3418 3417 3419 3443 3410 3385 3405 3411 3408 3409 3470 3416 3440 3411 3399 3395 3376 3409 3438 3421 3395 3402 3404 3410 3426

Tree=0
num_leaves=31
num_cat=30
split_feature=4 3 5 2 6 7 1 8 9 10 6 11 0 5 9 4 7 8 6 3 0 12 9 2 13 7 1 10 3 1
split_gain=2489.49 2473.59 2433.51 2301.82 2150.91 1712.29 1609.65 1224.3 886.797 695.878 639.63 500.6 338.322 333.208 315.587 296.114 289.981 282.763 268.924 226.276 206.041 190.018 153.75 139.839 139.273 126.779 123.412 107.509 106.672 103.622
threshold=0 1 2 3 4 5 6 7 8 9 10 11 12 13 14 15 16 17 18 19 20 21 22 23 24 25 26 27 28 29
decision_type=1 1 1 9 1 1 9 1 9 9 1 9 9 1 9 1 1 1 1 1 9 9 9 9 9 1 9 9 1 9
left_child=15 19 13 23 18 16 29 17 -9 -10 12 -12 -11 -3 20 -1 -6 -8 -5 -2 -13 -16 -22 -4 -23 -24 -14 -26 -28 -7
right_child=1 2 3 4 5 6 7 8 9 10 11 14 26 -15 21 -17 -18 -19 -20 -21 22 24 25 -25 27 -27 28 -29 -30 -31
leaf_value=-2.9169990030934287 -2.9161772128132823 -2.9159111801798252 -2.9158602781048284 -2.8501389765437919 -2.8405000041670641 -2.9133368378370599 -2.8266498607059161 -2.9153079432934939 -2.8852557281703595 -2.8467577161956403 -2.8841169874023977 -2.8841719003614936 -2.8238955190774675 -2.8548678793220592 -2.9014599507445955 -2.8643708644253816 -2.9171890034855896 -2.9150271473594782 -2.9163639004695114 -2.8650772208368225 -2.8105619205097834 -2.8741231779135297 -2.7671226309312122 -2.8657288821932547 -2.7417875081417327 -2.7472811332299321 -2.7650734424842343 -2.7120118158048312 -2.7863838681423654 -2.8567593877932467
leaf_weight=1732.2064533382654 1541.333530113101 1365.5575988590717 1136.6487912684679 1580.4363397061825 1283.9378189444542 623.51110303401947 958.84570208191872 403.24438978731632 487.74486781656742 814.91748887300491 290.95050957798958 129.15129880607128 607.34718583524227 2715.2713580876589 61.294854328036308 3001.9008204936981 814.91748887300491 581.90101915597916 1035.3442409038544 2169.3257191032171 594.33069805800915 64.548976272344589 7410.2758223265409 1255.5576078891754 3482.9774056375027 6206.0906641483307 4154.7668752223253 2255.266546189785 5708.6367767602205 784.35008110105991
leaf_count=32471 28893 25598 21307 29626 24068 11688 17974 7559 9143 15276 5454 2421 11385 50899 1149 56272 15276 10908 19408 40665 11141 1210 138909 23536 65290 116336 77883 42276 107011 14703
internal_value=-2.81454 -2.80804 -2.8018 -2.79475 -2.78909 -2.78301 -2.77783 -2.77351 -2.7694 -2.76754 -2.76572 -2.75517 -2.78491 -2.87549 -2.75328 -2.8838 -2.87062 -2.86046 -2.87664 -2.88652 -2.76139 -2.73355 -2.76023 -2.88987 -2.73163 -2.75804 -2.78007 -2.72993 -2.77737 -2.88234
internal_weight=0 50518.5 46807.8 42727 40334.8 37719 35620.2 34212.3 32671.5 32268.3 31780.6 20494.9 11285.7 4080.83 20203.9 4734.11 2098.86 1540.75 2615.78 3710.66 14339.8 5864.09 14210.7 2392.21 5802.79 13616.4 10470.8 5738.24 9863.4 1407.86
internal_count=1035735 946992 877434 800937 756094 707060 667716 641325 612443 604884 595741 384186 211555 76497 378732 88743 39344 28882 49034 69558 268807 109925 266386 44843 108776 255245 196279 107566 184894 26391
cat_boundaries=0 1 2 3 4 5 6 7 8 9 10 11 12 13 14 16 17 18 19 20 21 22 23 24 25 26 28 29 30 31 32
cat_threshold=480 480 480 480 416 416 481 416 256 288 268435521 288 12616672 256 3087271149 1 256 160 160 160 256 16777696 256 160 256 288 4093772871 6 4194816 1947044039 267577370 256
is_linear=0
shrinkage=1


Tree=1
num_leaves=31
num_cat=30
split_feature=4 3 5 2 6 7 1 8 9 10 0 5 11 4 7 6 3 5 8 12 8 2 9 10 8 3 13 6 3 2
split_gain=2136.59 2105.82 2040.48 1919 1779.78 1389.15 1311.22 999.478 759.504 568.852 559.23 403.755 307.434 296.031 279.928 271.304 226.904 218.744 190.366 173.141 147.369 144.909 139.96 129.239 120.943 102.715 94.7424 87.116 84.3592 72.2306
threshold=0 1 2 3 4 5 6 7 8 9 10 11 12 13 14 15 16 17 18 19 20 21 22 23 24 25 26 27 28 29
decision_type=1 1 1 9 1 1 9 1 9 9 9 1 9 1 1 1 1 1 1 9 1 9 9 9 1 1 9 1 1 9
left_child=13 16 17 21 15 14 -7 -8 -9 -10 -11 20 -13 -1 -6 -5 -2 -3 24 -20 25 -4 -21 27 -14 -12 -25 -24 -26 -30
right_child=1 2 3 4 5 6 7 8 9 10 11 12 18 -15 -16 -17 -18 -19 19 22 -22 -23 23 26 28 -27 -28 -29 29 -31
leaf_value=-0.10154121840780979 -0.10064993628267088 -0.04494341605771001 -0.10039798814184618 -0.033199473185106423 -0.024664310892014821 -0.075123050760571783 -0.099521643946009805 -0.10012696943556515 -0.068893175426418873 -0.080211057741438732 0.037844300023592431 -0.069479748236531344 -0.00077466099500122837 -0.047002448611574162 -0.10182221796167552 -0.10091718156363079 -0.04770405246699843 -0.10036237778386743 -0.055451967673820914 0.004925875809480563 0.047955341314505677 -0.048159873356259597 0.072657765031318905 -0.022948916909295583 0.067832186749275894 0.016645843080746833 0.08961903479441409 0.047383895967891415 0.032410127785606799 0.050765755394604165
leaf_weight=1580.8801289796829 1407.7196562476456 1801.4169883914292 1055.8586864545941 1564.1552528440952 1273.1475922577083 1121.1236777976155 541.16754489392042 394.74161605909467 484.61738292872906 378.91011172533035 3200.2655721008778 207.28478119522333 628.72081525996327 2871.7479210495949 756.67191239446402 978.21959934011102 2073.9632861874998 1247.4789605513215 119.47124252468348 401.53847565874457 2901.5928618460894 1214.5918020382524 2515.749875228852 79.616108853369951 1411.6714633330703 8208.1524070650339 2421.0144988149405 3502.9348168000579 4806.0350940264761 4190.4310871325433
leaf_count=32471 28893 35001 21646 30266 24427 22396 11086 8057 9651 7307 57895 4106 11913 56272 15530 20045 40665 25598 2206 7493 51781 23826 44488 1450 25316 149723 42276 62152 86408 75391
internal_value=0 0.00561277 0.0111309 0.0165752 0.0214121 0.0266308 0.030995 0.0342838 0.0363306 0.0378776 0.0393763 0.040709 0.0498066 -0.0665503 -0.0537852 -0.0595483 -0.0693382 -0.0678725 0.0510721 0.0619456 0.0277873 -0.0727866 0.0635782 0.0663336 0.0421176 0.0226203 0.0859579 0.0580511 0.0447068 0.0410068
internal_weight=0 50888.3 47406.6 44357.7 42087.2 39544.9 37515 36393.9 35852.7 35458 34973.4 34594.5 20284.5 4452.63 2029.82 2542.37 3481.68 3048.9 20077.2 9040.33 14310 2270.45 8920.85 8519.32 11036.9 11408.4 2500.63 6018.68 10408.1 8996.47
internal_count=1035735 946992 877434 816835 771363 721052 681095 658699 647613 639556 629905 622598 363199 88743 39957 50311 69558 60599 359093 160065 259399 45472 157859 150366 199028 207618 43726 106640 187115 161799
cat_boundaries=0 1 2 3 4 5 6 7 8 9 10 11 13 14 15 16 17 18 19 20 21 23 24 25 27 28 29 30 31 32 34
cat_threshold=480 480 416 480 416 416 480 256 256 288 480 1879572549 6 288 256 160 160 256 160 2147483877 288 1946812645 7 256 160 3087646919 2 160 98596890 131364 115440666 10528792 3594592768 7
is_linear=0
shrinkage=0.1


Tree=2
num_leaves=31
num_cat=30
split_feature=4 3 5 2 6 7 1 8 9 10 0 11 6 6 7 3 5 4 4 2 5 12 8 7 4 0 9 2 7 3
split_gain=1846.2 1834.82 1735.85 1628.24 1454.7 1123.72 1086.2 841.879 639.323 482.883 458.918 328.918 339.57 273.603 273.479 234.022 225.252 197.148 149.479 147.6 141.365 140.278 128.392 140.874 96.7416 94.6707 90.6059 85.126 68.2038 63.0619
threshold=0 1 2 3 4 5 6 7 8 9 10 11 12 13 14 15 16 17 18 19 20 21 22 23 24 25 26 27 28 29
decision_type=1 1 1 9 1 1 9 1 9 9 9 9 1 1 1 1 1 1 1 9 1 9 1 1 1 9 9 9 1 1
left_child=17 15 16 19 13 14 -7 -8 -9 -10 -11 -12 18 28 -6 -2 -3 -1 25 -4 -14 -22 -23 24 -24 -13 29 -20 -5 -25
right_child=1 2 3 4 5 6 7 8 9 10 11 12 20 -15 -16 -17 -18 -19 27 -21 21 22 23 26 -26 -27 -28 -29 -30 -31
leaf_value=-0.050423221347665817 -0.09989325665357314 -0.042077814712714941 -0.099532016795193579 -0.011286884061028507 -0.022764762856384995 -0.072852138805545349 -0.098552546321307208 -0.099209006905414482 -0.099628200880644252 -0.078110736638674405 -0.097765092131299497 -0.021089535325503048 -0.017200906060410536 -0.10007174863845286 -0.10102684888755503 -0.045105314212122855 -0.099528629204923155 -0.1006539419667723 0.051062211657824277 -0.045611677520208754 -0.086690058346510362 0.0018732838410895965 0.022113249847507642 0.067712368974333262 0.046412991863681786 0.019237518448420719 0.070829792598208957 0.028587605137031714 -0.0539910350542427 0.044040905404964643
leaf_weight=1888.5885686129332 1333.8875682540238 1763.0567950047553 983.8784471154213 857.98313913866878 1256.8280814252794 1064.8274497315288 500.44015572592616 365.2257088124752 267.12634433060884 358.83910824730992 179.08879869803786 616.29160802066326 362.61778841167688 908.97303079813719 700.10171192511916 2026.4639208093286 1169.3578115254641 1442.4969420582056 2380.6714616157115 1181.2308120913804 71.839772719889879 633.29758699983358 2713.4894287995994 1549.8955811448395 4410.6384797766805 8987.706354316324 3003.0384992063046 6293.2084138095379 679.05760154873133 5433.8611344210804
leaf_count=38596 29881 35666 22043 17105 24659 22740 11203 8150 5657 7434 3660 11358 6872 20369 15731 41465 26208 32471 41644 24191 1413 11959 47038 26383 75912 159077 50182 110293 13540 92835
internal_value=0 0.00427209 0.00920933 0.0139939 0.0182034 0.0226615 0.0263583 0.0291475 0.0308716 0.0321729 0.0331513 0.0342621 0.0349373 -0.0565807 -0.0511347 -0.0670852 -0.0652478 -0.0724113 0.0252709 -0.0704593 0.0446372 0.0459047 0.0464901 0.0481393 0.0372015 0.0166305 0.0558969 0.0348078 -0.0303804 0.0493836
internal_weight=0 52052.9 48692.6 45760.2 43595 41149 39192.1 38127.3 37626.8 37261.6 36994.5 36635.6 36456.6 2446.01 1956.93 3360.35 2932.41 3331.09 18277.9 2165.11 18178.7 17816.1 17744.2 17110.9 7124.13 9604 9986.8 8673.88 1537.04 6983.76
internal_count=1035735 964668 893322 831448 785214 734200 693810 671070 659867 651717 646060 638626 634966 51014 40390 71346 61874 71067 322372 46234 312594 305722 304309 292350 122950 170435 169400 151937 30645 119218
cat_boundaries=0 1 2 3 4 5 6 7 8 9 10 11 12 14 15 16 17 18 19 21 22 23 24 25 27 29 30 32 33 35 36
cat_threshold=416 480 416 480 416 416 480 256 256 256 480 256 4027056197 6 160 160 256 160 160 4161290821 5 256 64 256 160 872547397 2 2969567810 7 46236160 3087960301 1 2612250 4103184905 4 84125722
is_linear=0
shrinkage=0.1


Tree=3
num_leaves=31
num_cat=30
split_feature=4 3 5 2 6 7 1 8 9 10 0 7 6 3 11 5 4 8 7 2 12 4 4 6 9 0 1 2 1 9
split_gain=1598.19 1566.51 1467 1373.18 1201.61 948.948 909.211 749.335 560.863 418.194 381.608 295.239 265.762 233.128 228.424 223.287 198.755 165.392 154.792 147.758 137.46 130.054 117.325 90.742 79.0639 75.5558 66.8051 65.5825 62.3333 61.4163
threshold=0 1 2 3 4 5 6 7 8 9 10 11 12 13 14 15 16 17 18 19 20 21 22 23 24 25 26 27 28 29
decision_type=1 1 1 9 1 1 9 1 9 9 9 1 1 1 9 1 1 1 1 9 9 1 1 1 9 9 9 9 9 9
left_child=16 13 15 19 12 -6 26 -8 -9 -10 -11 18 -5 -2 -13 -3 -1 -16 -12 -4 -19 25 29 -24 -25 -20 -7 -23 -27 -22
right_child=1 2 3 4 5 6 7 8 9 10 11 14 -14 -15 17 -17 -18 20 21 -21 22 27 23 24 -26 28 -28 -29 -30 -31
leaf_value=-0.047619220665652419 -0.09895542492331047 -0.039425020935292682 -0.098566604994597462 -0.028185909611646368 -0.10019601088941398 -0.096343590430227194 -0.097994928067316953 -0.098582549922125562 -0.098902019401852878 -0.076183155337727904 -0.0072078479317590656 -0.06243990491378542 -0.099153028419560474 -0.04238284293988076 -0.0081381022840628144 -0.098561587772750828 -0.099785958662669302 -0.087940035559061144 -0.021053440235116499 -0.042889302952070746 0.047376343598879433 0.039871903045079073 0.051734690901106987 0.022045338237261229 0.045323902909918876 -0.0011585613164521158 -0.041971045053189708 0.024020696270428122 0.020910095340682805 0.071007124994822701
leaf_weight=1804.867303147912 1217.9048252925277 1697.6989119686186 898.62432135641575 1496.3264428377151 638.54530720412731 532.79143715649843 487.05794284120202 351.01348315551877 253.929180059582 342.47210864722729 1782.0546029396355 212.99562476202846 829.7982820533216 1945.9245881251991 683.42134438455105 1068.0314520075917 1316.0896652191877 72.782668028026819 538.42730575427413 1133.7618506364524 4348.6337753050029 4813.9296517334878 2638.545166105032 4604.2393106967211 2193.6601029932499 1539.9532615989447 489.23446549475193 6055.5853707864881 7757.0355945117772 1654.0065901055932
leaf_count=38596 29881 35666 22043 30645 15731 12388 11795 8497 5854 7595 33628 4506 20369 41465 12802 26208 32471 1483 9944 24191 71476 81270 42795 76724 35624 27229 10855 103187 134399 26418
internal_value=0 0.00368741 0.00808586 0.0123125 0.0160042 0.019884 0.021762 0.0241291 0.0256463 0.0267751 0.0276134 0.0285467 -0.0538181 -0.0644034 0.0387634 -0.0625344 -0.0698661 0.0401321 0.0210779 -0.0678692 0.0422626 0.0235147 0.042933 0.0358466 0.0296128 0.0151408 -0.0709748 0.0310711 0.0172573 0.053995
internal_weight=0 52278.4 49114.6 46348.8 44316.4 41990.3 41351.8 40329.7 39842.7 39491.7 39237.7 38895.3 2326.12 3163.83 16408.3 2765.73 3120.96 16195.3 22487 2032.39 15511.9 20704.9 15439.1 9436.44 6797.9 9835.42 1022.03 10869.5 9296.99 6002.64
internal_count=1035735 964668 893322 831448 785214 734200 718469 695226 683431 674934 669080 661485 51014 71346 271828 61874 71067 267322 389657 46234 254520 356029 253037 155143 112348 171572 23243 184457 161628 97894
cat_boundaries=0 1 2 3 4 5 6 7 8 9 10 11 13 14 15 16 17 18 19 20 21 22 24 25 26 28 29 30 31 33 35
cat_threshold=416 480 416 480 416 256 480 256 256 256 480 1879049445 6 160 256 288 160 160 160 224 256 256 4160766021 7 98007066 81885200 4238610665 1 8454656 256 742247450 12591617 1 2551112877 3
is_linear=0
shrinkage=0.1


Tree=4
num_leaves=31
num_cat=30
split_feature=4 3 5 2 6 7 1 8 9 10 0 5 4 11 7 6 3 8 2 12 7 6 1 10 9 6 3 13 9 5
split_gain=1384.42 1306.53 1243.53 1151.48 989.109 809.345 755.046 635.631 477.381 355.754 322.188 288.258 280.616 259.873 247.581 241.581 223.918 148.393 141.197 129.702 117.646 117.359 115.711 110.717 114.813 91.7489 91.2496 82.3538 72.5302 67.4062
threshold=0 1 2 3 4 5 6 7 8 9 10 11 12 13 14 15 16 17 18 19 20 21 22 23 24 25 26 27 28 29
decision_type=1 1 1 9 1 1 9 1 9 9 9 1 1 9 1 1 1 1 9 9 1 1 9 9 9 1 1 9 9 1
left_child=12 16 11 18 15 -6 -7 -8 -9 -10 -11 -3 -1 -12 20 -5 -2 -16 -4 -19 -15 -21 -22 -23 28 -13 -24 -26 -25 -28
right_child=1 2 3 4 5 6 7 8 9 10 13 25 -14 14 17 -17 -18 19 -20 21 22 23 26 24 27 -27 29 -29 -30 -31
leaf_value=-0.09892828427935961 -0.097781704618174273 -0.097418008557623947 -0.097353498721051646 -0.026502093408636868 -0.099223082502562454 -0.068161828610782391 -0.096774394727822885 -0.097459559724930755 -0.097779918781024822 -0.074323082205966104 -0.096408066895656133 -0.0031428783681405666 -0.039911305031549459 -0.01256708775792429 0.0011239656524448865 -0.098058641631507695 -0.039535046659253774 -0.085982014295550704 -0.040213366160249613 -0.016787623872155932 -0.0089307247869352176 -0.011684674077774682 0.033010070918922108 -0.0017601958059482057 -0.084097292576611582 -0.045273091247263815 0.011215468541747632 0.052222008007707411 0.036009134545434127 0.026719833876570107
leaf_weight=1200.7349810041487 1071.6886148974299 950.62200447171926 791.27396886050701 1411.0913007557392 564.2329131513834 931.97737580165267 432.80119402706623 312.78021090477705 226.17358900234103 311.75440794229507 162.57537180930376 759.97115486487746 2584.9549071118236 1100.7251060754061 1199.3148071803153 719.32323682308197 1836.6608764976263 76.288140658289194 1060.9801400303841 378.21501256525517 1206.4670432880521 413.66709282621741 6097.6788537204266 545.74976244941354 37.497598804533482 1676.1153445057571 6655.5091431699693 6422.6312436051667 9342.0226544290781 4909.5839791558683
leaf_count=32471 28893 25598 21307 29626 15276 22613 11487 8302 5711 7410 3740 15701 56272 22170 21309 19408 40665 1665 23536 6306 21197 7112 100843 9404 655 35198 113534 98497 148408 81421
internal_value=0 0.00373293 0.00762629 0.0119988 0.0152955 0.0187249 0.0203815 0.0224698 0.0238039 0.024799 0.0255374 -0.0507366 -0.0588415 0.0263641 0.0269091 -0.051008 -0.0612597 0.0352873 -0.065015 0.0376652 0.0191692 0.0382654 0.0210262 0.0395169 0.0408188 -0.0321966 0.0230763 0.051302 0.0339248 0.0178147
internal_weight=0 51605.4 48697 45310.3 43458.1 41327.6 40763.4 39831.4 39398.6 39085.9 38859.7 3386.71 3785.69 38547.9 38385.4 2130.41 2908.35 18415.4 1852.25 17216.1 19970 17139.8 18869.2 16761.6 16347.9 2436.09 17662.8 6460.13 9887.77 11565.1
internal_count=1035735 946992 877434 800937 756094 707060 691784 669171 657684 649382 643671 76497 88743 636261 632521 49034 69558 293356 44843 272047 339165 270382 316995 264076 256964 50899 295798 99152 157812 194955
cat_boundaries=0 1 2 3 4 5 6 7 8 9 10 11 12 13 14 16 17 18 19 20 21 22 23 24 25 26 28 29 30 31 33
cat_threshold=480 480 480 480 416 256 480 256 256 256 480 256 256 256 536871141 6 160 256 224 256 256 160 64 4194817 160 2550171885 4218881 1 133199898 256 160 2013725697 7
is_linear=0
shrinkage=0.1


Tree=5
num_leaves=31
num_cat=30
split_feature=4 3 5 2 6 7 1 8 9 10 0 3 6 11 5 4 7 2 0 8 1 12 4 7 3 9 7 6 2 5
split_gain=1201.98 1144.01 1059.64 984.648 862.154 749.457 669.935 575.827 425.101 317.56 297.882 228.88 227.079 215.984 214.969 197.626 187.847 146.521 133.831 108.148 105.76 103.802 94.6673 91.5728 76.1864 63.0228 59.954 56.5869 56.1623 55.3113
threshold=0 1 2 3 4 5 6 7 8 9 10 11 12 13 14 15 16 17 18 19 20 21 22 23 24 25 26 27 28 29
decision_type=1 1 1 9 1 1 9 1 9 9 9 1 1 9 1 1 1 9 9 1 9 9 1 1 1 9 1 1 9 1
left_child=15 11 14 17 -5 -6 -7 -8 -9 -10 18 -2 26 -14 27 -1 20 -4 -11 -18 -15 -21 -23 -22 28 29 -12 -3 -25 -24
right_child=1 2 3 4 5 6 7 8 9 10 12 -13 13 16 -16 -17 19 -19 -20 21 23 22 25 24 -26 -27 -28 -29 -30 -31
leaf_value=-0.04246866369795764 -0.097109321493914047 -0.010459403940362879 -0.096659705025786191 -0.097356366322371948 -0.098982233912723483 -0.074804644212655452 -0.096450244016532294 -0.097029405607245864 -0.097347234704453944 -0.084206963789622294 0.0078909175404796254 -0.037169244161786956 -0.094943531677673554 -0.010771215401969536 -0.096642409741671195 -0.098072505413421607 -0.0063865420542013928 -0.037658962064953422 -0.0057608845908130183 -0.083377634899352904 -0.0097620278915552458 0.044915957032332171 0.033797619294596959 0.0067289168137350365 0.028391077658492633 0.040293810666551015 -0.027250625445767042 -0.049721039979094363 0.021941019063896297 0.016690935126749986
leaf_weight=1667.3196372389793 1017.805903531611 615.5474865809083 751.5898715108633 693.58282821998 567.58244004100561 793.66367229819298 430.45541930198669 306.50868305563927 222.34598267450929 230.72775398939848 890.23402332514524 1806.8651288561523 143.28608219325542 1220.9568729288876 892.6494220867753 1095.5577155873179 711.62130788713694 1051.6091726571321 2303.9265761189163 67.281544949859381 1007.370450746268 5482.9027258455753 3271.2347798012197 4356.6237887628376 8147.2752302587032 3365.0698293522 1053.3867456503212 975.88792184367776 5556.9386249706149 4669.0657278448343
leaf_count=38596 29881 13535 22043 20369 16511 20509 12291 8782 6072 5823 17444 41465 3597 22256 26208 32471 13401 24191 40025 1590 20540 83080 50768 72598 132164 50416 21205 22131 92297 73476
internal_value=0 0.00276028 0.00627786 0.00962614 0.0125041 0.0142263 0.0157011 0.0173716 0.018533 0.019385 0.0200188 -0.0590337 0.0221299 0.023837 -0.057254 -0.0647913 0.0243115 -0.0626485 -0.0132046 0.0318969 0.0177313 0.033516 0.0340338 0.019561 0.0212011 0.0287211 -0.0111968 -0.0346953 0.0152694 0.0237722
internal_weight=0 52604 49779.3 47295.2 45492 44798.5 44230.9 43437.2 43006.8 42700.2 42477.9 2824.67 39943.2 37999.6 2484.08 2762.88 37856.3 1803.2 2534.65 17567.2 20289.2 16855.6 16788.3 19068.2 18060.8 11305.4 1943.62 1591.44 9913.56 7940.3
internal_count=1035735 964668 893322 831448 785214 764845 748334 727825 715534 706752 700680 71346 654832 616183 61874 71067 612586 46234 45848 272731 339855 259330 257740 317599 297059 174660 38649 35666 164895 124244
cat_boundaries=0 1 2 3 4 5 6 7 8 9 10 11 12 13 14 15 16 18 19 20 21 22 23 24 25 27 29 30 32 34 35
cat_threshold=416 480 416 480 256 256 416 256 256 256 12682208 256 224 256 160 160 1610612965 6 256 320 160 577 256 99842072 160 3087631877 7 3156610789 1 1679306753 4223553 1 1074545153 7 196601880
is_linear=0
shrinkage=0.1


Tree=6
num_leaves=31
num_cat=30
split_feature=4 3 5 2 6 7 1 8 9 5 10 0 6 4 3 2 6 11 3 1 7 3 6 8 2 5 7 10 0 4
split_gain=1036.98 985.313 906.899 863.922 739.377 650.226 576.692 497.81 367.604 275.932 273.481 250.089 215.687 196.784 166.892 143.651 136.801 115.063 97.9807 94.5084 92.6744 75.3871 74.9982 67.5473 66.199 66.1909 58.0014 54.9598 52.6151 51.8881
threshold=0 1 2 3 4 5 6 7 8 9 10 11 12 13 14 15 16 17 18 19 20 21 22 23 24 25 26 27 28 29
decision_type=1 1 1 9 1 1 9 1 9 1 9 9 1 1 1 9 1 9 1 9 1 1 1 1 9 1 1 9 9 1
left_child=13 14 9 15 -5 -6 -7 -8 -9 -3 -10 -12 16 -1 -2 -4 26 -14 -19 -18 -20 -21 -11 -23 29 -26 -13 -27 -25 -22
right_child=1 2 3 4 5 6 7 8 10 22 11 12 17 -15 -16 -17 19 18 20 21 24 23 -24 28 25 27 -28 -29 -30 -31
leaf_value=-0.039830795560198827 -0.038642054636716452 -0.095675746458949606 -0.09572559151336657 -0.096428570657742338 -0.098140467097555514 -0.072675447740967625 -0.095388364973253162 -0.096029899723763829 -0.096326127318854801 -0.0027062546202342836 -0.071868288577839307 0.0074097280516991597 -0.088551207223924303 -0.097210691633652202 -0.096159254727122015 -0.035848675052897315 -0.0083509214310861935 0.092863277594708915 -0.002563944525552541 0.026049789036061741 0.051467661910616538 0.027984922741184623 -0.040772077361821715 -0.015923251951273233 0.040729899309811746 0.043589582416860589 -0.026901882960551106 0.018731388727833902 0.011395478168462349 0.028837188820972717
leaf_weight=1604.0230811834335 1201.8941953778267 828.82139426469803 700.84333516284823 618.38944606855512 512.31277503818274 743.21806481108069 390.79948486015201 278.17414347454906 200.9840939976275 772.436428245157 298.72360410913825 847.67570481449366 76.95662584900856 999.7338628731668 929.68613571487367 1023.4477558359504 1644.4555958136916 219.66558723151684 1030.7816403657198 5975.0342849157751 1953.8457433730364 2433.3938211463392 1621.6266312114894 742.30364233627915 2130.9380857609212 992.93908327817917 1162.3402679376304 9150.933810248971 11887.454433005303 2356.124204069376
leaf_count=38596 28531 26519 22316 19893 16337 20542 12194 8721 6007 16066 7986 16449 2113 32471 29881 24366 29117 3322 19601 94221 29570 37812 36463 13315 32448 14618 23892 140800 195153 36415
internal_value=0 0.0023793 0.00519053 0.00868609 0.0113159 0.0128167 0.0141153 0.0156052 0.0166268 -0.0460571 0.0173759 0.0179309 0.0185772 -0.0621499 -0.06406 -0.0605975 0.0125042 0.0269376 0.0274853 0.0147215 0.0266178 0.016528 -0.0285526 0.0127363 0.0284319 0.0246251 -0.0124667 0.0212052 0.00977851 0.0391917
internal_weight=0 52726.2 50594.6 47371.7 45647.4 45029.1 44516.7 43773.5 43382.7 3222.88 43104.6 42903.6 42604.8 2603.76 2131.58 1724.29 24692.7 17912.2 17835.2 22682.6 17615.6 21038.2 2394.06 15063.2 16584.8 12274.8 2010.02 10143.9 12629.8 4309.97
internal_count=1035735 964668 906256 827208 780526 760633 744296 723754 711560 79048 702839 696832 688846 71067 58412 46682 409959 278887 276774 369618 273452 340501 52529 246280 253851 187866 40341 155418 208468 65985
cat_boundaries=0 1 2 3 4 5 6 7 8 9 10 11 12 14 15 16 17 18 19 20 21 22 23 25 27 28 29 30 32 33 34
cat_threshold=416 416 480 480 256 256 416 256 256 256 256 480 4161274087 7 160 160 256 224 256 16 74305 224 99641370 4218881 1 53768730 6 104585242 2147581978 1678778369 217059336 5 46244352 50059802
is_linear=0
shrinkage=0.1


Tree=7
num_leaves=31
num_cat=30
split_feature=4 3 5 2 6 7 1 8 9 4 10 0 5 11 6 3 2 6 5 7 12 11 9 8 7 7 5 2 3 2
split_gain=893.451 819.116 758.904 721.976 659.66 572.927 500.585 437.214 328.462 256.992 236.377 214.715 198.948 184.014 181.087 160.504 143.347 110.352 102.579 75.6433 66.9191 73.0425 61.9564 60.3126 58.7427 57.0417 51.4264 50.4046 49.7729 49.6827
threshold=0 1 2 3 4 5 6 7 8 9 10 11 12 13 14 15 16 17 18 19 20 21 22 23 24 25 26 27 28 29
decision_type=1 1 1 9 1 1 9 1 9 1 9 9 1 9 1 1 9 1 1 1 9 9 9 1 1 1 1 9 1 9
left_child=9 15 12 16 -5 -6 -7 -8 22 -1 -10 -12 -3 -13 17 -2 -4 -15 23 -16 -21 -22 -9 -19 -25 -23 29 -26 -20 -11
right_child=1 2 3 4 5 6 7 8 10 26 11 13 -14 14 19 -17 -18 18 28 20 21 25 -24 24 27 -27 -28 -29 -30 -31
leaf_value=-0.09633533400709679 -0.035779375550646142 -0.030424185367061974 -0.094694355186435764 -0.095470604043469687 -0.097376521684122613 -0.07835582662892171 -0.094444763028670067 -0.028787178896917481 -0.095286666056306285 -0.033184429683960064 -0.069054002319448068 -0.062585569533873162 -0.094419628298385974 -0.010936410554902376 -0.0086155132965549889 -0.094860699799711096 -0.032934256043683087 -0.019317954029227216 0.030406036187779085 -0.051138655141141104 0.048673559006488981 0.033474449137757122 -0.095076797018153733 0.027990837242655438 0.0010640876923035385 0.020475924168929942 -0.04695815070165537 0.014424374500849031 0.015441370259890683 0.011354995176199785
leaf_weight=912.49137076176703 1139.8578696325421 1491.9151407331228 638.97018785215914 576.08569377660751 470.08833795785904 589.18892875686288 361.14987003803253 368.28673033416271 181.70560399070382 672.92447635531425 284.73408953472972 281.70635626837611 737.15049489960074 1977.5349334403872 649.80205795913935 816.90329005010426 987.82875318080187 747.98835989460349 3910.1605992056429 103.5655405819416 1398.8839665316045 5077.0036359503865 254.80669815838337 1544.8053840883076 6123.420609857887 10692.650854930282 1301.3063092678785 5243.3699793219566 5354.330352474004 392.63991137593985
leaf_count=32471 28031 35395 22257 20229 16415 17580 12299 6375 5932 15902 8126 6617 25899 40106 13389 28893 24299 12210 59983 1997 20122 74043 8734 23482 101635 162281 31151 86145 84518 9219
internal_value=0 0.00250318 0.00498993 0.00765287 0.00996376 0.011316 0.0124691 0.0136874 0.0145922 -0.0512365 0.0156284 0.0161147 -0.0519146 0.0166932 0.0172292 -0.0608014 -0.0576226 0.0117003 0.013657 0.0249006 0.0261657 0.0266616 -0.0569691 0.00813343 0.00973745 0.0246793 -0.0335176 0.0072343 0.0217833 -0.0168195
internal_weight=0 52003.9 50047.1 47818.1 46191.3 45615.2 45145.1 44555.9 44194.8 3279.36 43571.7 43390 2229.07 43105.2 42823.5 1956.76 1626.8 24901.6 22924.1 17921.9 17272.1 17168.5 623.093 13659.6 12911.6 15769.7 2366.87 11366.8 9264.49 1065.56
internal_count=1035735 946992 890068 828774 782218 761989 745574 727994 715695 88743 700586 694654 61294 686528 679911 56924 46556 408079 367973 271832 258443 256446 15109 223472 211262 236324 56272 187780 144501 25121
cat_boundaries=0 1 2 3 4 5 6 7 8 9 10 11 12 13 14 16 17 18 19 21 22 23 24 25 27 29 30 31 33 34 36
cat_threshold=480 416 416 480 256 256 384 256 288 256 256 480 160 288 4161405159 6 160 256 224 4027187271 7 160 288 569225752 32 603980004 1 929132568 1 3249060376 229983235 4044116485 6 251050010 4230742500 7
is_linear=0
shrinkage=0.1


Tree=8
num_leaves=31
num_cat=30
split_feature=3 4 2 5 6 7 1 8 9 10 0 5 11 4 0 3 4 6 4 2 2 7 5 1 6 3 8 2 12 8
split_gain=777.818 772.191 744.271 735.959 666.198 560.624 530.81 422.824 309.221 229.663 229.003 172.05 166.493 151.842 120.905 94.8309 94.2658 84.5226 74.4713 69.6485 68.7307 60.8158 59.8599 56.5637 51.6536 51.1494 49.8432 47.04 46.6029 45.6187
threshold=0 1 2 3 4 5 6 7 8 9 10 11 12 13 14 15 16 17 18 19 20 21 22 23 24 25 26 27 28 29
decision_type=1 1 9 1 1 1 9 1 9 9 9 1 9 1 9 1 1 1 1 9 9 1 1 9 1 1 1 9 9 1
left_child=-1 -2 19 -4 -5 -6 -7 -8 -9 -10 14 25 -13 16 -11 -15 -14 23 -17 -3 29 -19 -22 -18 -16 -12 -26 28 -25 -20
right_child=1 2 3 4 5 6 7 8 9 10 11 12 13 15 24 18 17 21 20 -21 22 -23 -24 27 26 -27 -28 -29 -30 -31
leaf_value=-0.095029573589419297 -0.09527297781127135 -0.042522762714481473 -0.094204636916371653 -0.095912956255530812 -0.097452943143199272 -0.079384578196078276 -0.094757923247600795 -0.095362284997733887 -0.095620229866155801 -0.091298565460553358 0.0019233376995372088 -0.093696806429005769 -0.01406954883186215 -0.017698932361165209 -0.02326709983881968 0.052114542861119578 -0.023168890390095065 -0.01486521186692193 0.023865910904975047 -0.095702720460902682 0.025983009489159936 0.019808431612961187 0.011076921290376357 0.00041231358211993953 0.038068982896866554 -0.029976403878379076 -0.0090133587427516353 0.015141461605477463 0.036678832260563766 0.04352885063783983
leaf_weight=850.72613946907222 814.25232602655888 458.70690924860537 741.59182228147984 630.1907947640866 501.32498729974031 679.08215560391545 379.85897009819746 268.14600869081914 193.65005403198302 195.68023876659572 903.29500901326537 133.93929288350046 1683.8342496268451 626.96876947581768 1474.9108496047556 771.18023167178035 657.9836694560945 533.28411878272891 5137.9209976233542 728.90175620839 4020.3075304925442 8617.6924062594771 8327.6009558066726 7498.9338577650487 319.38032834231853 1132.7509569525719 701.66947070136666 4293.9509382918477 361.94773031026125 1592.6143166385591
leaf_count=31991 31736 11697 27571 22934 18293 20926 13576 9646 6671 5846 20348 3960 40196 15475 28034 11776 12093 9929 78480 26111 61623 128991 129655 125609 5285 25816 11915 70688 5651 23213
internal_value=0 0.000781615 0.00225921 0.00404064 0.00546954 0.00674065 0.00779396 0.00899777 0.00981383 0.0104066 0.0108451 0.012495 0.0138038 0.0141513 -0.0174721 0.0204588 0.0086832 0.0104331 0.0216724 -0.0756888 0.0204152 0.0177738 0.0159472 0.00518063 -0.0113429 -0.0158838 0.0059402 0.00673308 0.00212665 0.0285763
internal_weight=0 54381.6 53567.3 52379.7 51638.1 51007.9 50506.6 49827.5 49447.6 49179.5 48985.8 46294.2 44258.2 44124.2 2691.64 20476.6 23647.6 21963.8 19849.6 1187.61 19078.4 9150.98 12347.9 12812.8 2495.96 2036.05 1021.05 12154.8 7860.88 6730.54
internal_count=1035735 1003744 972008 934200 906629 883695 865402 844476 830900 821254 814583 763503 717339 713379 51080 320222 393157 352961 304747 37808 292971 138920 191278 214041 45234 46164 17200 201948 131260 101693
cat_boundaries=0 1 2 3 4 5 6 7 8 9 10 11 12 13 15 16 17 18 20 21 22 23 24 25 26 28 29 31 33 34 36
cat_threshold=256 256 384 256 256 256 384 256 256 256 4260832 224 256 4161290981 7 256 224 224 1343095015 7 16 128 107994138 268435616 23196186 576 3523470053 4 217575964 3496730780 3 4178313829 7 2611532707 1512472749 7
is_linear=0
shrinkage=0.1


Tree=9
num_leaves=31
num_cat=30
split_feature=3 4 2 5 6 7 1 8 9 10 0 5 1 11 3 4 4 8 6 10 2 9 2 7 2 6 5 6 13 12
split_gain=695.851 689.385 649.005 652.404 590.274 496.743 473.566 372.754 272.934 202.877 192.106 160.331 152.033 138.773 131.75 133.054 84.2616 77.3603 70.924 70.5003 70.4669 68.5691 58.5249 56.0933 54.5915 53.0553 57.4687 50.7991 43.6937 53.1335
threshold=0 1 2 3 4 5 6 7 8 9 10 11 12 13 14 15 16 17 18 19 20 21 22 23 24 25 26 27 28 29
decision_type=1 1 9 1 1 1 9 1 9 9 9 1 9 9 1 1 1 1 1 9 9 9 9 1 9 1 1 1 9 9
left_child=-1 -2 20 -4 -5 -6 -7 -8 -9 19 -11 27 -13 -14 -15 18 -17 21 24 -10 -3 23 25 -18 -16 -19 -27 -12 -20 -30
right_child=1 2 3 4 5 6 7 8 9 10 11 12 13 14 15 16 17 22 28 -21 -22 -23 -24 -25 -26 26 -28 -29 29 -31
leaf_value=-0.094048110589013204 -0.094335707608886307 -0.039940650398587824 -0.093150527027766175 -0.094985181124165485 -0.096659724267645242 -0.093111356412035121 -0.09376767328575028 -0.094437794909865064 -0.023579837347537696 -0.071826962947771009 0.0058451990497399766 -0.01123184616145049 -0.091974546280351982 -0.017809021221358658 0.029191665703196118 -0.012867228867009875 -0.0089664355371682127 -0.010043451716632824 -0.040179295159993383 -0.094705411885488214 -0.094744614057108809 0.036151384711355282 0.016341770739726459 0.020615729435974516 0.010665803307992838 0.019051915657115472 0.0020686118939575136 -0.02719931525684112 0.067193535186765879 0.026319264791071689
leaf_weight=777.49990550242364 743.81504185497761 441.11401281133294 678.34161408245564 575.60435231775045 457.23196282982826 458.91917445138097 348.4748791847378 245.97874808125198 642.35841643624008 275.94104809127748 688.99609532952309 2729.6085531655699 115.7163063865155 1308.2104974575341 2035.5327558666468 1575.2663684375584 879.72148198261857 2230.089889973402 88.467331748455763 177.5442035086453 665.96989158913493 2014.730736464262 5460.0311861000955 2329.2256713919342 7403.8071826025844 2811.9604482911527 6808.2302874401212 1426.3301069848239 330.53851167112589 8455.5585256032646
leaf_count=31991 31736 11697 27571 22934 18293 15505 13610 9675 11045 8718 14800 50904 3706 32495 30743 37949 14078 37042 1321 6689 26111 28989 85653 34165 116197 42520 108601 33767 4591 122639
internal_value=0 0.000630792 0.00196453 0.00356714 0.0048496 0.00598811 0.00693008 0.00785963 0.00858603 0.00911389 0.00994317 0.0104212 0.0116453 0.0130717 0.0133706 0.0143361 0.00944498 0.0110098 0.0207663 -0.0399372 -0.0734612 0.0216758 0.00778045 0.0125032 0.0146875 0.00382536 0.00704742 -0.0164593 0.0272082 0.0279316
internal_weight=0 54403.3 53659.5 52552.4 51874.1 51298.5 50841.2 50382.3 50033.8 49787.9 48968 48692 46576.7 43847.1 43731.4 42423.2 24109.3 22534 18313.9 819.903 1107.08 5223.68 17310.3 3208.95 9439.34 11850.3 9620.19 2115.33 8874.56 8786.1
internal_count=1035735 1003744 972008 934200 906629 883695 865402 849897 836287 826612 808878 800160 751593 700689 696983 664488 388997 351048 275491 17734 37808 77232 273816 48243 146940 188163 151121 48567 128551 127230
cat_boundaries=0 1 2 3 4 5 6 7 8 9 10 11 12 13 14 15 16 17 19 21 22 23 25 27 29 30 32 34 36 38 40
cat_threshold=256 256 384 256 256 256 256 256 256 416 448 224 737 256 224 133676056 224 1140152850 2 1745888485 3 160 128 495324901 1 4177790563 7 285230308 6 6640666 1375994084 5 2376441880 1 4210689 1 1048868 2 698558992 1
is_linear=0
shrinkage=0.1


Tree=10
num_leaves=31
num_cat=30
split_feature=3 4 5 2 6 7 1 8 9 10 0 5 2 4 5 2 1 6 11 7 3 9 6 3 3 0 12 11 7 6
split_gain=622.408 615.517 576.834 574.019 526.336 442.726 426.418 330.157 244.859 175.911 174.478 147.281 87.9567 81.6105 75.9333 80.3936 86.9398 68.5551 61.4082 56.6378 55.7176 53.439 51.2551 50.3045 49.5798 46.441 45.2624 43.3001 44.6418 42.6884
threshold=0 1 2 3 4 5 6 7 8 9 10 11 12 13 14 15 16 17 18 19 20 21 22 23 24 25 26 27 28 29
decision_type=1 1 1 9 1 1 9 1 9 9 9 1 9 1 1 9 9 1 9 1 1 9 1 1 1 9 9 9 1 1
left_child=-1 -2 -3 -4 -5 -6 -7 -8 21 -10 -11 14 19 -14 29 -16 -17 -15 26 -13 -20 -9 -18 -22 -24 -26 -19 -25 -29 -12
right_child=1 2 3 4 5 6 7 8 9 10 11 12 13 17 15 16 22 18 20 -21 23 -23 24 27 25 -27 -28 28 -30 -31
leaf_value=-0.093030435687316712 -0.093363287456920019 -0.092288111190188912 -0.093626846271097366 -0.094127750900775478 -0.095924992008843246 -0.092194658573860985 -0.092808102752456642 -0.03043895635707064 -0.09360632937963291 -0.089226644182746256 0.0035461184837417281 0.036616541932210193 -0.023293643112392085 -0.014164572280980031 -0.012412220023623651 -0.020386556078152599 0.019137209667358313 0.019153272217867289 -0.025609253212325173 0.017422264365203829 0.060349826669581323 -0.093543927659559559 0.013538398003429495 -0.034048341723303045 -0.027091791072118815 0.0031960357943211755 0.05850229562043583 0.0071924498923032808 0.018207220874747267 -0.02589525845423267
leaf_weight=710.92661641910672 679.79079867899418 635.10902097634971 599.71445251442492 531.40529515221715 421.22024403139949 430.0801056381315 321.55608466081321 393.01521975360811 159.62873169593513 172.40684406645596 782.97830669209361 2204.8321079276502 689.81890362687409 973.90700115635991 2391.8048401568085 1084.0595764666796 3706.3530240021646 825.30287880264223 390.75904416292906 5338.180154627189 205.56318051181734 226.90345537476242 5360.622443979606 196.70557450130582 528.60858379863203 8428.2193748932332 475.78599587455392 8187.2683773245662 6747.2590784076601 1326.4339327998459
leaf_count=31991 31736 28175 25717 23083 18405 15769 13685 7057 6574 5971 16905 32752 16939 19859 46048 20940 55843 11923 9879 84045 2976 9730 84478 4093 9878 139432 6703 126722 96098 32329
internal_value=0 0.000499324 0.0017039 0.00284526 0.00396488 0.00498583 0.00582886 0.00667145 0.00731933 0.00809574 0.00843897 0.00879462 0.0139512 0.0102595 0.00306092 0.00483928 0.00700408 0.0115575 0.013036 0.0230738 0.0112913 -0.0546551 0.00866191 0.0122475 0.00593871 0.00138031 0.033879 0.0115546 0.0121777 -0.0150019
internal_weight=0 54415.3 53735.5 53100.4 52500.7 51969.3 51548.1 51118 50796.4 50176.5 50016.9 49844.5 26235.4 18692.4 23609.1 21499.7 19107.9 18002.6 17028.6 7543.01 15727.6 619.919 18023.8 15336.8 14317.5 8956.83 1301.09 15131.2 14934.5 2109.41
internal_count=1035735 1003744 972008 943833 918116 895033 876628 860859 847174 830387 823813 817842 411989 295192 405853 356619 310571 278253 258394 116797 239768 16787 289631 229889 233788 149310 18626 226913 222820 49234
cat_boundaries=0 1 2 3 4 5 6 7 8 9 10 11 13 14 15 16 17 18 19 20 21 22 23 24 25 26 27 29 30 32 34
cat_threshold=256 256 256 256 256 256 256 256 288 256 256 1879703781 7 121429016 224 224 16777953 736 224 463773208 112672272 224 32 129020440 16 2817681432 12694112 288265507 3 292 68551909 3 2151702529 1
is_linear=0
shrinkage=0.1


Tree=11
num_leaves=31
num_cat=30
split_feature=3 4 5 2 6 7 1 8 9 10 0 11 12 1 2 13 0 3 6 4 8 5 10 11 5 11 7 12 10 7
split_gain=556.612 549.602 513.31 510.439 467.539 393.581 376.748 291.952 214.284 159.414 159.583 132.25 113.163 107.475 110.309 95.1269 92.4247 91.8794 86.756 82.9477 81.7031 79.7047 56.6205 51.3467 51.1076 49.7249 48.55 46.0474 45.8374 43.949
threshold=0 1 2 3 4 5 6 7 8 9 10 11 12 13 14 15 16 17 18 19 20 21 22 23 24 25 26 27 28 29
decision_type=1 1 1 9 1 1 9 1 9 9 9 9 9 9 9 9 9 1 1 1 1 1 9 9 1 9 1 9 9 1
left_child=-1 -2 -3 -4 -5 -6 -7 -8 -9 -10 16 -12 -13 -14 23 -16 -11 -17 29 -20 -21 24 -23 -15 -22 -18 -26 -28 -29 -19
right_child=1 2 3 4 5 6 7 8 9 10 11 12 13 14 15 17 25 18 19 20 21 22 -24 -25 26 -27 27 28 -30 -31
leaf_value=-0.091970077969317443 -0.092349445751759865 -0.091164004128267931 -0.092590065845613301 -0.093140210719394795 -0.095092905167113537 -0.090987811464538437 -0.091721254380899508 -0.09253190792633996 -0.092837448673069312 -0.087970265552025265 -0.092129908685837356 -0.089825492433257131 -0.010047917359425418 0.04585438938040523 -0.093341091977972912 -0.020273932037411041 0.039949706103868159 -0.040779556196075498 -0.010099714802585709 -0.014662686976655008 -0.0071979906840024203 0.036086336334903664 0.017812699601893845 -0.01023952722557417 0.0087395460150544672 -0.015361979025685238 0.017473965340463669 -0.0073291714067811042 0.071912178040855909 -0.00044716664772685661
leaf_weight=650.42912189289927 621.6205066293478 581.52000285498798 548.52350441738963 485.77994618192315 384.38761989213526 394.18234441801906 294.34419883415103 207.54810724593699 149.70316878519952 160.03906707838178 120.17848998866975 106.09224064648151 2758.5678567048162 162.50655842572451 76.360883250832558 863.46005924418569 165.54623273387551 392.54473975300789 1447.6917174309492 947.34277475625277 1503.1460091248155 1913.1345781609416 16184.110715869814 3131.8320497609675 12773.004075951874 2353.5671410318464 4455.4854072630405 100.47963850945234 305.27830692753196 832.97018328309059
leaf_count=31991 31736 28175 25717 23083 18405 15769 13685 9730 6719 6025 4161 2450 52466 2690 1301 21657 2723 9114 35526 16810 34976 25507 231404 58863 195732 43362 62389 1404 4135 18030
internal_value=0 0.000389582 0.00147809 0.00250734 0.00351512 0.00443257 0.00518933 0.00594439 0.00652467 0.00694665 0.00725921 0.00858403 0.00885559 0.00909312 0.0102661 0.0116555 -0.0164566 0.01187 0.0125541 0.0133659 0.014258 0.0149975 0.0197633 -0.00734207 0.0104828 -0.0115835 0.0119931 0.0205065 0.052585 -0.0135915
internal_weight=0 54420.9 53799.3 53217.8 52669.3 52183.5 51799.1 51404.9 51110.6 50903 50753.3 48074.2 47954 47847.9 45089.3 41795 2679.15 41718.6 40855.2 39629.7 38182 37234.6 18097.2 3294.34 19137.4 2519.11 17634.2 4861.24 405.758 1225.51
internal_count=1035735 1003744 972008 943833 918116 895033 876628 860859 847174 837444 830725 778615 774454 772004 719538 657985 52110 656684 635027 607883 572357 555547 256911 61553 298636 46085 263660 67928 5539 27144
cat_boundaries=0 1 2 3 4 5 6 7 8 9 10 11 12 13 14 15 16 17 18 19 20 21 23 25 27 28 30 32 34 36 38
cat_threshold=256 256 256 256 256 256 256 256 256 256 4260832 256 256 737 737 256 256 192 160 224 160 1883899109 7 209877584 5 3454324744 4 224 357349406 2 3926006503 2 2559779495 7 1076037856 4 189158630 3
is_linear=0
shrinkage=0.1


Tree=12
num_leaves=31
num_cat=30
split_feature=3 4 5 2 6 7 1 8 9 10 0 11 4 5 3 7 8 2 9 0 10 3 1 13 12 3 2 8 5 9
split_gain=497.512 490.61 456.705 453.975 415.485 350.177 333.062 258.397 189.95 143.893 135.944 114.293 106.839 70.8067 66.7168 64.7234 64.6012 60.9852 58.2251 56.5646 54.0232 52.572 52.5831 50.4399 48.1895 47.4239 44.4811 42.3438 40.2166 39.5553
threshold=0 1 2 3 4 5 6 7 8 9 10 11 12 13 14 15 16 17 18 19 20 21 22 23 24 25 26 27 28 29
decision_type=1 1 1 9 1 1 9 1 9 9 9 9 1 1 1 1 1 9 9 9 9 1 9 9 9 1 9 1 1 9
left_child=-1 -2 -3 -4 -5 -6 -7 -8 -9 20 -11 -12 13 -13 -14 -15 19 -16 25 -17 -10 -21 -23 -20 -25 -19 -24 -26 -27 -18
right_child=1 2 3 4 5 6 7 8 9 10 11 12 14 15 17 16 29 18 23 21 -22 22 26 24 27 28 -28 -29 -30 -31
leaf_value=-0.090860893546955229 -0.091288151729270017 -0.089988104863391885 -0.091508901554974723 -0.092111320766352756 -0.094231126739158011 -0.089733544950370989 -0.090589513929053678 -0.091481321461664419 -0.023099145749422352 -0.086402274464297324 -0.090854865073518198 -0.023988285313474002 -0.017777538713861535 -0.028250103991425603 0.038324953480325129 -0.022550022108242442 0.024951862350765405 0.0049097706823413136 -0.02771434174600157 0.011546354275533898 -0.091816166353094905 -0.0056949463441855266 7.986970035681691e-05 0.058191533788313224 0.0042841694152452115 0.029212683259234859 0.02015992880678362 0.029138583458295716 0.01178435401203462 0.0077798279804390316
leaf_weight=595.47481763735414 568.78905583918095 532.83793503046036 502.00836861692369 444.32301130332053 350.91744387336075 361.54014175012708 269.61368456855416 189.95556084811687 642.13095694221556 145.94569084234536 108.84202226623893 935.80733050964773 718.31315941363573 601.34216231480241 909.95697893202305 901.07580087147653 2055.3244792576879 9910.8322872444987 179.45863864570856 5087.5467974431813 136.99429659172893 7554.1128353439271 2872.6258345991373 405.86805501766503 1001.4609641935676 1622.2648431118578 1785.033970978111 2268.6700162626803 7433.5049640052021 3922.7381677459925
leaf_count=31991 31736 28175 25717 23083 18405 15769 13685 9730 11106 5973 4081 22738 18628 12517 13406 17871 29685 153659 2662 82352 6719 127143 48662 5539 14765 23586 29913 31940 114691 59808
internal_value=0 0.00028905 0.00127308 0.00220181 0.00310967 0.00393495 0.00461513 0.00529267 0.00581324 0.00619201 0.00685399 0.00714184 0.00737252 0.00286971 0.0121052 0.00389327 0.00470405 0.0130168 0.0119914 0.00173824 -0.0361921 0.00301565 -0.000544866 0.0232003 0.0257543 0.00970188 0.00780219 0.0215633 0.0149353 0.0137156
internal_weight=0 54419.8 53851 53318.2 52816.2 52371.9 52021 51659.4 51389.8 51199.9 50420.7 50274.8 50165.9 25715.6 24450.3 24779.8 24178.5 23732 22822.1 18200.4 779.125 17299.3 12211.8 3855.46 3676 18966.6 4657.66 3270.13 9055.77 5978.06
internal_count=1035735 1003744 972008 943833 918116 895033 876628 860859 847174 837444 819619 813646 809565 430689 378876 407951 395434 360248 346842 305941 17825 288070 205718 54906 52244 291936 78575 46705 138277 89493
cat_boundaries=0 1 2 3 4 5 6 7 8 9 10 11 12 14 15 16 17 19 20 22 23 24 25 27 29 30 32 34 36 37 39
cat_threshold=256 256 256 256 256 256 256 256 256 416 256 256 4161274597 7 224 224 160 1016595685 7 49176 3767420141 3 66272 160 1138944026 4034925253 7 2450559268 2 791792280 4060664324 7 2986743501 7 1409811170 1 75543056 2738463250 7
is_linear=0
shrinkage=0.1


Tree=13
num_leaves=31
num_cat=30
split_feature=3 4 5 2 6 7 1 8 9 10 0 11 12 2 6 7 8 5 2 11 3 5 9 6 9 10 3 1 4 0
split_gain=444.525 437.889 406.32 403.86 369.411 311.837 294.631 228.911 171.814 122.952 119.709 107.735 103.081 93.6308 92.4915 99.2681 62.621 64.7954 59.0413 57.6586 52.2764 45.954 45.9261 42.9744 42.2696 40.8728 40.7381 39.948 41.2198 38.9047
threshold=0 1 2 3 4 5 6 7 8 9 10 11 12 13 14 15 16 17 18 19 20 21 22 23 24 25 26 27 28 29
decision_type=1 1 1 9 1 1 9 1 9 9 9 9 9 9 1 1 1 1 9 9 1 1 9 1 9 9 1 9 1 9
left_child=-1 -2 -3 -4 -5 -6 -7 -8 24 -10 -11 -12 -13 23 -15 18 22 -18 -16 25 -20 26 -17 -14 -9 -19 -21 28 -22 -29
right_child=1 2 3 4 5 6 7 8 9 10 11 12 13 14 15 16 17 19 20 21 27 -23 -24 -25 -26 -27 -28 29 -30 -31
leaf_value=-0.089697091668058213 -0.090173715821822042 -0.08875475814967769 -0.090377469738866262 -0.091035272760589009 -0.09333411152619811 -0.088426093639783016 -0.089407642220035832 -0.029134102930881402 -0.090489130823842981 -0.084906890667034746 -0.090280291955538355 -0.089723576523194196 0.010308935533240266 -0.017021273691521448 -0.028313956900957796 0.0056712309273781424 -0.017868678857155564 -0.035523389332879761 -0.0037274512324279741 0.035819824197911375 -0.016346143994488273 0.0079707881451141025 -0.035021475386761876 0.024672531052383168 -0.090387315419559147 0.03162697291518881 0.013885721906066982 0.020352634353594069 0.0076537862518210589 0.005585280186223205
leaf_weight=545.57347935810685 520.82259725034237 488.62926138937473 459.75789997912943 406.66762471199036 320.51414943672717 331.87089398130774 247.14613335207105 386.56334162317216 122.35748478397727 134.39740660786629 105.32327738031745 101.13657039962709 5191.1406143959612 1853.3821366988122 651.41145883873105 644.18196974508464 667.71296126767993 88.678279042243958 8915.9827207978815 1217.221726603806 1365.208715531975 10637.313662311062 476.55933714471757 3535.3429817743599 173.97055240347981 2125.6248955335468 2910.4020480439067 2483.276931066066 1484.3082113862038 6370.2475222125649
leaf_count=31991 31736 28175 25717 23083 18405 15769 13685 7057 6574 5971 4273 2507 85279 38718 17178 10898 16447 1461 154041 16810 23303 152755 8212 53369 9730 28561 41543 38577 23842 100068
internal_value=0 0.000207782 0.00109774 0.00193627 0.00275476 0.00349788 0.00410996 0.00471872 0.00518641 0.00579492 0.00604382 0.00630098 0.00651929 0.00672927 0.00476352 0.00577595 0.0110757 0.0125337 0.00109677 0.0137391 0.00203921 0.0114639 -0.0117887 0.0161496 -0.0493961 0.0287901 0.0204249 0.00643197 -0.00386158 0.00974558
internal_weight=0 54417.2 53896.3 53407.7 52947.9 52541.3 52220.8 51888.9 51641.7 51081.2 50958.9 50824.5 50719.1 50618 41891.5 40038.1 18767.7 17647 21270.4 16979.2 20619 14764.9 1120.74 8726.48 560.534 2214.3 4127.62 11703 2849.52 8853.52
internal_count=1035735 1003744 972008 943833 918116 895033 876628 860859 847174 830387 823813 817842 813569 811062 672414 633696 276687 257577 357009 241130 339831 211108 19110 138648 16787 30022 58353 185790 47145 138645
cat_boundaries=0 1 2 3 4 5 6 7 8 9 10 11 12 13 14 15 17 18 19 20 21 23 24 26 28 29 30 31 33 35 37
cat_threshold=256 256 256 256 256 256 256 256 288 256 256 256 256 74569752 224 604242149 1 224 224 224 266944024 2953347813 5 169990168 136325147 2 3556903075 6 32 160 100305936 1086333668 1 2961973927 5 186522632 1
is_linear=0
shrinkage=0.1


Tree=14
num_leaves=31
num_cat=30
split_feature=3 4 5 2 6 7 1 8 9 10 0 11 12 13 1 2 0 4 6 8 3 5 6 7 3 11 1 11 8 5
split_gain=396.906 390.645 361.344 359.237 328.488 277.839 260.692 202.895 149.755 112.243 107.957 92.9827 87.761 88.2299 82.3045 75.7692 67.4608 67.2472 62.6832 50.9355 49.1899 44.5968 42.7605 38.9358 38.6634 38.6048 38.5836 38.5095 37.6965 36.8556
threshold=0 1 2 3 4 5 6 7 8 9 10 11 12 13 14 15 16 17 18 19 20 21 22 23 24 25 26 27 28 29
decision_type=1 1 1 9 1 1 9 1 9 9 9 9 9 9 9 9 9 1 1 1 1 1 1 1 1 9 9 9 1 1
left_child=-1 -2 -3 -4 -5 -6 -7 -8 -9 -10 16 -12 -13 -14 28 27 -11 26 19 -19 -21 -20 23 -22 -23 -18 -17 -16 -15 -24
right_child=1 2 3 4 5 6 7 8 9 10 11 12 13 14 15 17 25 18 21 20 22 24 29 -25 -26 -27 -28 -29 -30 -31
leaf_value=-0.088473285390405026 -0.089000796809232605 -0.087458800091319427 -0.089190259944140857 -0.089906636917238894 -0.092396581811602999 -0.087060294394537746 -0.088170911131410262 -0.089245481007041563 -0.089680249988447092 -0.083540098255562384 -0.088606025635634231 -0.086848347378329555 -0.093202612973983801 0.016594600203549487 0.0385668470035243 0.036445771736345473 -0.014633178788568355 -0.026387906201634465 -0.0056126734686183146 -0.022785770455610588 0.0020168728366543446 0.05764240802544715 0.0053117314188384605 -0.037111147623175807 0.015108074749401075 0.028976144558065825 -0.016637297274466317 -0.0089353427335282388 -0.015902513188518094 0.01360902290766091
leaf_weight=500.27472247928381 477.28608942776918 448.49541918933392 421.39392308518291 372.47639098763466 292.90576429106295 304.9138817563653 226.74060785397887 159.45026000309736 115.14660039544106 125.1938112936914 93.278491275385022 90.779451781883836 78.491476709023118 420.25816374272108 170.4176879785955 142.79197579622269 2284.2392187323421 454.70362208038568 1046.3268842063844 530.65007494017482 755.5383380278945 209.48487822338939 13075.801868658513 374.49086464568973 15571.163982510567 214.17371920309961 1401.7862874865532 3279.1484960839152 2160.1297645512968 9113.2959148138762
leaf_count=31991 31736 28175 25717 23083 18405 15769 13685 9730 6719 6025 4161 2450 1441 7223 2662 3479 42714 8473 21574 13624 16275 2564 202868 8958 215834 3371 34609 62255 41739 128426
internal_value=0 0.000133892 0.000939042 0.00169651 0.00243493 0.00310463 0.00365601 0.0042036 0.00462434 0.00493101 0.00515951 0.0062193 0.00641836 0.00660967 0.00678962 0.00776263 -0.0145695 0.00891545 0.00968573 0.00643077 0.00706727 0.0143805 0.00775608 -0.0111619 0.0157089 -0.0107942 -0.011527 -0.00648391 -0.0105662 0.00872411
internal_weight=0 54411 53933.7 53485.2 53063.8 52691.3 52398.4 52093.5 51866.7 51707.3 51592.1 48968.5 48875.3 48784.5 48706 46125.6 2623.61 42676 41131.5 24304.5 23849.8 16827 23319.1 1130.03 15780.6 2498.41 1544.58 3449.57 2580.39 22189.1
internal_count=1035735 1003744 972008 943833 918116 895033 876628 860859 847174 837444 830725 778615 774454 772004 770563 721601 52110 656684 618596 378624 370151 239972 356527 25233 218398 46085 38088 64917 48962 331294
cat_boundaries=0 1 2 3 4 5 6 7 8 9 10 11 12 13 14 15 16 17 18 20 21 22 23 24 26 27 29 30 32 33 35
cat_threshold=256 256 256 256 256 256 256 256 256 256 4260832 256 256 256 736 737 256 224 4161275111 7 160 192 4194528 160 4103186969 5 16 3803334561 5 99627032 3454324744 4 2323805330 4069130469 7
is_linear=0
shrinkage=0.1


Tree=15
num_leaves=31
num_cat=30
split_feature=3 4 5 2 6 7 1 8 9 10 0 12 11 2 4 5 13 14 13 3 7 6 3 10 8 0 9 6 7 1
split_gain=354.145 348.331 321.206 319.499 292.123 247.667 230.7 179.918 133.839 98.8509 92.9442 81.4106 99.337 76.6002 66.6612 64.0452 55.1955 52.0316 43.8602 41.97 45.3891 41.9412 42.5053 40.9337 40.4941 40.3714 36.7972 36.7901 36.4243 34.4856
threshold=0 1 2 3 4 5 6 7 8 9 10 11 12 13 14 15 16 17 18 19 20 21 22 23 24 25 26 27 28 29
decision_type=1 1 1 9 1 1 9 1 9 9 9 9 9 9 1 1 9 9 9 1 1 1 1 9 1 9 9 1 1 9
left_child=-1 -2 -3 -4 -5 -6 -7 -8 26 23 -11 -12 13 19 -15 25 -14 -18 24 20 -13 -17 -23 -10 -19 28 -9 -26 -16 -21
right_child=1 2 3 4 5 6 7 8 9 10 11 12 16 14 15 21 17 18 -20 29 -22 22 -24 -25 27 -27 -28 -29 -30 -31
leaf_value=-0.087184515224989434 -0.087764439292814828 -0.086095583797046585 -0.087942228694163641 -0.088720359163433266 -0.091413520048420793 -0.08563165141482558 -0.086875136569929998 -0.027422656852074581 -0.021217482539395691 -0.08157563669960316 -0.055883457680167808 0.02913927885840055 -0.084840281577458945 -0.023528025915862158 0.03229524607738863 0.01560988907190556 -0.071377595337358032 -0.012020877272051523 0.045421537089975962 0.012466117049663083 0.010890100537391688 0.018297925460646729 5.8655948671153556e-05 -0.088207038962487966 0.0061907150312667768 -0.0053647493461775027 -0.088051977632188291 0.029713767928528801 0.0027768331084350125 -0.00027256292673919131
leaf_weight=459.16536654997617 437.78066803514957 412.07076434418559 386.5691077336669 341.43941622599959 267.84253394603729 280.4290260002017 208.21253887750208 378.57060526683927 621.13513958826661 113.30405921302736 206.17847455665469 1757.2858419828117 40.147094866260886 1039.6758794654161 456.69629706069827 4175.7059253901243 50.59935543127358 394.96647059544921 710.88514189980924 3575.9306816719472 6211.3286176864058 1552.8992686476558 7012.4954768847674 102.83843242004514 1016.1372800134122 11180.285695495084 146.26348469033837 2025.5043634548783 4071.1850994396955 5224.7789093647152
leaf_count=31991 31736 28175 25717 23083 18405 15769 13685 7057 10870 5919 4406 25065 779 26448 7108 59578 692 6170 9910 56992 95183 23130 108903 6574 14784 186424 9730 27616 68521 85315
internal_value=0 7.09629e-05 0.000799688 0.00148431 0.00215099 0.00275507 0.0032523 0.00374543 0.00412444 0.00464005 0.00516544 0.00537533 0.00563646 0.00429122 0.00122117 0.00213357 0.0202745 0.0214789 0.0227807 0.00968598 0.014946 0.00739921 0.0033829 -0.0318053 0.0179791 -0.00213945 -0.0456496 0.0219013 0.00581876 0.00491173
internal_weight=0 54399.1 53961.4 53549.3 53162.7 52821.3 52553.4 52273 52064.8 51540 50816 50702.7 50496.5 46258.3 29488.9 28449.3 4238.24 4198.09 4147.49 16769.3 7968.61 12741.1 8565.39 723.974 3436.61 15708.2 524.834 3041.64 4527.88 8800.71
internal_count=1035735 1003744 972008 943833 918116 895033 876628 860859 847174 830387 812943 807024 802618 742667 480112 453664 59951 59172 58480 262555 120248 191611 132033 17444 48570 262053 16787 42400 75629 142307
cat_boundaries=0 1 2 3 4 5 6 7 8 9 10 11 12 14 15 16 18 19 20 22 23 24 25 26 27 28 30 31 33 35 37
cat_threshold=256 256 256 256 256 256 256 256 288 416 256 288 4027728295 7 108788762 224 4095476965 6 256 288 4061288693 2 3185752090 79116888 249763344 62038040 160 1073807584 253533208 2 32 2253457632 6 2157973512 6 1228123162 2
is_linear=0
shrinkage=0.1


Tree=16
num_leaves=31
num_cat=30
split_feature=3 4 2 5 6 7 1 8 9 10 11 0 3 4 4 7 7 12 8 2 3 5 2 9 10 6 6 5 6 8
split_gain=315.758 310.431 285.659 283.845 259.779 220.858 204.162 159.596 118.435 89.4276 86.0961 83.7872 77.5835 73.3951 66.5963 64.9345 58.416 56.7893 59.5265 49.816 42.8823 41.3247 45.6147 38.8411 37.395 37.2169 36.9312 36.1968 34.628 34.133
threshold=0 1 2 3 4 5 6 7 8 9 10 11 12 13 14 15 16 17 18 19 20 21 22 23 24 25 26 27 28 29
decision_type=1 1 9 1 1 1 9 1 9 9 9 9 1 1 1 1 1 9 1 9 1 1 9 9 9 1 1 1 1 1
left_child=-1 -2 -3 -4 -5 -6 -7 -8 -9 -10 -11 -12 16 23 -15 29 19 -17 20 -13 -19 -22 -23 -14 25 -20 -26 -18 -29 -16
right_child=1 2 3 4 5 6 7 8 9 10 11 12 13 14 15 17 27 18 24 -21 21 22 -24 -25 26 -27 -28 28 -30 -31
leaf_value=-0.085826361821904742 -0.086460166023310012 -0.086844140030921058 -0.084425531665482292 -0.087471822920255154 -0.09038022956612031 -0.084136349930486673 -0.085516733206113166 -0.086803513399479434 -0.087371580617311595 -0.088147179427454037 -0.080307967144796474 0.041308716899062473 0.10497620593568653 -0.022073562186853034 -0.006338314532754033 -0.05828506817067558 0.015516144668484928 -0.018832402847682311 0.038945414742830538 0.013254905152360528 0.0074220920153480118 0.010508063912567049 -0.004099745083126871 0.025854430638142585 -0.0024603305734325876 0.01047826860296488 0.012585658543247745 -0.0094507014423251476 0.0068310899288338348 -0.038120794421346658
leaf_weight=421.86690315883607 401.94125176221132 360.35020295996219 373.6352272592485 313.27272410318255 245.09541594609618 258.19574580714107 191.39273803774267 134.28992212563753 97.095362984575331 90.981530988588929 106.84526601061225 1000.7079475075006 64.670829938724637 1168.2128375507891 893.41169248148799 140.42734016664326 3931.1888900510967 1063.4921291526407 810.00944583304226 1787.4094581212848 7956.5456372611225 2586.1276871785522 12101.107032962143 563.8885690048337 2630.6946224309504 1101.8738375902176 4286.794321032241 1568.10842487216 7614.0106839388609 547.50525565072894
leaf_count=31991 31736 26111 27781 23083 18405 15769 13685 9730 6719 4354 6019 14062 915 29754 16685 3088 57609 27615 10745 26058 115910 40662 197366 8683 39569 15230 60319 25399 120321 10362
internal_value=0 1.96363e-05 0.00067938 0.00128358 0.00190067 0.00244595 0.00289477 0.00333927 0.00368108 0.00393087 0.00411807 0.00429668 0.0044866 0.00191037 0.00130193 0.00210855 0.0103004 0.00302686 0.00330931 0.0234356 0.000697375 0.00162252 -0.0015222 0.0355115 0.0103138 0.0226789 0.00686843 0.00749187 0.00404325 -0.0185942
internal_weight=0 54389.3 53987.3 53627 53253.4 52940.1 52695 52436.8 52245.4 52111.1 52014 51923 51816.2 35914.8 35286.2 34118 15901.4 32677.1 32536.6 2788.12 23707.3 22643.8 14687.2 628.559 8829.37 1911.88 6917.49 13113.3 9182.12 1440.92
internal_count=1035735 1003744 972008 945897 918116 895033 876628 860859 847174 837444 830725 826371 820352 576903 567305 537551 243449 510504 507416 40120 381553 353938 238028 9598 125863 25975 99888 203329 145720 27047
cat_boundaries=0 1 2 3 4 5 6 7 8 9 10 11 12 13 14 15 16 18 19 21 23 24 26 27 29 31 32 34 35 37 39
cat_threshold=256 256 256 256 256 256 256 256 256 256 256 256 98809882 16 224 224 1152495632 4 288 3496086757 7 1296779288 4 224 2184526874 1 73463836 1412065282 4 1190273560 3 2850882076 713622242 5 1168499224 876881060 2 1231108817 2
is_linear=0
shrinkage=0.1


Tree=17
num_leaves=31
num_cat=30
split_feature=3 4 2 5 6 7 1 8 9 0 13 10 11 12 4 1 9 0 2 9 6 7 3 3 5 7 6 8 7 5
split_gain=281.294 276.471 254.979 250.29 229.19 195.744 176.003 140.784 107.755 78.4347 71.9574 71.7994 69.2759 67.4855 64.2124 64.6181 48.2536 46.1553 44.3396 41.6502 41.7318 51.136 42.4861 40.5644 38.4767 36.8212 35.8867 39.7078 35.5705 35.2357
threshold=0 1 2 3 4 5 6 7 8 9 10 11 12 13 14 15 16 17 18 19 20 21 22 23 24 25 26 27 28 29
decision_type=1 1 9 1 1 1 9 1 9 9 9 9 9 9 1 9 9 9 9 9 1 1 1 1 1 1 1 1 1 1
left_child=-1 -2 18 -4 -5 -6 -7 -8 16 17 -11 -12 -13 -14 23 28 -9 -10 -3 29 -21 -22 -23 25 -25 -15 27 -19 -16 -17
right_child=1 2 3 4 5 6 7 8 9 10 11 12 13 14 15 19 -18 26 -20 20 21 22 -24 24 -26 -27 -28 -29 -30 -31
leaf_value=-0.084394959061237146 -0.085084007816971119 -0.033136494832645511 -0.082748866983157185 -0.085995518255424286 -0.089170929842504409 -0.082137261885173535 -0.083944731337333378 -0.019735573374901675 -0.077934590822746799 -0.089780762519913793 -0.084412681510182136 -0.085172307723069135 -0.08485714374412158 0.030905070063139785 0.023155973600553714 -0.0028362928036157788 -0.085358527656234431 -0.0098824934793045379 -0.085475574283738934 -0.0087760314482782601 0.012637877963249489 0.005751574218340369 -0.0060037090839109089 0.013515814477371248 0.0014429905235468748 0.01274928337738486 -0.020061505325340005 0.032981767209834478 0.0071125217598433351 0.026091311294885344
leaf_weight=388.03318630345166 369.43405958265066 399.72296153847128 341.26162617839873 284.7302269693464 222.24514191504568 232.62569436244667 174.60921129211783 914.67304415535182 95.884676997549832 69.889187862165272 79.240055059082806 74.370783441700041 72.486949848011136 1441.8142489474267 1792.3316495232284 686.31111322343349 122.31267933920026 613.59476663451642 331.1705853799358 5134.8070741724223 3305.1458292640746 5117.5779770873487 7670.389161169529 4719.7725452594459 5996.6503322590142 5171.4570003766567 1443.4249350195751 321.38573446124792 6084.9351354371756 1090.1815957780927
leaf_count=31991 31736 11697 27571 22934 18293 15505 13610 15927 5873 1500 6024 3932 2307 19482 26371 10218 9675 10521 26111 83847 47773 84901 125041 68042 93557 74603 28371 5107 97892 15323
internal_value=0 -2.17403e-05 0.000575793 0.00138578 0.00194373 0.00243556 0.00284083 0.00323524 0.00354395 0.00419539 0.00508216 0.00523754 0.00540186 0.00555898 0.00571249 0.00297626 -0.0282172 -0.0131398 -0.0576851 0.000297921 -0.000935768 0.00156971 -0.00129858 0.010584 0.0067678 0.0167483 -0.0102122 0.00504457 0.0107877 0.0149624
internal_weight=0 54374.4 54005 53274.1 52932.8 52648.1 52425.9 52193.2 52018.6 50981.7 48507.4 48437.5 48358.2 48283.9 48211.4 30881.7 1036.99 2474.29 730.894 23004.4 21227.9 16093.1 12788 17329.7 10716.4 6613.27 2378.41 934.981 7877.27 1776.49
internal_count=1035735 1003744 972008 934200 906629 883695 865402 849897 836287 810685 760813 759313 753289 749357 747050 491366 25602 49872 37808 367103 341562 257715 209942 255684 161599 94085 43999 15628 124263 25541
cat_boundaries=0 1 2 3 4 5 6 7 8 9 10 11 12 13 14 15 16 17 18 19 20 22 24 25 26 27 29 31 33 34 36
cat_threshold=256 256 384 256 256 256 256 256 416 66528 256 256 256 256 83082264 121256986 160 256 128 1091592210 269361888 7 1673566738 5 1189212251 154483738 854187034 1351069778 4 771495962 3 765206051 4 2209817628 149914336 4
is_linear=0
shrinkage=0.1


Tree=18
num_leaves=31
num_cat=30
split_feature=4 3 2 5 6 7 1 8 9 10 1 0 14 11 13 11 2 5 4 4 2 6 9 7 13 10 3 9 11 5
split_gain=250.565 245.787 226.101 223.185 205.486 175.874 160.143 125.716 93.9358 76.7554 66.2192 65.8518 61.3275 57.1738 56.6194 58.6329 52.6344 52.7932 47.8561 38.0249 37.1094 40.4803 35.922 33.2714 45.1318 31.6801 31.6723 31.4295 31.0837 31.0988
threshold=0 1 2 3 4 5 6 7 8 9 10 11 12 13 14 15 16 17 18 19 20 21 22 23 24 25 26 27 28 29
decision_type=1 1 9 1 1 1 9 1 9 9 9 9 9 9 9 9 9 1 1 1 9 1 9 1 9 9 1 9 9 1
left_child=-1 -2 -3 -4 -5 -6 -7 -8 -9 25 27 19 -13 -14 -15 22 -17 26 -19 28 -20 -22 -16 -24 -25 -10 -18 -11 29 -12
right_child=1 2 3 4 5 6 7 8 9 10 11 12 13 14 15 16 17 18 20 -21 21 -23 23 24 -26 -27 -28 -29 -30 -31
leaf_value=-0.084018658109413391 -0.082486403377502071 -0.084034542052275743 -0.081312162632886431 -0.084784856650062926 -0.088155745087534113 -0.080967657584388258 -0.082612521504440428 -0.084142313650902315 -0.020748093533305225 0.013362477160086034 0.017418662118914116 -0.073980722895889056 -0.082587224079910829 -0.08534442949394215 -0.013057519796412355 0.011965214226336202 -0.032704327283768778 0.0099998419293485744 -0.012128179365093583 -0.021077092216676804 -0.006587725539655003 0.0045854647427609968 0.0086295557657259277 0.070201678333132719 0.023783959351246484 -0.084984170063724634 -0.0021711052442660445 -0.016410979721913015 0.052309767137212686 -0.017671117109146078
leaf_weight=347.86276987195015 349.43922907300293 304.70045900251716 317.59988425672054 264.7171519882977 205.86525916680694 220.02396838366985 162.3649066304788 113.61915497202426 625.19124288856983 414.95372778084129 437.28021417651325 87.459039776585996 63.703548522666097 58.426320860162377 325.43701391667128 8138.1539336498827 621.12943624891341 9106.3823413532227 1837.0813471470028 1532.6954458197579 3926.2539937440306 18425.139923678711 1211.1324449721724 241.49599459767342 1621.2755001466721 82.771977871656418 752.45226440951228 2248.6149614816532 105.60357995610684 570.70213168952614
leaf_count=32471 31256 26111 27781 23083 18405 15769 13685 9730 11106 7008 8543 1288 3673 1316 4924 121786 15323 131426 35320 31518 63942 277021 17078 3168 21664 6719 17738 44498 1650 10735
internal_value=0 -6.75419e-05 0.000480747 0.000975692 0.00148024 0.00192588 0.00229283 0.00265568 0.00293482 0.00313951 0.00358961 0.00442408 0.00529959 0.00546519 0.00560426 0.0057377 0.00473092 0.00302976 0.00382417 -0.0108945 0.001496 0.00262071 0.0183647 0.0217229 0.0301444 -0.0293374 -0.0161147 -0.01174 0.00318317 -0.00242699
internal_weight=0 54371.7 54022.2 53717.5 53399.9 53135.2 52929.3 52709.3 52547 52433.3 51725.4 49061.8 46415.5 46328.1 46264.4 46205.9 42806.6 34668.4 33294.9 2646.28 24188.5 22351.4 3399.34 3073.9 1862.77 707.963 1373.58 2663.57 1113.59 1007.98
internal_count=1035735 1003264 972008 945897 918116 895033 876628 860859 847174 837444 819619 768113 715667 714379 710706 709390 662556 540770 507709 52446 376283 340963 46834 41910 24832 17825 33061 51506 20928 19278
cat_boundaries=0 1 2 3 4 5 6 7 8 9 10 11 12 13 14 15 16 17 18 19 21 22 24 25 27 29 30 32 34 36 38
cat_threshold=256 256 256 256 256 256 256 256 256 416 736 31523808 288 256 256 200121880 74639384 224 74690584 1195756690 3 736 940048608 6 736 4094167784 4 51365378 4 160 4077388994 5 111061022 2 3836954529 1 2175456401 2
is_linear=0
shrinkage=0.1


Tree=19
num_leaves=31
num_cat=30
split_feature=4 3 2 5 6 7 1 8 9 10 0 12 7 13 11 3 11 0 6 4 2 3 7 1 7 4 3 7 9 9
split_gain=223.054 218.201 200.94 197.583 182.554 156.881 141.583 111.514 83.6608 65.5138 63.5967 63.594 61.7724 61.1573 62.6213 58.9404 54.6761 53.5259 52.0851 47.6297 43.2716 47.2913 40.3288 38.929 38.5537 36.7063 36.6562 36.0193 35.8325 34.4752
threshold=0 1 2 3 4 5 6 7 8 9 10 11 12 13 14 15 16 17 18 19 20 21 22 23 24 25 26 27 28 29
decision_type=1 1 9 1 1 1 9 1 9 9 9 9 1 9 9 1 9 9 1 1 9 1 1 9 1 1 1 1 9 9
left_child=-1 -2 -3 -4 -5 -6 -7 -8 -9 -10 -11 -12 -13 -14 25 -16 -17 23 22 26 -21 -22 -19 28 -23 -15 27 -20 -18 -27
right_child=1 2 3 4 5 6 7 8 9 10 11 12 13 14 15 16 17 18 19 20 21 24 -24 -25 -26 29 -28 -29 -30 -31
leaf_value=-0.082513095954010615 -0.08087587861717993 -0.082518244116877693 -0.079632309095947595 -0.0833278370561535 -0.086947676418686476 -0.079259138217236735 -0.081052137423039169 -0.082715904490518868 -0.042050257619986063 -0.076488472746386094 -0.08296271641582377 -0.018044431451624356 -0.039213096119633646 0.0055231578339650401 -0.017500466890563039 -0.04676829157943023 0.033623830494706727 -0.0013730213406276291 0.062512480994708922 -0.025822841972552846 0.019500869172370337 0.0091108613655399833 -0.035773827476175933 0.0035500090117642903 -0.0001186648558938905 0.010993016172216354 0.050386460422093771 -0.018785755940330488 0.011869265885910939 0.036830950579094024
leaf_weight=320.38895314838737 322.35637993458658 280.69201820436865 293.33551055379212 243.67122065741569 188.86585040483624 203.36733016185462 149.78371155820787 104.65510231722146 313.69568048883229 90.28327979426831 75.479980824515224 1302.9858494326472 316.65470050647855 1738.0973085891455 1327.9977971445769 202.93492767494172 869.62310779094696 752.5086159966886 62.472932852804661 532.95476125739515 1570.728242456913 5646.2816265020519 622.49170001223683 5844.0969731714576 22655.15652439557 973.18089290708303 360.56492353603244 209.81478935666382 5936.0365074686706 1165.5648269299418
leaf_count=32471 31256 26111 27781 23083 18405 15769 13685 9730 11538 5991 2590 26839 5165 23943 34918 6430 11851 14909 802 14561 22478 78563 13618 90325 346309 13204 4929 2951 90296 15234
internal_value=0 -9.75675e-05 0.000399216 0.000847467 0.00130387 0.00170697 0.00203906 0.002367 0.00261955 0.00280513 0.00308239 0.00323474 0.00337554 0.00392853 0.00420692 0.00318875 0.00379945 0.00403751 0.00188286 0.00272873 0.00215843 0.00266613 -0.0170928 0.00955259 0.00172524 0.0164041 0.0296686 0.00142081 0.0146943 0.0251799
internal_weight=0 54356.3 54034 53753.3 53459.9 53216.3 53027.4 52824 52674.3 52569.6 52255.9 52165.6 52090.1 50787.2 50470.5 46593.7 45265.7 45062.7 32413 31038 30405.1 29872.2 1375 12649.8 28301.4 3876.84 632.853 272.288 6805.66 2138.75
internal_count=1035735 1003264 972008 945897 918116 895033 876628 860859 847174 837444 825906 819915 817325 790486 785321 732940 698022 691592 499120 470593 461911 447350 28527 192472 424872 52381 8682 3753 102147 28438
cat_boundaries=0 1 2 3 4 5 6 7 8 9 10 11 12 13 14 15 16 17 19 20 21 22 23 25 27 28 30 32 33 35 37
cat_threshold=256 256 256 256 256 256 256 256 256 288 256 256 160 420 265141784 224 288 203164696 2 224 16 224 2105360 1687167001 2 1690999866 3 132687888 3625600164 4 669294614 4 3470516226 631861842 3 3381486312 1
is_linear=0
shrinkage=0.1


Tree=20
num_leaves=31
num_cat=30
split_feature=4 3 2 5 6 7 1 8 9 11 4 2 9 9 3 1 7 6 5 6 7 2 0 3 7 5 8 6 4 7
split_gain=198.353 193.501 178.43 174.751 162.092 139.925 125.101 101.605 72.0847 58.7455 56.109 54.1338 50.2095 44.2914 44.6304 44.108 42.2139 40.4067 39.2474 40.1358 39.1142 43.75 36.4607 35.93 34.5768 33.4974 33.1663 32.3803 32.2368 31.8029
threshold=0 1 2 3 4 5 6 7 8 9 10 11 12 13 14 15 16 17 18 19 20 21 22 23 24 25 26 27 28 29
decision_type=1 1 9 1 1 1 9 1 9 9 1 9 9 9 1 9 1 1 1 1 1 9 9 1 1 1 1 1 1 1
left_child=-1 -2 -3 -4 -5 -6 -7 12 -9 -10 15 -12 26 14 -13 20 -15 -18 -17 -20 -11 -22 -21 -16 -24 -19 28 -25 -8 -29
right_child=1 2 3 4 5 6 7 8 9 10 11 13 -14 16 23 18 17 25 19 22 21 -23 24 27 -26 -27 -28 29 -30 -31
leaf_value=-0.080928033206175254 -0.079184854060170506 -0.080924683352982307 -0.077872647475526829 -0.081795885878761687 -0.085674568962674974 -0.077477304113031525 0.032514936022862664 -0.037183560744075084 -0.084454681331056825 0.029311195312459626 0.029735066182998662 -0.022291301120797549 -0.046245812735359271 -0.0095525158838410795 0.024723367291315638 -0.012671731705490151 0.0060721392784945111 0.053529218173662643 0.0081657447471491385 -0.034757058431388953 -0.0055162919321640642 0.015664309427024268 -0.018474801903957321 -0.003393799650518549 -0.0002634034069925615 0.019737326290165322 -0.072307459747889116 0.017713545898015628 -0.014728992557182003 0.0038984943167629615
leaf_weight=295.48021137714386 297.80018494464457 258.91906317230314 271.33278909511864 224.58389724418521 173.44700070191175 188.25273461267352 201.24810685217381 436.85194451920688 66.440791888162494 705.00869800522923 921.85803607106209 653.52889118250459 606.56593843176961 736.08735464978963 799.47111718636006 3476.7767930133268 2358.7326185144484 331.85101191420108 3627.995705188252 367.57798607088625 2198.500366570428 1738.4935514787212 1214.3544034985825 5493.8237274074927 7035.1803512033075 2666.9879825077951 59.958314458839595 1869.777814347297 446.63536582328379 14909.688488129526
leaf_count=32471 31256 26111 27781 23083 18405 15769 3625 15841 4232 10720 13196 17695 18492 11636 11255 61020 33233 4317 54646 8890 38371 28765 19802 86157 120995 36055 5999 25181 8131 222605
internal_value=0 -0.000121709 0.000328557 0.000734708 0.00114778 0.00151265 0.00181345 0.00211008 0.00281142 0.00316005 0.00329046 0.00598682 -0.0252408 0.00524294 0.00328631 -0.000780976 0.0128434 0.0159325 -0.00331019 -0.000643975 0.00777385 0.00385261 -0.00435823 0.00402014 -0.00296329 0.0236422 -0.0068477 0.00326626 0.000217272 0.00544757
internal_weight=0 54337.7 54039.9 53781 53509.7 53285.1 53111.6 52923.4 51609 51172.1 51105.7 30741.8 1314.41 29819.9 23726.3 20363.9 6093.66 5357.57 15721.9 12245.1 4642 3936.99 8617.11 23072.8 8249.53 2998.84 707.842 22273.3 647.883 16779.5
internal_count=1035735 1003264 972008 945897 918116 895033 876628 860859 824612 808771 804539 461330 36247 448134 362893 343209 85241 73605 265353 204333 77856 67136 149687 345198 140797 40372 17755 333943 11756 247786
cat_boundaries=0 1 2 3 4 5 6 7 8 9 10 12 13 14 16 17 18 20 21 23 24 25 27 28 29 31 32 33 35 36 37
cat_threshold=256 256 256 256 256 256 256 416 288 256 4026532581 5 16408 352364569 2416805069 5 224 87276570 2272 1 794429674 1906311392 6 1710349336 2201265176 1879857389 7 960 8208 270959342 1 270532632 160 4026574048 7 825421928 348140048
is_linear=0
shrinkage=0.1


Tree=21
num_leaves=31
num_cat=30
split_feature=4 3 2 5 6 7 1 8 9 10 14 12 13 3 6 5 7 11 7 2 12 4 4 2 8 8 4 1 1 10
split_gain=176.199 171.411 158.309 154.408 143.843 124.79 111.18 89.7991 70.0326 60.1598 57.6149 56.3774 56.5319 52.1073 51.2577 40.3964 41.0119 46.9581 39.6504 35.0841 34.5782 33.782 33.1725 36.008 32.8626 32.3548 30.7226 35.8987 30.4773 30.4215
threshold=0 1 2 3 4 5 6 7 8 9 10 11 12 13 14 15 16 17 18 19 20 21 22 23 24 25 26 27 28 29
decision_type=1 1 9 1 1 1 9 1 9 9 9 9 9 1 1 1 1 9 1 9 9 1 1 9 1 1 1 9 9 9
left_child=-1 -2 -3 -4 -5 -6 28 -8 -9 -10 -11 -12 -13 14 20 16 17 21 26 -17 -14 -15 -21 -24 29 -20 27 -16 -7 -19
right_child=1 2 3 4 5 6 7 8 9 10 11 12 13 15 18 19 -18 24 25 22 -22 -23 23 -25 -26 -27 -28 -29 -30 -31
leaf_value=-0.0792621999386217 -0.077412894411329439 -0.079252676306381734 -0.076033494371344212 -0.080187621802495904 -0.084333988964642823 -0.075622897418530344 -0.077998982245332221 -0.080362108462140605 -0.082824866980863499 -0.071762122111846113 -0.081276128800998493 -0.087877419658016709 -0.01721602016186994 0.002798194423304973 -0.0054238170195163677 -0.027459484096642478 0.007293440567063967 0.020348832657399642 0.00088157067479070208 0.0085664366919026881 0.024474589510193608 0.028185405240099538 -0.0067407492345583908 0.0050103521813217415 0.027792462707155016 0.014310123223004251 -0.0069584680505272375 0.010198170341121674 -0.024918225221446891 0.13941194432104009
leaf_weight=272.89916055370122 275.53707249462605 239.17538992222399 251.38264097366482 207.27433919161558 159.46275858301669 174.53851098753512 129.55352406296879 92.238095980137587 72.541247826069593 93.943973544985056 69.710508976131678 58.534130687825382 2395.8392971483991 987.40213380940259 2734.8391181547195 363.19309738837183 8706.848376609385 49.011011549271643 3945.3938769362867 7585.3603245383129 209.47589607629925 1132.5477051278576 4600.5983142973855 5992.3411423042417 191.17944530211389 3292.1204599887133 6627.9907190641388 3162.9099886845797 443.1236917488277 76.040224493481219
leaf_count=32471 31256 26111 27781 23083 18405 15769 13579 9664 6675 1484 2586 1460 42946 13528 47855 10102 125865 628 59025 113127 3451 15230 72966 92897 2374 46451 111233 53695 13105 933
internal_value=0 -0.000136969 0.000271258 0.000639418 0.00101345 0.00134392 0.0016166 0.00211574 0.0023285 0.00248952 0.00262373 0.00277137 0.00289938 0.00301832 -0.000626785 0.00576434 0.0105224 0.0219858 0.00111367 0.00290071 -0.0137832 0.0164295 0.00352205 -9.47892e-05 0.0575884 0.00700112 -0.00229104 0.0029572 -0.0402229 0.0977099
internal_weight=0 54320.1 54044.6 53805.4 53554 53346.7 53187.3 52569.6 52440.1 52347.8 52275.3 52181.3 52111.6 52053.1 22368.6 29684.5 11143 2436.18 19763.3 18541.5 2605.32 2119.95 18178.3 10592.9 316.231 7237.51 12525.7 5897.75 617.662 125.051
internal_count=1035735 1003264 972008 945897 918116 895033 876628 847754 834175 824511 817836 816352 813766 812306 364656 447650 158558 32693 318259 289092 46397 28758 278990 165863 3935 105476 212783 101550 28874 1561
cat_boundaries=0 1 2 3 4 5 6 7 8 9 10 11 12 13 15 17 18 20 22 24 25 27 29 31 33 35 37 38 40 41 43
cat_threshold=256 256 256 256 256 256 480 256 256 256 288 256 256 1879048933 7 524514 2 231078424 1083944976 2 2832294311 3 1344078565 6 224 3624807601 1 858301582 3 578283608 2 2164793862 7 3910451236 6 1499661477 5 109704211 3051369985 4 256 82960612 3
is_linear=0
shrinkage=0.1


Tree=22
num_leaves=31
num_cat=30
split_feature=4 3 2 5 6 7 1 8 9 0 14 11 10 10 12 2 4 3 5 8 7 6 6 10 12 9 9 6 11 6
split_gain=156.309 151.632 140.297 136.259 127.537 111.248 97.4625 81.1761 62.3735 54.1017 51.0172 50.1876 48.6846 46.4145 44.6578 43.6021 39.1838 37.8539 36.1942 33.5135 33.1241 33.3448 32.7369 32.6144 32.0308 32.7543 31.3732 31.9882 31.134 31.028
threshold=0 1 2 3 4 5 6 7 8 9 10 11 12 13 14 15 16 17 18 19 20 21 22 23 24 25 26 27 28 29
decision_type=1 1 9 1 1 1 9 1 9 9 9 9 9 9 9 9 1 1 1 1 1 1 1 9 9 9 9 1 9 1
left_child=-1 -2 -3 -4 -5 -6 -7 -8 23 -10 -11 -12 13 -13 -14 16 -15 -18 -19 26 -21 -22 -20 -9 -23 -26 27 -16 -27 -28
right_child=1 2 3 4 5 6 7 8 9 10 11 12 14 15 19 -17 17 18 22 20 21 24 -24 -25 25 28 29 -29 -30 -31
leaf_value=-0.077515304094101234 -0.075560604502636686 -0.077502010094076257 -0.074116248265684068 -0.07850255781943348 -0.082924144856278456 -0.073697728440882279 -0.034047152343957068 -0.0082769606325439112 -0.07408830219052874 -0.070245027208993061 -0.081472143509785683 -0.079512150266570061 -0.053269194438219952 -0.021656752139725722 0.037617713304714667 0.0054957933861604471 -0.025131469000670339 0.0062210417584685831 -0.0090244520860714005 0.0058921977771141422 0.0059813270712156825 0.06824195862744982 0.00078299508692076668 -0.046482438924763392 0.012205510425869313 0.0068983224185224581 -0.022441003783517797 0.0010999223688677397 0.052639265684553516 0.006083071370293288
leaf_weight=252.42959014791995 255.35431228391826 221.27309735585004 233.29469749704003 191.57781084999442 146.7801651628688 162.09542635641992 618.4747977424413 597.30722599849105 81.899355540052056 85.68588456697762 60.50817072018981 60.170977205969393 97.615136101841927 862.55569954961538 409.79319459013641 19080.236771263182 579.15477529168129 7598.8335614968091 4834.005040416494 1604.0855412650853 735.73139718733728 209.56501624360681 11445.667454201728 362.02971123624593 843.77792018465698 215.82603405788541 660.56458329595625 572.58787938393652 598.16140274144709 879.34976997971535
leaf_count=32471 31256 26111 27781 23083 18405 15769 23494 14653 5888 1455 4183 6041 2379 22671 5533 291576 15931 109766 77528 22293 10338 2647 182958 10490 10954 2677 9632 8058 7626 12088
internal_value=0 -0.000152356 0.000217825 0.000551651 0.000890446 0.00118991 0.00143726 0.00168049 0.00210798 0.0025804 0.00271686 0.00285227 0.00296761 0.001759 0.0108245 0.00188701 -0.000833508 -9.05773e-05 0.000527036 0.0118319 0.0172975 0.0242764 -0.00213293 -0.0230255 0.0314145 0.0263777 0.00268306 0.0165586 0.0407421 -0.00621851
internal_weight=0 54304 54048.6 53827.3 53594 53402.5 53255.7 53093.6 52475.1 51515.8 51433.9 51348.2 51287.7 44460.6 6827.06 44400.5 25320.2 24457.7 23878.5 6729.44 4207.15 2603.06 16279.7 959.337 1867.33 1657.77 2522.3 982.381 813.987 1539.91
internal_count=1035735 1003264 972008 945897 918116 895033 876628 860859 837365 812222 806334 804879 800696 706471 94225 700430 408854 386183 370252 91846 56535 34242 260486 25143 23904 21257 35311 13591 10303 21720
cat_boundaries=0 1 2 3 4 5 6 7 8 9 10 11 12 14 15 16 18 19 20 21 23 25 27 29 31 33 35 37 39 41 43
cat_threshold=256 256 256 256 256 256 256 288 416 256 288 256 3490548199 2 256 288 4160750309 7 224 224 23328794 3257435844 1 897733352 1 2383544544 4 1913455334 5 1549813833 2 738985474 2 673095244 1 573876242 3 2158793246 2 1503678084 5 487432358 2
is_linear=0
shrinkage=0.1


Tree=23
num_leaves=31
num_cat=30
split_feature=4 3 2 5 6 7 1 8 9 10 3 13 7 2 11 0 3 9 8 4 4 8 2 7 6 3 4 8 4 12
split_gain=138.476 133.947 125.668 118.927 111.638 98.1824 83.7743 74.5101 59.3829 53.0096 50.1331 48.0864 48.4075 46.2092 45.4438 46.8342 40.9857 40.8402 30.9209 30.7599 30.7338 30.4574 31.4522 38.0995 30.4511 47.2515 30.5215 30.2774 31.7204 30.175
threshold=0 1 2 3 4 5 6 7 8 9 10 11 12 13 14 15 16 17 18 19 20 21 22 23 24 25 26 27 28 29
decision_type=1 1 9 1 1 1 9 1 9 9 1 9 1 9 9 9 1 9 1 1 1 1 9 1 1 1 1 1 1 9
left_child=-1 -2 -3 -4 -5 -6 -7 -8 -9 -10 17 -12 27 -14 29 16 -16 18 -11 -19 21 22 23 -18 25 -17 -26 28 -13 -15
right_child=1 2 3 4 5 6 7 8 9 10 11 12 13 14 15 24 20 19 -20 -21 -22 -23 -24 -25 26 -27 -28 -29 -30 -31
leaf_value=-0.075688034359166823 -0.073629668423900257 -0.045836194526980546 -0.071877772064633971 -0.076482603241673525 -0.081248826182550957 -0.036301869851595496 -0.075220553883029104 -0.078053110726946831 -0.02560843710957816 -0.011114845902648263 -0.036897967606481112 0.026985406519228795 0.022630891568957447 0.005616324106310776 -0.0076319350652411721 0.025178765756357392 0.08602896039274098 0.040453434471910049 0.12583915493241601 -0.00052175713863845854 -0.00048013943398258715 0.0061186918180065651 -0.0010765504494868242 0.011236137129218407 -0.0046488130364586043 0.0034010809685571415 0.006082884919233718 -0.034075978814133039 -0.017949647972042012 0.023920121740119808
leaf_weight=233.87486860761419 237.05836026603356 577.27365680690855 214.97826606035233 175.39623466879129 133.86395677644759 570.59632371459156 115.00994574511424 82.331988614052534 665.79131594486535 27.348790277726948 302.95775270648301 228.75886616297066 1151.5633768560365 2271.7438188437372 7070.9446905981749 1800.7931258911267 160.07822021655738 333.32594504579902 63.136332758702338 401.75517371669412 16348.854144494981 2634.2770581748337 172.1285108923912 135.01692413631827 3589.3156259264797 2241.3356060609221 10066.059991295449 560.67324438504875 449.900136847049 1505.5890607489273
leaf_count=32471 31256 37808 27571 22934 18293 28292 13505 9610 17622 367 5274 4657 16915 30791 120093 25041 2124 4506 794 5703 251609 37838 2434 1839 59204 32491 154076 12064 9315 19238
internal_value=0 -0.000165227 0.000170537 0.00067568 0.00098198 0.00125229 0.00147617 0.00189456 0.00207862 0.00221998 0.00258454 0.00218358 0.00242584 0.00291945 0.0024419 0.00154104 -0.0011176 0.0268826 0.0874586 0.0183522 0.00125332 0.010363 0.0336635 0.0532984 0.00552362 0.0131414 0.00326072 -0.0170157 -0.00263126 0.0129558
internal_weight=0 54287.9 54050.8 53473.5 53258.5 53083.1 52949.3 52378.7 52263.7 52181.3 51515.6 50690 50387 49147.7 47996.1 44218.8 26521.3 825.566 90.4851 735.081 19450.4 3101.5 467.224 295.095 17697.5 4042.13 13655.4 1239.33 678.659 3777.33
internal_count=1035735 1003264 972008 934200 906629 883695 865402 837110 823605 813995 796373 785003 779729 753693 736778 686749 415937 11370 1161 10209 295844 44235 6397 3963 270812 57532 213280 26036 13972 50029
cat_boundaries=0 1 2 3 4 5 6 7 8 9 10 11 12 13 14 15 17 19 21 23 25 26 28 30 32 34 36 38 39 40 42
cat_threshold=256 256 384 256 256 256 480 256 256 416 16 420 160 24 200130072 4089521120 1 1090519777 5 1435073600 5 1417711768 4 471670342 3 5253144 974745636 2 2349805058 6 245799450 6 2158058002 1 64861706 1 2723938528 4 1363241041 46747242 1359119143 6
is_linear=0
shrinkage=0.1


Tree=24
num_leaves=31
num_cat=30
split_feature=4 3 2 5 6 7 1 8 9 0 11 13 12 10 5 6 1 7 8 5 9 3 3 12 7 4 4 2 6 4
split_gain=122.533 118.18 115.302 105.835 100.134 88.4184 80.4491 67.4569 53.8916 48.9999 49.0069 48.5271 50.0905 45.1833 43.6289 42.4366 38.3312 38.4448 39.8158 41.688 40.0581 37.6747 34.1707 34.0792 32.0256 31.2519 30.5911 29.1888 28.548 28.3666
threshold=0 1 2 3 4 5 6 7 8 9 10 11 12 13 14 15 16 17 18 19 20 21 22 23 24 25 26 27 28 29
decision_type=1 1 9 1 1 1 9 1 9 9 9 9 9 9 1 1 9 1 1 1 9 1 1 9 1 1 1 9 1 1
left_child=-1 -2 -3 -4 -5 -6 -7 -8 -9 -10 -11 -12 -13 -14 22 24 -17 -18 19 20 -19 23 -15 -20 -16 -23 -25 -27 -24 -21
right_child=1 2 3 4 5 6 7 8 9 10 11 12 13 14 15 16 17 18 21 29 -22 25 28 26 -26 27 -28 -29 -30 -31
leaf_value=-0.073782111582090137 -0.071622891381306064 -0.074534363483114568 -0.070072871243907639 -0.074919794034173384 -0.079904648514755094 -0.070671695546892108 -0.073861703341524185 -0.076796104990478897 -0.072836046304058266 -0.081429149521410352 -0.083760215791939277 -0.081433275694868107 -0.078962655739987522 -0.024077025836407449 0.014467732894825442 0.030679204428049431 -0.015325241826200958 0.007580740304858332 0.089660564894532516 0.011085230457103138 0.031939017697359233 -0.011658133993888251 0.017151347068231359 0.019700289355663224 0.0043971347121995958 0.033613107542427217 0.00087104915261977482 -0.0011970594164970073 -0.017259607275656723 -0.009027846151503682
leaf_weight=217.05618007993326 220.473193728365 195.99829386407509 202.12326555978507 164.53422666620463 124.91644366644323 145.49950752966106 108.95168125396594 77.705571937840432 78.158294100314379 60.690459248609841 56.070991303771734 61.870305884629488 58.660927062854171 1092.5693894419819 4117.3529715277255 410.38089917227626 1494.2178533617407 1757.7496879287064 41.130362201482058 1256.4617292769253 1108.3013289943337 3045.2083939686418 529.76612522825599 1303.6414908505976 13596.950176650658 234.11891498789191 2530.0731815118343 18207.439288336784 425.88021679222584 1561.1027903016657
leaf_count=32471 31256 26111 27781 23083 18405 15769 13685 9730 6039 4511 1585 2543 6450 27033 53850 6652 26795 25098 549 17427 14962 55920 11597 19530 193034 3463 37919 289221 10535 22731
internal_value=0 -0.00016712 0.000137561 0.000423125 0.000701727 0.000948321 0.00115254 0.00136216 0.00153037 0.0016596 0.0017833 0.00189416 0.0020009 0.00211413 0.00221931 0.00279865 0.000675802 0.000288096 0.00104426 0.0086015 0.0170784 -0.000652058 -0.0120551 0.00841115 0.0067447 -0.00228964 0.00730846 -0.000737161 0.0017963 -5.11586e-05
internal_weight=0 54268 54047.5 53851.5 53649.4 53484.9 53360 53214.5 53105.5 53027.8 52949.6 52888.9 52832.9 52771 52712.3 50664.1 32949.8 32539.4 31045.2 5683.62 2866.05 25361.6 2048.22 3874.85 17714.3 21486.8 3833.71 18441.6 955.646 2817.56
internal_count=1035735 1003264 972008 945897 918116 895033 876628 860859 847174 837444 831405 826894 825309 822766 816316 767151 520267 513615 486820 80218 40060 406602 49165 57998 246884 348604 57449 292684 22132 40158
cat_boundaries=0 1 2 3 4 5 6 7 8 9 10 11 12 13 14 15 16 17 19 21 22 23 24 26 27 29 31 33 34 36 38
cat_threshold=256 256 256 256 256 256 256 256 256 256 256 256 256 256 224 133427736 24 224 4 737165850 7 444407320 1101700335 31498264 4077391010 7 1612081776 1101047832 4 3758096608 1 1566679138 3 16 2572969985 1 607514652 3
is_linear=0
shrinkage=0.1


Tree=25
num_leaves=31
num_cat=30
split_feature=4 3 2 5 6 7 1 8 1 0 9 9 14 11 1 13 12 9 6 2 1 7 5 5 6 8 4 3 11 3
split_gain=108.232 104.896 98.1442 90.425 86.5932 77.4942 70.7981 59.6404 43.2501 42.7252 42.6604 42.1958 40.4077 37.2724 36.9142 36.0446 37.8181 35.375 35.2523 34.8507 33.9185 38.2801 32.2446 31.7272 38.1333 31.3551 35.8928 31.1518 30.88 30.8596
threshold=0 1 2 3 4 5 6 7 8 9 10 11 12 13 14 15 16 17 18 19 20 21 22 23 24 25 26 27 28 29
decision_type=1 1 9 1 1 1 9 1 9 9 9 9 9 9 9 9 9 9 1 9 9 1 1 1 1 1 1 1 9 1
left_child=-1 27 -3 -4 -5 -6 8 10 -7 -9 -8 -11 -13 -14 -15 -16 -17 19 25 29 21 22 -20 24 -21 -19 -27 -2 -24 -18
right_child=1 2 3 4 5 6 7 9 -10 11 -12 12 13 14 15 16 17 18 20 23 -22 -23 28 -25 -26 26 -28 -29 -30 -31
leaf_value=-0.071800392746207795 -0.023374791159918463 -0.071873602923228266 -0.067340900164667067 -0.072550416508194368 -0.077966948124454788 -0.067994637186331128 -0.0033757915000804267 -0.0094677462637708671 -0.011298091128315537 -0.073799983164926183 -0.041838838893112136 -0.065867122971083075 -0.077861487818169914 0.043853562561407447 -0.078644886112571283 -0.076529833484555415 0.0071713510764721371 -0.016532703932601606 0.014714599437981172 -0.018850250010330243 0.006102512108587678 0.0086755467364300828 0.0037184427035466764 0.0042821416120807764 0.0018233288711268993 0.02032542177428269 -0.0076151775007895807 -0.069544238014394397 0.053494810933950469 -0.017662790308691008
leaf_weight=201.81100962450728 587.43654477596283 177.4344040104188 185.09436485311016 150.18089118413627 113.71607767883688 133.15084402449429 677.17728965729475 2727.918089157436 2638.9215188603848 60.747273118700832 503.11106601264328 73.854173832572997 46.091562313493341 218.3592177759856 43.350367705803365 48.825270280707628 739.18152958294377 772.23216270189732 638.0422279923223 1341.9084294862114 2564.3151419260539 1218.1216749860905 162.80187254864722 31491.108683147468 2624.9419825323857 980.86210833862424 852.62304946780205 205.43882790626958 750.41119125206023 1523.8060668711551
leaf_count=32471 17876 25642 27431 22809 18216 15526 17601 54435 52608 8287 16552 1312 3841 3270 1320 2183 15290 11098 8295 24263 34177 16536 2113 460286 46730 13619 12328 31256 9681 28683
internal_value=0 -0.000177598 0.000361163 0.000615159 0.000864693 0.0010866 0.00127148 0.00213399 -0.014256 0.00267207 -0.0199849 0.00339152 0.00350925 0.00363488 0.0037335 0.00353248 0.00362761 0.00373006 0.00979431 0.00245141 0.0144508 0.0221312 0.032574 0.00322017 -0.00519996 0.000244006 0.00736142 -0.0360548 0.0447574 -0.00955511
internal_weight=0 54251.2 53458.3 53280.9 53095.8 52945.6 52831.9 50059.8 2772.07 48879.5 1180.29 46151.6 46090.8 46017 45970.9 45752.5 45709.2 45660.4 7939.41 37720.9 5333.69 2769.38 1551.26 35458 3966.85 2605.72 1833.49 792.875 913.213 2262.99
internal_count=1035735 1003264 954132 928490 901059 878250 860034 791900 68134 757747 34153 703312 695025 693713 689872 686602 685282 683099 107847 575252 70802 36625 20089 531279 70993 37045 25947 49132 11794 43973
cat_boundaries=0 1 2 3 4 5 6 7 8 9 10 11 12 13 14 15 16 17 19 20 21 23 25 27 29 30 32 34 35 37 38
cat_threshold=256 384 256 256 256 256 992 416 256 48341984 486584345 256 288 256 16 256 256 3090058413 1 251697382 736 1746024458 5 3434027036 3 1264117890 2 2415919328 4 1007357602 271223360 1 2799348740 6 128 3254337696 3 93431901
is_linear=0
shrinkage=0.1


Tree=26
num_leaves=31
num_cat=30
split_feature=4 2 6 3 5 7 8 1 10 4 4 14 5 6 7 8 0 2 9 11 0 3 3 1 6 7 3 6 5 7
split_gain=99.2524 84.0885 77.9375 70.6459 63.2915 60.4497 49.3331 45.1224 44.276 42.1809 41.9483 39.0634 38.3884 37.208 36.2112 34.6661 34.3959 34.325 33.9581 37.1975 33.401 32.5088 31.1487 29.3141 29.766 28.5045 35.1405 39.7945 29.0423 27.8187
threshold=0 1 2 3 4 5 6 7 8 9 10 11 12 13 14 15 16 17 18 19 20 21 22 23 24 25 26 27 28 29
decision_type=1 9 1 1 1 1 1 9 9 1 1 9 1 1 1 1 9 9 9 9 9 1 1 9 1 1 1 1 1 1
left_child=10 17 13 -4 -5 -6 -7 -8 -9 22 -1 -11 14 15 -13 21 -14 -2 -18 29 -21 -3 -10 24 -24 26 -22 28 -28 -20
right_child=1 2 3 4 5 6 7 8 9 11 -12 12 16 -15 -16 -17 18 -19 19 20 25 -23 23 -25 -26 -27 27 -29 -30 -31
leaf_value=-0.019346422322640833 -0.06893666960514197 0.024043006570466891 -0.062619672299971257 -0.060595674313072695 -0.074432405824636949 -0.027772653023527123 -0.060414062247598092 -0.023812892173688316 0.038842212273330623 -0.066215783294065592 -0.069746810660814035 0.053451934492419008 -0.04939128001411798 -0.069586945683191737 0.010129689635926866 -0.043561767387082215 -0.017750346418039773 -0.019296739210254044 0.021577072340989469 0.0054385737415974427 -0.017091341591877814 -0.016923749424142175 0.091470848873672753 -0.016453489251561926 0.0038781735030291339 0.0011216900235052998 0.034348280650408701 -0.010703743244408384 -0.00012641387771396279 0.0035477474624501766
leaf_weight=1226.3830026146024 163.56173607194796 248.5557909887284 161.26299220882356 152.48870459292084 93.494542563334107 537.74623446678743 104.1054800641723 619.1170861646533 554.84439568640664 72.70562687702477 187.9917517863214 260.86995568033308 119.08403334394097 138.4209873941727 727.26864441344514 338.58459809841588 819.38467167597264 889.00872225873172 1731.5201419666409 16107.671700175386 2080.6144553888589 771.10133156506345 53.091716181021184 281.10822347272187 115.64855990651995 21902.990858278703 452.62255923449993 1273.5801132535562 527.62949890270829 1711.2389277378097
leaf_count=38596 25632 6002 26879 24452 16733 21876 13421 16834 7465 1331 32471 3354 7071 22989 10126 9707 21116 28006 21226 237037 31911 19656 730 3832 1648 329260 6567 19268 8148 22391
internal_value=0 0.000261486 0.000830849 0.00149975 0.00171773 0.00191926 0.00207671 0.00240643 0.00255098 0.00289033 -0.026488 0.00246134 0.00257984 -0.0215814 0.0219878 -0.0162162 0.00216479 -0.0275866 0.00230709 0.00266982 0.00185547 -0.00680101 0.0230694 0.00319365 0.0350136 -0.000345505 -0.0077451 0.000920216 0.0159781 0.0126517
internal_weight=0 53009.3 51956.8 50460.1 50298.8 50146.3 50052.8 49515.1 49411 48791.9 1414.37 47787.2 47714.5 1496.66 988.139 1358.24 46726.3 1052.57 46607.3 45787.9 42345.1 1019.66 1004.69 449.848 168.74 26237.4 4334.45 2253.83 980.252 3442.76
internal_count=1035735 964668 911030 852676 825797 801345 784612 762736 749315 732481 71067 718806 717475 58354 13480 35365 703995 53638 696924 675808 632191 25658 13675 6210 2378 395154 65894 33983 14715 43617
cat_boundaries=0 1 2 3 4 5 6 7 8 9 10 11 12 13 14 16 18 19 20 21 22 24 25 27 29 31 33 35 36 38 40
cat_threshold=416 480 416 256 256 256 288 256 416 16 160 288 16 160 1756411906 7 2532713077 1 352 256 416 198032920 169610266 6 3284214328 3625655944 3 168824532 5 2672710148 5 1209204962 2 1637419628 6 782298194 1196572168 4 190296082 7
is_linear=0
shrinkage=0.1


Tree=27
num_leaves=31
num_cat=30
split_feature=3 4 2 5 6 7 1 8 13 10 12 5 9 6 7 8 14 6 1 15 11 5 4 6 8 6 7 3 10 4
split_gain=85.2657 79.1807 76.7557 71.1933 62.3244 58.5888 51.8802 44.1971 38.7819 36.714 35.4401 34.2555 33.5156 32.6898 31.9611 31.8131 34.3703 33.0453 30.9468 30.605 30.3683 30.0361 30.2603 31.6455 29.364 30.0754 31.2301 27.9518 33.7554 27.7937
threshold=0 1 2 3 4 5 6 7 8 9 10 11 12 13 14 15 16 17 18 19 20 21 22 23 24 25 26 27 28 29
decision_type=1 1 9 1 1 1 9 1 9 9 9 1 9 1 1 1 9 1 9 9 9 1 1 1 1 1 1 1 9 1
left_child=-1 -2 -3 11 -5 14 18 -8 -9 -10 -11 13 27 -4 -6 16 19 -18 -7 -14 -19 -21 -23 -24 25 26 -20 -12 -29 -17
right_child=1 2 3 4 5 6 7 8 9 10 12 -13 15 -15 -16 29 17 20 24 21 -22 22 23 -25 -26 -27 -28 28 -30 -31
leaf_value=-0.033398087984016132 -0.066387055218497193 -0.067841549122474587 -0.0034079600357233251 -0.067357726974011725 -0.014758982972569203 -0.06194017208700995 -0.067361221585320416 -0.041825395491889177 -0.076576849165907346 -0.075688601999458802 -0.031817200388412674 -0.063197690112945112 -0.034928528562134797 -0.036224108841277275 -0.07336261195121864 0.0095740328376002787 0.01631826972693582 -0.040491952098853617 -0.0032524161234443027 0.10857119344238067 0.004685548033005158 -0.030208574508114219 -0.026265393290255203 0.10029685636544949 -0.013444261745697336 -0.012866357765731948 0.088316590150151184 0.027610018943590622 -0.036604492982216678 0.0010151671319223027
leaf_weight=762.6266287821345 168.73562178062275 154.88013663887978 842.2538107605651 122.60650302004069 1229.8486760412343 108.64724133908749 80.190546779893339 184.73950781440362 48.07909195497632 47.201361977960914 490.61385313095525 163.88246026309207 37.592719295062125 472.17503750510514 93.18258356442675 4299.7507396666333 2935.2903531277552 142.08718618843704 69.3549760337919 75.828667630441487 7160.9313031034544 53.445124858990312 28.00553678907454 58.280270222574472 2208.1096165748313 146.13567456416786 84.139506234787405 225.03637819970027 115.93793532624841 31783.053108014166
leaf_count=50374 31229 25642 22150 21811 27681 14500 11810 3861 6039 2253 12797 27431 466 15101 17558 59947 38291 3006 1204 954 95743 669 351 738 44498 2572 1405 5572 3343 486739
internal_value=0 6.05756e-05 0.000282675 0.000493295 0.00111232 0.00128767 0.00183482 0.00258674 0.00271846 0.00290047 0.00299711 -0.0210707 0.0030914 -0.0153808 -0.0194059 0.00344816 0.00829343 0.00736741 -0.01185 0.0440416 0.00375241 0.0587517 0.0262703 0.0607573 -0.0094425 0.01953 0.0492737 -0.016693 0.00535499 0.00203744
internal_weight=0 53630 53461.3 53306.4 51828.1 51705.5 50382.5 47766.1 47685.9 47501.1 47453.1 1478.31 47405.9 1314.43 1323.03 46574.3 10491.5 10238.3 2616.39 253.152 7303.02 215.56 139.731 86.2858 2507.74 299.63 153.494 831.588 340.974 36082.8
internal_count=1035735 985361 954132 928490 863808 841997 796758 732579 720769 716908 710869 64682 708616 37251 45239 686904 140218 137040 64179 3178 98749 2712 1758 1089 49679 5181 2609 21712 8915 546686
cat_boundaries=0 1 2 3 4 5 6 7 8 9 10 11 12 13 15 16 17 19 20 21 22 23 25 27 28 29 30 32 34 36 37
cat_threshold=384 256 256 416 256 416 992 256 292 256 256 160 416 2449076801 3 160 693500442 1430549592 2 297312276 256 2718288176 416 886181896 6 2519410832 2 4177593432 2323670160 3486291036 3778814036 3 1493764630 7 1210083403 6 71376912
is_linear=0
shrinkage=0.1


Tree=28
num_leaves=31
num_cat=30
split_feature=3 2 4 6 5 7 8 1 9 11 0 13 12 14 6 10 4 3 2 5 8 3 6 8 10 1 7 8 8 7
split_gain=79.574 72.6803 68.166 63.1749 54.5486 51.5022 44.9771 42.4118 37.7824 37.0559 36.562 36.608 35.614 34.127 33.5782 33.1686 32.9625 33.1776 33.2297 33.4947 33.7888 34.3876 32.9828 31.2034 30.2011 29.7108 35.4147 28.4416 28.0324 30.6734
threshold=0 1 2 3 4 5 6 7 8 9 10 11 12 13 14 15 16 17 18 19 20 21 22 23 24 25 26 27 28 29
decision_type=1 9 1 1 1 1 1 9 9 9 9 9 9 9 1 9 1 1 9 1 1 1 1 1 9 9 1 1 1 1
left_child=-1 -2 -3 14 -5 -6 -7 -8 -9 -10 -11 -12 -13 -14 23 -15 28 22 -19 20 24 -22 27 -4 -20 -21 -27 -18 29 -17
right_child=1 2 3 4 5 6 7 8 9 10 11 12 13 15 -16 16 17 18 19 25 21 -23 -24 -25 -26 26 -28 -29 -30 -31
leaf_value=-0.06513338965279622 -0.030047926009608525 -0.063716296325913746 -0.046253923590018869 -0.058350586927572605 -0.072161611758390684 -0.067143229918660507 -0.059806284382943824 -0.071122935297954756 -0.077351338414533358 -0.06849957788403592 -0.079313942226878667 -0.076081241214150275 -0.080968863860755302 -0.074222550157959741 -0.067482026323589128 0.097798317234433829 -0.010426420244219844 0.015404570623983949 -0.02072867900600588 0.0047234334001266913 -0.028367781343480537 0.02024964334007277 0.0079777445117194638 -0.0075230512304002121 0.067068466854164011 0.0040526888207763657 -0.0030414094497949462 0.070347422767844087 0.01213169240942668 0.009932511141588116
leaf_weight=179.20286607090384 792.03676929371431 155.92181811667979 249.23126101866364 144.0532782129012 85.407774998340756 85.618766630068421 102.58186160912737 61.270669106394053 49.175873754546046 63.818831235636026 45.40712878620252 48.329093974083662 39.408475569449365 46.758390364702791 126.20560514461249 83.806251812726259 59.650731045752764 1667.4745502285659 48.133995590731502 13093.255943913013 185.15618347749114 570.31101920828223 566.8549705054611 1122.61153917294 204.03757390752435 10077.711838237941 23262.797748725861 190.91791777871549 869.62613781914115 87.669506497681141
leaf_count=31991 47404 30801 7453 25562 17301 13114 14535 9309 4331 5653 1514 2436 724 6148 23450 992 730 24223 627 195029 2745 7696 7616 28192 2652 140864 367588 2359 11619 1077
internal_value=0 -0.000168388 0.00028039 0.000479755 0.00106761 0.00124478 0.00138048 0.0015076 0.00164178 0.00174261 0.00183365 0.00193478 0.00202248 0.0021113 -0.019696 0.00219134 0.00227599 0.0019066 0.00157167 0.00108232 0.0190294 0.00811915 0.0217662 -0.0148433 0.0501585 0.000688846 -0.000896531 0.0514561 0.0198036 0.0558984
internal_weight=0 54185.2 53393.2 53237.3 51739.2 51595.2 51509.8 51424.2 51321.6 51260.3 51211.1 51147.3 51101.9 51053.6 1498.05 51014.2 50967.4 49926.3 49108.9 47441.4 1007.64 755.467 817.424 1371.84 252.172 46433.8 33340.5 250.569 1041.1 171.476
internal_count=1035735 1003744 956340 925539 866444 840882 823581 810467 795932 786623 782292 776639 775125 772689 59095 771965 765817 752129 741424 717201 13720 10441 10705 35645 3279 703481 508452 3089 13688 2069
cat_boundaries=0 1 2 3 4 5 6 7 8 9 10 11 12 13 14 15 16 17 18 19 20 22 24 26 28 30 31 33 35 37 39
cat_threshold=256 448 256 416 256 256 256 256 256 256 256 256 256 256 160 256 16 16 32792 16 1547669700 6 360710380 4 1161554944 6 1074386314 6 2529534120 1 219847706 451016730 2 1173623002 2 741820420 3 1276890692 4
is_linear=0
shrinkage=0.1


Tree=29
num_leaves=31
num_cat=30
split_feature=4 2 3 6 7 5 8 1 11 9 5 10 4 2 10 12 10 13 14 13 8 6 4 10 7 11 11 8 7 5
split_gain=71.7449 60.7071 57.0965 52.9618 51.1952 46.301 41.7492 39.9765 37.3907 33.2736 33.4623 34.6275 29.6598 29.043 28.9296 26.8449 42.5041 34.1815 29.3576 34.6861 31.1914 29.3259 30.1236 33.5078 29.9592 29.0041 26.8014 28.2489 26.1439 26.0941
threshold=0 1 2 3 4 5 6 7 8 9 10 11 12 13 14 15 16 17 18 19 20 21 22 23 24 25 26 27 28 29
decision_type=1 9 1 1 1 1 1 9 9 9 1 9 1 9 9 9 9 9 9 9 1 1 1 9 1 9 9 1 1 1
