tree
version=v3
num_class=1
num_tree_per_iteration=1
label_index=0
max_feature_idx=43
objective=binary sigmoid:1
feature_names=0 1 2 3 4 5 6 7 8 9 10 11 12 13 14 15 16 17 18 19 20 21 22 23 24 25 26 27 28 29 30 31 32 33 34 35 36 37 38 39 40 41 42 43
feature_infos=-1:18:30:9:26:17:27:8:33:28:34:6:29:31:1:32:7:10:24:25:15:20:14:11:2:19:23:12:16:13:3:22:4:21:5 -1:30:31:29:28:33:32:34:27:19:18:10:1:9:20:26:11:2:17:8:3:21:16:25:12:22:24:7:13:15:4:6:5:23 -1:34:33:32:31:29:30:28:10:9:1:19:18:27:20:26:11:2:17:8:21:25:12:3:7:16:4:24:22:6:13:15:5:23:14 -1:34:32:33:28:29:31:30:1:19:10:18:9:27:11:20:26:17:8:2:16:12:21:25:3:7:15:22:24:4:13:6:23:5:14 -1:32:34:33:28:29:1:19:18:27:9:10:31:30:2:20:26:17:11:8:25:3:12:21:7:16:24:22:13:4:6:15:23:14:5 -1:32:34:33:28:1:9:10:19:18:27:29:20:26:8:2:11:17:30:31:16:12:25:21:7:3:0:22:13:15:6:24:4:23:14:5 -1:0:10:19:9:27:1:2:18:20:8:26:34:11:17:32:28:33:29:30:31:16:12:25:21:7:3:22:6:24:4:23:13:15:14:5 -1:0:19:1:10:9:27:18:8:20:26:11:2:17:28:32:33:29:34:3:31:30:25:21:16:7:12:13:4:24:15:22:5:14:23:6 -1:0:1:18:9:10:2:26:8:17:19:27:11:20:7:16:28:33:31:21:32:12:3:34:29:25:30:4:22:5:15:23:14:24:13:6 -1:0:9:8:19:2:18:27:10:1:17:26:16:20:12:32:11:28:31:33:25:3:7:21:34:30:29:5:13:22:14:4:15:23:24:6 -1:0:10:27:1:9:20:18:30:19:34:2:28:8:17:33:31:26:12:11:29:32:7:3:25:16:21:5:15:14:6:13:24:23:22:4 -1:0:34:33:31:2:9:29:30:28:27:19:26:11:8:18:32:7:17:1:20:25:3:10:12:21:15:4:16:14:5:6:22:24:23:13 -1:0:33:18:28:34:1:20:26:30:11:32:29:12:31:19:8:10:27:7:17:21:9:2:25:14:23:5:3:16:6:13:22:4:24:15 -1:0:34:30:29:32:33:31:28:21:18:26:8:1:25:19:10:27:9:2:11:3:17:16:22:23:24:20:15:12:4:6:7:14:5:13 -1:0:32:31:33:34:28:10:20:19:29:1:30:11:25:2:9:3:27:8:18:21:17:16:4:13:26:14:6:22:12:5:23:15:24 -1:0:32:28:34:33:26:11:2:31:29:7:10:25:8:30:9:6:18:27:17:1:3:20:23:5:16:12:24:21:13:19:22:4:14 -1:0:34:32:28:26:29:30:31:33:20:13:27:1:7:25:21:2:17:11:18:10:12:19:15:22:9:3:16:4:23:14:8:6:5 -1:0:34:30:29:32:20:14:26:28:27:33:8:23:21:15:11:24:6:16:4:18:19:10:3:22:12:31:7:5:13:25:1:17:9 -1:0:14:6:17:32:28:11:29:22:24:26:20:18:31:3:15:5:30:27:19:21:9:34:2:10:23:33:1:12:13:4:8:7:16 -1:0:28:11:24:30:5:27:7:9:12:33:4:22:25:17:26:31:32:14:18:20:8:16:29:3:6:15:1:10:19:23:2:21:13 -1:0:26:32 -1:0 -1:2:1 -1:2:1 -1:2:1 -1:2:1 -1:2:1:0 -1:2:1:0 -1:1:2:0 -1:1:2:0 -1:1:2:0 -1:1:0:2 -1:1:0:2 -1:0:1:2 -1:0:1:2 -1:0:1:2 -1:0:1:2 -1:0:1 -1:0:1 -1:0:1 -1:0:1 -1:0 -1:0 [1:19]
tree_sizes=3393 3476 3491 3479 3475 3507 3466 3461 3468 3479 3489 3503 3499 3486 3475 3493 3499 3528 3490 3477 3517 3472 3507 3470 3494 3467 3495 3524 3492 3471 3467 3471 3435 3472 3505 3459 3469 3424 3403 3491 3472 3476 3397 3387 3457 3438 3390 3385 3429 3397 3435 3363 3461 3491 3471 3372 3369 3375 3424 3493 3361 3492 3173 3176 3479 3409 3423 3411 3426 3459 3416 3425 3449 3427 3298 3358 3404 3416 3409 3413 3467 3425 3328 3426 3409 3410 3350 3411 3431 3400 3437 3487 3430 3438 3457 3445 3368 3457 3439 3425

Tree=0
num_leaves=31
num_cat=30
split_feature=0 1 2 1 2 2 3 3 4 4 11 5 3 5 4 6 5 7 6 8 6 1 6 5 7 8 4 9 3 10
split_gain=33527.4 15169.2 7832.08 7743.69 5130.38 4701.12 4117.8 3606.37 3457.41 3027.73 2863 2848.93 2702.28 2511.95 2473.16 2428.61 2269.31 2213.93 2128.11 2060.29 2056.64 2032.81 2018.52 2127.28 2237.91 2264.8 2360.32 2410.65 2159.28 2211.78
threshold=0 1 2 3 4 5 6 7 8 9 10 11 12 13 14 15 16 17 18 19 20 21 22 23 24 25 26 27 28 29
decision_type=1 9 9 9 9 9 9 9 9 9 1 1 9 1 9 1 1 1 1 1 1 9 1 1 1 1 9 1 9 1
left_child=10 3 4 -2 -3 -5 -7 -6 -8 -9 -1 -10 -4 -11 -14 -13 -16 -17 -15 -19 -18 -21 -12 -24 -25 -26 -27 -28 -29 -30
right_child=1 2 12 5 7 6 8 9 11 13 22 15 14 18 16 17 20 19 -20 21 -22 -23 23 24 25 26 27 28 29 -31
leaf_value=-4.3583486974400341 -4.6493768376629863 -4.6499428803063205 -4.6478358113460585 -4.6500398232273028 -4.649860801729564 -4.6498442319386308 -4.6496145646628726 -4.6498789235864608 -4.6501404476231887 -4.6496697091947468 -4.6393893979981806 -4.6500416422159425 -4.6487198701817576 -4.6494369998421572 -4.6484155607024968 -4.649693483685911 -4.6473435605879994 -4.6498849664273347 -4.4960719218218532 -4.5213300473938096 -4.4191225565621917 -4.5612021155453029 -4.6408280212388426 -4.6404725266858824 -4.6397782753915555 -4.639329540265579 -4.6386847138543077 -4.6367411802226215 -4.6361622887676708 -3.9940220501229451
leaf_weight=2225.7803780231625 14195.710472989827 3705.4789994042367 666.81995231471956 6592.7061745114625 2159.6874628160149 4955.6331164035946 3683.3341457657516 1588.9941893387586 2717.7294921856374 1191.3185848686844 98.849491603672504 2143.4230565205216 554.23216207697988 931.00526093877852 472.28895658440888 1837.9193229917437 403.77346271835268 1604.4303636141121 24877.563777334988 36488.517408972606 12665.272287474945 19677.985272299498 94.366685794666409 90.670700404793024 84.158726146444678 80.379917554557323 75.451937034726143 63.390808241441846 60.429878769442439 1484.4816612973809
leaf_count=214991 1371182 357917 64409 636798 208607 478671 355778 153483 262509 115071 9548 207036 53534 89927 45619 177527 39001 154974 2402956 3524473 1223355 1900722 9115 8758 8129 7764 7288 6123 5837 143388
internal_value=-4.54945 -4.55778 -4.51282 -4.58135 -4.53894 -4.56923 -4.56193 -4.52554 -4.55552 -4.51611 -4.27654 -4.55013 -4.4519 -4.50821 -4.44256 -4.54571 -4.43406 -4.54194 -4.50164 -4.5385 -4.42624 -4.5353 -4.19242 -4.17036 -4.14711 -4.12255 -4.0975 -4.07126 -4.04425 -4.01954
internal_weight=0 143114 49216.4 93897.4 34454 79701.7 73109 30748.6 68153.3 28588.9 4357.96 64470 14762.4 26999.9 14095.6 61752.3 13541.3 59608.9 25808.6 57770.9 13069 56166.5 2132.18 2033.33 1938.96 1848.29 1764.13 1683.75 1608.3 1544.91
internal_count=14244490 13823549 4753879 9069670 3327961 7698488 7061690 2970044 6583019 2761437 420941 6227241 1425918 2607954 1361509 5964732 1307975 5757696 2492883 5580169 1262356 5425195 205950 196402 187287 178529 170400 162636 155348 149225
cat_boundaries=0 1 3 5 6 7 8 9 10 11 12 13 14 15 16 17 18 19 20 21 22 23 24 25 26 27 28 29 30 31 32
cat_threshold=2147483648 4026531840 7 4161275394 7 268435456 268435456 268435456 268435456 268435456 268435456 268435456 2424311873 268435456 268435456 268435456 268435456 268435456 268435456 268435456 268435456 268435456 268435456 3758096384 268435456 268435456 268435456 268435456 268435456 268435456 268435456 268435456
is_linear=0
shrinkage=1


Tree=1
num_leaves=31
num_cat=30
split_feature=0 1 1 2 3 4 2 5 3 1 4 5 7 6 6 8 9 7 2 2 5 6 4 7 3 1 1 2 7 9
split_gain=19463.7 12236.4 7330.81 6243.8 5375.72 4524.88 4371.72 3800.49 3779.04 3719.56 3137.25 2563.15 2241.27 2215.7 2168.34 2140.82 1976.22 1962.88 1935.14 1857.91 1646.65 1665.74 1741.42 1640.92 1643.93 1621.35 1576.41 1534.57 1165.33 1161.82
threshold=0 1 2 3 4 5 6 7 8 9 10 11 12 13 14 15 16 17 18 19 20 21 22 23 24 25 26 27 28 29
decision_type=1 9 9 9 9 9 9 1 9 9 9 1 1 1 1 1 1 1 9 9 1 1 9 1 9 9 9 9 1 1
left_child=20 2 -2 -3 -5 -6 -4 -7 -8 12 -10 -12 -9 -14 -13 -15 -17 -16 26 -18 -1 -22 -23 -24 -25 -26 29 -27 -11 -19
right_child=1 3 6 4 5 7 8 9 10 28 11 14 13 15 17 16 19 18 -20 -21 21 22 23 24 25 27 -28 -29 -30 -31
leaf_value=-0.096509401749978727 -0.099706155464784021 -0.10032984474259593 -0.100436450148616 -0.10009793602388928 -0.10043960255062977 -0.10029196976862093 -0.10022105621366018 -0.10015104702748796 -0.099968286189714622 -0.097139481615448497 -0.10054768952059544 -0.10043897507949795 -0.099598344967124275 -0.099981829777392478 -0.10005572899218942 -0.09981848012254714 0.047157512614882713 -0.099598602428935423 0.048715095783105261 0.10306914537152229 -0.095304952897822592 -0.096127448724987366 -0.095479390350998505 -0.095177589100658183 0.12730329796174819 0.41571414548074126 -0.025333747674224739 0.23427379526188835 0.12373142989261186 0.016718192069930599
leaf_weight=208.12109885271639 12871.394616179168 3357.9303626762703 5973.7871811781079 2562.8082735110074 1942.8996643396094 1508.5036150598899 4491.2632091715932 1019.6442214315757 3338.9377566985786 241.5500535229221 2462.3475463762879 1942.1964150331914 953.73759954236448 863.65349578950554 1665.9425865765661 755.92529927846044 20832.462102100253 872.7877586260438 10435.983131599613 8353.9859882872552 197.63245352078229 191.25318666826934 169.00833887513727 159.08547804690897 1205.6915527824312 598.44073969312012 15244.576056095771 3093.8841036027297 8787.9642336638644 31860.469611402601
leaf_count=18926 1371182 357917 636798 273016 207017 160690 478671 92218 355778 21345 262509 207036 101555 77619 177527 67967 1899318 82348 1000611 720036 18086 17280 15612 14283 83305 41748 1492707 211701 775181 3004503
internal_value=0 -0.00782563 -0.0297938 0.0313005 0.0405621 0.0485471 -0.0182882 0.0552512 -0.0114892 0.060886 -0.00559942 -0.000698347 0.0451987 0.0498952 0.00328136 0.0545542 0.0590435 0.00665048 0.00971032 0.0631908 0.178547 0.188896 0.19942 0.210399 0.22079 0.231225 0.00121774 0.264725 0.117722 0.0135873
internal_weight=0 142341 91159.7 51181.1 47823.1 45260.3 78288.3 43317.4 72314.5 41808.9 67823.2 64484.3 32779.4 31759.8 62022 30806 29942.4 60079.8 58413.8 29186.4 5823.12 5615 5417.36 5226.11 5057.1 4898.02 47977.8 3692.32 9029.51 32733.3
internal_count=14244490 13823549 9069670 4753879 4395962 4122946 7698488 3915929 7061690 3755239 6583019 6227241 2958713 2866495 5964732 2764940 2687321 5757696 5580169 2619354 420941 402015 383929 366649 351037 336754 4579558 253449 796526 3086851
cat_boundaries=0 1 3 4 5 6 7 8 9 10 11 12 13 14 15 16 17 18 19 21 23 24 25 26 27 28 30 31 32 33 34
cat_threshold=2147483648 4026531840 7 268435456 268435456 268435456 268435456 268435456 268435456 268435456 135005698 268435456 268435456 268435456 268435456 268435456 268435456 268435456 268435456 3893118466 7 3965191680 7 268435456 268435456 268435456 268435456 268435456 269557984 7 3758096384 133380252 268435456 268435456
is_linear=0
shrinkage=0.1


Tree=2
num_leaves=31
num_cat=30
split_feature=0 1 2 3 4 1 5 7 6 8 2 5 6 8 7 3 4 1 13 10 9 10 9 4 11 9 10 3 9 3
split_gain=12912.7 10805.7 9290.94 7904.84 6524.7 6012.9 3054.33 2708.5 2746.59 2663.89 2523.58 2307.38 1938.59 1762.45 1778.58 1758.87 1688.91 1227.79 1043.41 1013.04 1027.47 929.885 919.159 894.55 816.051 815.397 796.006 731.231 691.025 682.043
threshold=0 1 2 3 4 5 6 7 8 9 10 11 12 13 14 15 16 17 18 19 20 21 22 23 24 25 26 27 28 29
decision_type=1 9 9 9 9 9 1 1 1 1 9 1 1 1 1 9 9 9 1 1 1 1 1 9 1 1 1 9 1 9
left_child=18 -2 -3 -4 -5 11 -7 -8 -9 -10 16 -6 -13 -14 -15 17 21 19 -1 -16 -21 -11 -23 -22 -24 -12 -27 -26 -18 -30
right_child=1 2 3 4 5 6 7 8 9 10 25 12 13 14 15 -17 28 -19 -20 20 23 22 24 -25 27 26 -28 -29 29 -31
leaf_value=0.10787962987668059 -0.099486912353038692 -0.10036767425732661 -0.10016117898686222 -0.10017568280535027 -0.10041445609772076 -0.1001330261715747 -0.10015528694284295 -0.099742004119835748 -0.10011144513689274 -0.099243816915852309 -0.09610624670796393 -0.10029482232507135 -0.10030064125727961 -0.099841937941732087 -0.09978989000279298 0.045935078777035614 -0.096374416060735157 -0.021579548824665139 0.1963763334966914 -0.099644017242875194 0.0073226789662157472 -0.09899576238984531 -0.098779615538147694 0.044224364324608086 0.027890426139450156 -0.095922202269658863 0.11574836205716831 0.067670210908179332 0.13806320860593252 0.073045408944862639
leaf_weight=5104.1793714296073 11670.92473292537 8455.6190041238442 6393.204210665077 4787.1677424106747 2230.8442611219361 1367.0235804077238 1144.1022790903226 1106.9965107860044 1015.629436259158 507.68309729080647 188.10552192758769 1759.7845000997186 1513.8089364022017 1464.088193949312 758.20330952107906 11731.749046894722 204.83410656265914 14431.032985040918 1873.8355904296041 733.6714598890394 20117.029706044123 479.62519853189588 407.5116397831589 9754.3386568725109 12428.512039992958 176.87086957320571 9411.7749809855595 7401.028911520727 2073.2959997234866 7899.5450034979731
leaf_count=316777 1371182 994715 751687 562795 262509 160690 113563 124379 95727 43502 16048 207036 160377 172124 70111 1103502 19580 1425318 104164 74845 1854303 46565 34752 897116 1061588 13504 718367 625703 173645 668316
internal_value=0 -0.00735755 0.00092413 0.0079818 0.0139971 0.0189606 0.0466591 0.0511955 0.0552167 0.0593048 0.06326 -0.000718661 0.00286889 0.00588553 0.00862703 0.0114045 0.0494081 0.00255027 0.131891 0.0136564 0.0164985 0.0333107 0.0366054 0.0193835 0.0398665 0.107655 0.111748 0.0427642 0.0829117 0.086687
internal_weight=0 141614 129943 121487 115094 110307 45812.5 44445.5 43301.4 42194.4 41178.8 64494.6 62263.7 60503.9 58990.1 57526 31402 45794.3 6978.01 31363.2 30605 21224.4 20716.7 29871.4 20237.1 9776.75 9588.65 19829.5 10177.7 9972.84
internal_count=14244490 13823549 12452367 11457652 10705965 10143170 3915929 3755239 3641676 3517297 3421570 6227241 5964732 5757696 5597319 5425195 2673651 4321693 420941 2896375 2826264 1812110 1768608 2751419 1722043 747919 731871 1687291 861541 841961
cat_boundaries=0 1 2 3 4 5 7 8 9 10 11 13 14 15 16 17 19 21 22 24 25 26 27 28 30 31 32 33 35 36 37
cat_threshold=2147483648 268435456 268435456 268435456 268435456 3758096384 7 268435456 268435456 268435456 268435456 3961261570 7 268435456 268435456 268435456 268435456 3894284038 7 3961392646 7 3758096384 1484850221 5 268435456 268435456 268435456 268435456 3960211206 7 268435456 268435456 268435456 3825225218 7 268435456 29406448
is_linear=0
shrinkage=0.1


Tree=3
num_leaves=31
num_cat=30
split_feature=1 2 0 3 4 5 1 7 6 8 10 1 6 8 7 9 10 11 3 9 11 4 8 5 6 4 9 7 3 12
split_gain=11188.2 9533.38 8094.59 6958.64 5684.95 4608.38 4485.55 2197.89 2211.65 2130.34 2032.84 1974.83 1734.5 1568.33 1574.09 1606.05 1558.23 1452.33 1442.81 1279.55 1229.86 1114.93 993.003 1015.31 1009.01 1039.79 965.378 997.184 977.686 876.812
threshold=0 1 2 3 4 5 6 7 8 9 10 11 12 13 14 15 16 17 18 19 20 21 22 23 24 25 26 27 28 29
decision_type=9 9 1 9 9 1 9 1 1 1 1 9 1 1 1 1 1 1 9 1 1 9 1 1 1 9 1 1 9 1
left_child=-1 -2 22 -4 -5 -6 12 -8 -9 -10 -11 19 -7 -14 -15 -16 -17 -18 -19 -12 -21 -22 -3 -24 -25 -26 -27 -28 -29 -30
right_child=1 2 3 4 5 6 7 8 9 10 11 -13 13 14 15 16 17 18 -20 20 21 -23 23 24 25 26 27 28 29 -31
leaf_value=-0.099302718907942469 -0.10026946134963861 -0.097035183148274751 -0.10000606535046752 -0.10002212182909945 -0.10047415786277523 -0.10015408889004405 -0.099968528004385257 -0.099536594332437806 -0.099907632681191585 -0.099983076588161912 -0.09928309099984256 0.09497499028953986 -0.10014131278514354 -0.099655499297290812 -0.099961798597811985 -0.099781725949099342 -0.10016208009461487 0.0049866184194993952 0.038753703130490876 -0.099416003215096582 0.036151869785447162 0.075805715781580324 -0.096521768566312935 -0.09531249794720964 -0.096133402568539625 -0.095862826397736037 -0.095395470268019381 -0.095046483404249454 -0.095396254103290973 0.16316228689192777
leaf_weight=10738.59943279624 7859.3660033103079 213.65062784403563 5793.3478765976615 4337.9399200044572 3259.8180481414311 1594.4574513081461 1037.0814424664713 1003.6353609333746 920.77977728378028 842.48544585797936 601.12525743618608 10063.444951038808 1371.8360579912551 1327.1341557502747 1286.7968910159543 1198.0590627035126 1063.8771779919043 34751.633332369849 19899.402452002279 555.80369631573558 21030.136217403226 10755.935284170322 207.23230111971498 196.7001232104376 190.24743721354753 167.63369328528643 165.30972456000745 154.56458210945129 131.77950849384069 6141.918535948731
leaf_count=1379818 1004928 14421 751687 562795 423199 207036 113563 124379 95727 74447 65596 720578 160377 172124 136033 118853 98841 3250062 1821406 48083 1687905 824961 18275 17417 16672 11213 14746 13434 5402 290512
internal_value=0 0.00661669 0.0130728 0.00687684 0.0121818 0.0165144 0.0200123 0.0434162 0.046686 0.0499855 0.0531551 0.0561776 0.00247743 0.00518054 0.00762416 0.0100872 0.0125925 0.0150264 0.0172866 0.0443005 0.0469991 0.0495898 0.113368 0.119603 0.125995 0.132385 0.138948 0.145053 0.151375 0.157588
internal_weight=0 138123 130264 122695 116901 112563 109304 46810.4 45773.3 44769.7 43848.9 43006.4 62493.2 60898.7 59526.9 58199.8 56913 55714.9 54651 32943 32341.9 31786.1 7569.04 7355.39 7148.15 6951.45 6761.21 6593.57 6428.26 6273.7
internal_count=14244490 12864672 11859744 11457652 10705965 10143170 9719971 3755239 3641676 3517297 3421570 3347123 5964732 5757696 5597319 5425195 5289162 5170309 5071468 2626545 2560949 2512866 402092 387671 369396 351979 335307 324094 309348 295914
cat_boundaries=0 1 2 3 4 5 6 8 9 10 11 12 13 14 15 16 17 18 19 21 22 23 25 26 27 28 29 30 31 32 33
cat_threshold=268435456 268435456 2147483648 268435456 268435456 268435456 3758096384 7 268435456 268435456 268435456 268435456 135005698 268435456 268435456 268435456 268435456 268435456 268435456 3893102082 7 268435456 268435456 3961392898 7 268435456 268435456 268435456 268435456 268435456 268435456 268435456 268435456
is_linear=0
shrinkage=0.1


Tree=4
num_leaves=31
num_cat=30
split_feature=1 2 3 4 0 5 2 6 1 7 8 10 9 11 12 4 2 9 8 6 7 10 11 1 8 5 6 3 11 12
split_gain=9988.71 8407.19 6986.87 5731.19 5302.78 4007.96 3615.33 2370.55 2208.24 2073.97 2013.79 1911.15 1881.93 1779.77 1727.96 1633.28 1025.05 1002.56 976.845 949.642 941.594 908.766 881.787 818.54 749.799 757.736 742.404 728.065 700.674 724.82
threshold=0 1 2 3 4 5 6 7 8 9 10 11 12 13 14 15 16 17 18 19 20 21 22 23 24 25 26 27 28 29
decision_type=9 9 9 9 1 1 9 1 9 1 1 1 1 1 1 9 9 1 1 1 1 1 1 9 1 1 1 9 1 1
left_child=-1 -2 -3 -4 24 -6 7 -7 -9 -10 -11 -12 -13 -14 -15 16 -16 -8 -19 -20 -21 -22 -23 -24 -5 -26 -27 -18 -28 -30
right_child=1 2 3 4 5 6 17 8 9 10 11 12 13 14 15 -17 27 18 19 20 21 22 23 -25 25 26 28 -29 29 -31
leaf_value=-0.099073274104426734 -0.10013499269418245 -0.099887138375872112 -0.099921826454442572 -0.096345125529161815 -0.10036766201300484 -0.10021129899160311 -0.098766994624433072 -0.0237005095845506 -0.10007560968688239 -0.10008369896856427 -0.099764716436465464 -0.09975841204327289 -0.10011039361299544 -0.10023039105388265 -0.0019891217340541885 0.056574301314928716 0.010069595429002393 -0.098499594801022508 -0.097481611981659222 -0.096918742628848031 -0.098224834894745608 -0.098270150333006318 0.037552425266167588 0.078351854884674041 -0.095836814000773152 -0.094470801035853841 -0.095964932110350676 0.043101639966823611 0.17744955553014602 0.099948955244516691
leaf_weight=9738.0912756677717 7120.5317214187235 5406.6030779592693 4110.4976598056965 188.98703419882804 2952.5875261090696 1978.2439572969452 433.5401948406361 15590.902192484587 1447.044920897577 1346.8335975781083 1234.5318511659279 1170.7410231260583 1062.0668211085722 995.19361880421638 13194.784431295469 18797.744688034989 10278.101100098342 409.35976478923112 389.97232233220711 377.03481060499325 346.56580458302051 326.13657760526985 7223.1440876917914 15864.986845438369 183.0852448483929 173.52397749852389 154.1061270609498 19126.38944776915 1581.9431763431057 5854.5607472741976
leaf_count=1379818 1004928 766686 580116 13866 423199 280253 43600 1574442 192798 166471 130018 139597 104026 83120 1128390 1490116 878629 46740 53211 47599 33630 27094 612557 1095560 17737 16872 7472 1592120 58729 255096
internal_value=0 0.00563466 0.0113388 0.0160891 0.0199839 0.0144382 0.0174845 0.00771803 0.010264 0.0179796 0.020536 0.0230175 0.0253781 0.0277022 0.0298936 0.0320187 0.0211724 0.0506599 0.0532963 0.0558688 0.0583857 0.0608898 0.0632858 0.0656095 0.0979455 0.102681 0.10748 0.0315629 0.112214 0.116652
internal_weight=0 139320 132199 126793 122682 114546 111593 86222.6 84244.3 68653.4 67206.4 65859.6 64625 63454.3 62392.2 61397 42599.3 25370.7 24937.2 24527.8 24137.9 23760.8 23414.3 23088.1 8136.21 7947.22 7764.13 29404.5 7590.61 7436.5
internal_count=14244490 12864672 11859744 11093058 10512942 10143170 9719971 7759980 7479727 5905285 5712487 5546016 5415998 5276401 5172375 5089255 3599139 1959991 1916391 1869651 1816440 1768841 1735211 1708117 369772 355906 338169 2470749 321297 313825
cat_boundaries=0 1 2 3 4 5 6 8 9 11 12 13 14 15 16 17 19 21 22 23 24 25 26 27 29 30 31 32 34 35 36
cat_threshold=268435456 268435456 268435456 268435456 2147483648 268435456 3894150658 7 268435456 0 7 268435456 268435456 268435456 268435456 268435456 268435456 3961390854 7 0 7 268435456 268435456 268435456 268435456 268435456 268435456 536871936 7 268435456 268435456 268435456 1073758216 7 268435456 1185078360
is_linear=0
shrinkage=0.1


Tree=5
num_leaves=31
num_cat=30
split_feature=1 2 3 4 5 0 6 7 1 8 9 10 12 0 3 8 9 10 11 4 1 11 1 5 2 2 9 7 8 3
split_gain=8933.72 7439.19 6120.43 4980.31 4046.93 3742.91 2947.13 2781.65 2789.38 1459.07 1384.86 1373.34 1305.73 1289.85 1296.59 1266.59 1270.54 1220.94 1129.31 1082.53 815.669 726.71 714.055 672.869 637.991 590.107 588.068 597.219 612.919 557.324
threshold=0 1 2 3 4 5 6 7 8 9 10 11 12 13 14 15 16 17 18 19 20 21 22 23 24 25 26 27 28 29
decision_type=9 9 9 9 1 1 1 1 9 1 1 1 1 1 9 1 1 1 1 9 9 1 9 1 9 9 1 1 1 9
left_child=-1 -2 -3 -4 -5 26 -7 -8 15 -10 -11 -12 -13 -14 20 -9 -17 -18 -19 22 -15 -22 25 -23 -25 -20 -6 -28 -29 -21
right_child=1 2 3 4 5 6 7 8 9 10 11 12 13 14 -16 16 17 18 19 29 21 23 -24 24 -26 -27 27 28 -30 -31
leaf_value=-0.098835521740466989 -0.10000216281971248 -0.099732929282230501 -0.09977022455343515 -0.10030716298013354 -0.096072080647426769 -0.10005345177152436 -0.099941089118563614 -0.099832585460744583 -0.099498584475715579 -0.099450127570990976 -0.099479953494697015 -0.099735920010744536 -0.037858728764288606 0.12061098218859277 0.074491641265217526 -0.099615832208686958 -0.09937728950724195 -0.099800094494054359 -0.0007020363723558088 0.061515603381543729 -0.098554199010197643 0.064276566795749487 -0.017224735893540052 -0.0014167949409827159 0.037601531948611697 0.029198982614658704 -0.095567047768553681 0.050263606717974446 0.10901060427576442 0.022295529926322662
leaf_weight=8831.5540643082932 6451.0657532284968 4899.2979856077582 3724.7157023055479 2843.8438385771587 173.816984933801 2162.8017984023318 1969.8328216699883 1113.2831291737966 756.87875284720212 696.70094493450597 670.55318935029209 617.2569883344695 1770.5390889178962 1130.3895552428439 13836.937941945158 1080.2236049738713 1005.2278334936127 891.51899641938508 14997.930782923475 4997.5692090205848 397.6360647873953 6565.7595188301057 11608.411786633544 5600.7249621022493 16706.363400971517 11782.593392531388 170.4485121909529 2653.0939052924514 5774.133966429159 13283.441006400622
leaf_count=1379818 1004928 766686 580116 441258 11537 335964 286541 154974 95727 83922 71582 48388 123678 69448 909059 136033 118853 98841 1329252 422096 40545 461694 1145010 420190 1193064 1003576 15105 113996 211075 1171534
internal_value=0 0.00480234 0.00985941 0.0140296 0.0174213 0.0201642 0.0153019 0.0175487 0.019671 0.0374874 0.039668 0.0417379 0.0437897 0.0457365 0.0490901 0.00537259 0.0073526 0.00934223 0.0112578 0.0130222 0.0375079 0.0342585 0.00348113 0.0361211 0.0278088 0.0124595 0.0830706 0.0867997 0.0905971 0.0330451
internal_weight=0 140333 133882 128983 125258 122414 113643 111480 109510 48749.7 47992.9 47296.2 46625.6 46008.4 44237.8 60760.2 59646.9 58566.7 57561.5 56669.9 30400.9 29270.5 38388.9 28872.8 22307.1 26780.5 8771.49 8597.68 8427.23 18281
internal_count=14244490 12864672 11859744 11093058 10512942 10071684 9719971 9384007 9097466 3517297 3421570 3337648 3266066 3217678 3094000 5580169 5425195 5289162 5170309 5071468 2184941 2115493 3477838 2074948 1613254 2332828 351713 340176 325071 1593630
cat_boundaries=0 1 2 3 4 5 6 7 8 10 11 12 13 14 15 17 18 19 20 21 23 24 25 26 27 29 31 32 33 35 37
cat_threshold=268435456 268435456 268435456 268435456 268435456 2147483648 268435456 268435456 3758096384 7 268435456 268435456 268435456 268435456 268435456 3961261574 7 268435456 268435456 268435456 268435456 3961392646 7 21074144 268435456 3758096384 21098545 4259844 7 3758096544 7 268435456 268435456 2484338689 3 125886712 4
is_linear=0
shrinkage=0.1


Tree=6
num_leaves=31
num_cat=30
split_feature=1 2 3 4 5 6 7 8 0 9 10 2 12 11 1 13 0 3 2 6 10 12 11 3 0 13 10 4 6 2
split_gain=8002.08 6601.85 5383.25 4349.9 3516.88 3014.61 2831.01 2826.36 2901.61 2329.43 2258.19 2176.41 1615.6 1596.19 1531.82 1373.32 1297.8 1208.23 931.297 612.845 536.087 523.446 505.465 502.781 489.911 473.152 496.767 469.911 524.499 450.851
threshold=0 1 2 3 4 5 6 7 8 9 10 11 12 13 14 15 16 17 18 19 20 21 22 23 24 25 26 27 28 29
decision_type=9 9 9 9 1 1 1 1 1 1 1 9 1 1 9 1 1 9 9 1 1 1 1 9 1 1 1 9 1 9
left_child=-1 -2 -3 -4 -5 -6 -7 -8 20 -10 -11 12 -12 -14 -15 -16 -17 18 -18 -20 -9 -13 -23 29 -24 -26 -27 28 -19 -22
right_child=1 2 3 4 5 6 7 8 9 10 11 21 13 14 15 16 17 27 19 -21 23 22 24 -25 25 26 -28 -29 -30 -31
leaf_value=-0.098587236723359617 -0.099869639023512119 -0.099576479313815261 -0.099616755985069444 -0.10020785619046256 -0.099928271036132693 -0.099897065728960247 -0.10021829456923943 -0.09646734658383839 -0.099953801755715971 -0.099832018554322957 -0.10022262961488429 -0.09711032211254432 -0.10000307863289322 -0.010498137417306957 -0.10016309874835863 -0.048188773887144216 -0.0007127874070537891 0.15161017908090735 0.048160897954053553 0.02012325585008725 0.1943410025113439 -0.096626937551258965 -0.025883110158154189 0.065345453887761848 -0.09647570998352592 0.0492882582111124 0.084755232841984468 0.04517632777774034 0.052148375593577982 0.094500240437972532
leaf_weight=8010.2703422764316 5844.5366390724666 4439.700783461798 3375.2098912536167 2575.647752977442 2134.5566958007403 1939.1787372287363 1865.6175290695392 166.53144115395844 1611.0918504064903 1519.7657002871856 1176.9862345289439 224.85848934669048 1135.5709308679216 14679.870690239593 856.00082807615399 2236.4074179073796 14096.56417325139 936.54543611034751 11912.854671064764 22702.171727057546 612.00784538500011 213.40220690704882 712.09655635338277 6117.4303031647578 187.72139020636678 13112.68250595592 5757.6954651065171 15658.449476149864 1292.7202045852318 2094.202759954147
leaf_count=1379818 1004928 766686 580116 441258 353173 301507 263534 7906 219955 190435 113060 16474 133451 1470363 67013 178112 1170086 63813 919947 1761427 20287 20136 49414 206518 12452 859614 382418 1130759 87836 71994
internal_value=0 0.00409697 0.00859361 0.0122696 0.0152384 0.0176259 0.0196769 0.0216033 0.0235212 0.0190531 0.0208307 0.0225554 0.0156614 0.0172681 0.0188581 0.0250423 0.0266136 0.0291324 0.02096 0.0297836 0.0781207 0.0521047 0.0538315 0.0815212 0.0555036 0.0585565 0.060149 0.0513632 0.0944241 0.117712
internal_weight=0 141188 135344 130904 127529 124953 122818 120879 119014 110023 108412 106893 86684.1 85507.2 84371.6 69691.7 68835.7 66599.3 48711.6 34615 8990.17 20208.5 19983.6 8823.64 19770.2 19058.1 18870.4 17887.7 2229.27 2706.21
internal_count=14244490 12864672 11859744 11093058 10512942 10071684 9718511 9417004 9153470 8846765 8626810 8436375 7095867 6982807 6849356 5378993 5311980 5133868 3851460 2681374 306705 1340508 1324034 298799 1303898 1254484 1242032 1282408 151649 92281
cat_boundaries=0 1 2 3 4 5 6 7 8 9 10 11 13 14 15 17 18 19 21 23 24 25 26 27 28 29 30 32 33 35 36
cat_threshold=268435456 268435456 268435456 268435456 268435456 268435456 268435456 268435456 2147483648 268435456 268435456 3961275910 7 268435456 268435456 0 7 268435456 268435456 3895348738 7 0 7 62978296 268435456 268435456 268435456 259301612 268435456 268435456 1108214815 7 53328 1265662180 4 2330044632
is_linear=0
shrinkage=0.1


Tree=7
num_leaves=31
num_cat=29
split_feature=1 2 3 4 5 6 7 8 9 10 12 0 11 1 13 0 2 14 1 4 5 43 4 5 8 5 3 9 7 2
split_gain=7173.75 5871.18 4749.48 3814.32 3070.77 2620.6 2451.81 2439.71 2403 2317.35 2243.41 2320.68 1831.5 1776.02 1457.43 1405.69 1331.33 716.176 693.775 702.901 671.424 554.285 494.902 484.042 502.851 434.06 409.197 626.978 556.883 444.694
threshold=0 1 2 3 4 5 6 7 8 9 10 11 12 13 14 15 16 17 18 19 20 11.500000000000002 21 22 23 24 25 26 27 28
decision_type=9 9 9 9 1 1 1 1 1 1 1 1 1 9 1 1 9 9 9 9 1 2 9 1 1 1 9 1 1 9
left_child=-1 -2 -3 -4 -5 -6 -7 -8 -9 -10 -11 21 -13 14 -14 -16 20 -18 -19 23 -17 -12 25 24 -20 -15 27 28 -26 -30
right_child=1 2 3 4 5 6 7 8 9 10 11 12 13 22 15 16 17 18 19 -21 -22 -23 -24 -25 26 -27 -28 -29 29 -31
leaf_value=-0.098326106277829339 -0.099736103271893001 -0.099416262509491621 -0.099459927079566676 -0.10011084187605593 -0.099796120729908316 -0.099754080413902463 -0.10009131116923549 -0.099977550673036486 -0.099887152710013805 -0.10055093056460383 0.063325465027891534 -0.10002158750274344 -0.10019658912155449 0.048197007062704786 -0.048044642936390332 0.026226362775574344 -0.098933787324729405 0.0095359799137584612 0.055816616944515132 0.029683100268956899 1.3422473624393766e-05 0.13249524590675812 0.046933171983054148 0.043260442666974298 0.1010054589100457 0.12741988542293015 0.082501477342828131 0.098824922197096238 0.55188121008724778 0.19132981863182924
leaf_weight=7266.3110850253142 5295.0949281351641 4023.3741982891224 3058.6068569901399 2332.6967438776046 1933.8691416988149 1757.044544281438 1690.1268525370397 1622.5926209674217 1525.9009885480627 1424.870445500128 7850.1892401091754 1223.3733535734937 1024.0005445033312 1237.1395444031805 2999.6962035140023 14754.980064783245 398.16478018090129 9107.4632617356256 3179.1421144651249 23297.105088013224 28903.778437659144 1359.082456888631 9417.1307171629742 8619.9418851137161 137.13785910978913 1692.8347223363817 1340.7256124746054 516.32254456635565 102.48846684023738 106.10507470928133
leaf_count=1379818 1004928 766686 580116 441258 353173 301507 263534 230746 198072 134788 247604 153587 90988 67517 258415 1213079 29888 842893 210076 1675902 2427015 35419 525469 573481 8837 92744 90706 32954 6498 6792
internal_value=0 0.00347989 0.00748686 0.0107375 0.0133466 0.0154346 0.0172211 0.0188928 0.0205514 0.0221864 0.023764 0.025283 0.0211712 0.0225682 0.0179027 0.0192072 0.0214423 0.0331593 0.0343137 0.0403596 0.00887636 0.0734536 0.0582279 0.05809 0.0817175 0.0942469 0.118677 0.17335 0.278739 0.385623
internal_weight=0 141931 136636 132613 129554 127221 125287 123530 121840 120218 118692 117267 108058 106834 94487.1 93463.1 90463.4 46804.6 46406.4 37299 43658.8 9209.27 12347.1 14001.9 5381.92 2929.97 2202.78 862.054 345.731 208.594
internal_count=14244490 12864672 11859744 11093058 10512942 10071684 9718511 9417004 9153470 8922724 8724652 8589864 8306841 8153254 7467524 7376536 7118121 3478027 3448139 2605246 3640094 283023 685730 929344 355863 160261 145787 55081 22127 13290
cat_boundaries=0 1 2 3 4 5 6 7 8 9 10 11 12 13 15 16 17 19 20 22 23 24 26 27 29 31 32 33 35 36
cat_threshold=268435456 268435456 268435456 268435456 268435456 268435456 268435456 268435456 268435456 268435456 268435456 2147483648 268435456 3893102082 7 268435456 268435456 3758112768 7 268435456 0 7 66318584 90304857 37808272 2 1138864488 3373544619 5 2174619961 1 2345701884 95729648 3378267648 5 68033108
is_linear=0
shrinkage=0.1


Tree=8
num_leaves=31
num_cat=30
split_feature=1 2 3 4 5 6 7 8 9 10 11 12 13 0 3 1 14 2 0 14 15 2 6 4 0 9 9 5 5 8
split_gain=6436.99 5232.09 4202.45 3356.89 2692.9 2289.13 2134.71 2118.23 2079.51 1999.09 1946.64 1922.17 1872.72 1863.47 1512.56 1136.77 936.393 915.924 641.482 603.704 587.802 539.856 512.608 451.321 483.832 430.492 422.578 417.393 368.986 340.231
threshold=0 1 2 3 4 5 6 7 8 9 10 11 12 13 14 15 16 17 18 19 20 21 22 23 24 25 26 27 28 29
decision_type=9 9 9 9 1 1 1 1 1 1 1 1 1 1 9 9 9 9 1 9 9 9 1 9 1 1 1 1 1 1
left_child=-1 -2 -3 -4 -5 -6 -7 -8 -9 -10 -11 -12 -13 19 23 -16 -17 27 -19 -14 -20 -22 26 24 -15 29 -23 -18 -24 -26
right_child=1 2 3 4 5 6 7 8 9 10 11 12 13 14 15 16 17 18 20 -21 21 22 28 -25 25 -27 -28 -29 -30 -31
leaf_value=-0.098049785933435038 -0.099600252941127732 -0.099250737148892723 -0.099298227827260249 -0.10001516244004338 -0.099662341900473836 -0.099609118156635923 -0.099965602288954195 -0.099821759508578065 -0.099704694902000332 -0.10022683808080901 -0.10034892005208147 -0.10073061656867366 0.054109415561965461 0.033609005031423521 -0.010618571334324867 -0.099786207299973673 0.022180104885142937 -0.035808042540012526 -0.098662945361771212 0.11678998203789293 0.066225205670666337 0.02793030334464975 0.034112087069782464 0.032845760905820129 0.073237772589492822 0.067296025788066635 0.058374126783552999 -0.010457944396102332 0.01120441841679924 0.19250882849239134
leaf_weight=6592.4675946873613 4797.4223631084897 3646.2849315488711 2771.8399554351345 2112.6385337170213 1752.0816394006833 1592.0518039627932 1531.1287760809064 1470.3741423063911 1383.1100832480006 1305.3606797154061 1258.8009888175875 1193.431183507666 7585.1463988050818 3415.9114498412237 14272.582369071431 634.99778105784208 6048.403545524925 1548.010587929748 347.3644151724875 1952.4092983528972 3861.8063417840749 11324.40047046449 10940.865370936692 12173.94611106161 477.02895432058722 4034.9114613225684 7716.3338770093396 11082.392158300616 19748.472773504443 579.35596840921789
leaf_count=1379818 1004928 766686 580116 441258 353173 301507 263534 230746 198072 164709 130311 101390 226835 219740 1417507 49474 478020 126844 24542 45618 211891 781500 743725 813621 29993 255676 537244 913858 1415893 36261
internal_value=0 0.00294962 0.0065278 0.00941086 0.0117124 0.0135465 0.0151102 0.0165688 0.0180115 0.0194295 0.0207937 0.0221163 0.0234207 0.0246876 0.0209478 0.0151966 0.0202272 0.0212902 0.027531 0.0670495 0.0293551 0.0302031 0.027393 0.0452688 0.062987 0.082593 0.040292 0.00107185 0.0193795 0.139842
internal_weight=0 142559 137761 134115 131343 129231 127479 125887 124355 122885 121502 120197 118938 117744 108207 87525.6 73253 72618 55487.3 9537.56 53939.2 53591.9 49730.1 20681.2 8507.21 5091.3 19040.7 17130.8 30689.3 1056.38
internal_count=14244490 12864672 11859744 11093058 10512942 10071684 9718511 9417004 9153470 8922724 8724652 8559943 8429632 8328242 8055789 6700498 5282991 5233517 3841639 272453 3714795 3690253 3478362 1355291 541670 321930 1318744 1391878 2159618 66254
cat_boundaries=0 1 2 3 4 5 6 7 8 9 10 11 12 13 14 15 17 18 20 21 23 24 25 27 29 31 33 35 36 37 39
cat_threshold=268435456 268435456 268435456 268435456 268435456 268435456 268435456 268435456 268435456 268435456 268435456 268435456 268435456 2147483648 63025400 0 7 268435456 0 7 268435456 1361581859 4 268435456 25276560 62976250 2 591581656 1 304875122 6 31724832 3 2718855437 7 96563565 31707475 1757735556 3
is_linear=0
shrinkage=0.1


Tree=9
num_leaves=31
num_cat=30
split_feature=1 2 3 4 5 6 7 8 9 10 11 12 13 14 0 1 2 0 6 0 1 15 7 3 6 4 7 9 3 0
split_gain=5779.9 4670.66 3727.58 2963.5 2370.31 2007.85 1867.05 1848.24 1809.18 1734.4 1685.28 1660.02 1613.35 1459.85 1407.5 1231.83 677.099 618.952 580.062 553.236 555.329 536.377 477.294 432.867 419.959 396.663 405.133 355.734 387.326 452.483
threshold=0 1 2 3 4 5 6 7 8 9 10 11 12 13 14 15 16 17 18 19 20 21 22 23 24 25 26 27 28 29
decision_type=9 9 9 9 1 1 1 1 1 1 1 1 1 9 1 9 9 1 1 1 9 9 1 9 1 9 1 1 9 1
left_child=-1 -2 -3 -4 -5 -6 -7 -8 -9 -10 -11 -12 -13 -14 21 16 24 -18 22 -17 -21 -15 -19 -22 27 26 -20 28 29 -16
right_child=1 2 3 4 5 6 7 8 9 10 11 12 13 14 15 19 17 18 25 20 23 -23 -24 -25 -26 -27 -28 -29 -30 -31
leaf_value=-0.097755787003269784 -0.09946074561817983 -0.099078313832137124 -0.099130116195727661 -0.09991985514851727 -0.099525628125355772 -0.099460778471995581 -0.09983993118969621 -0.099664730959753201 -0.0995200011610059 -0.10005478112991149 -0.10015959537817676 -0.10049747968682643 -0.10039050267688064 0.047250575233413687 0.030093527939364092 -0.030942399564649909 -0.051719743093593222 0.049869483316662085 -0.015569485361505013 0.064013530459205895 0.054104716157225376 0.10686941534253747 0.012383262839415144 0.025051872780586511 0.029203839077739453 0.017161222373832503 0.0079913786294449809 0.058004866154133097 0.072294832359734787 0.39978860877322353
leaf_weight=5982.1917359437793 4346.6860963874497 3304.7679743510671 2512.1227060761303 1913.3356114602648 1587.4313382934779 1442.6037112092599 1387.0912975869142 1332.4560884991661 1253.7140967068262 1183.0848264722154 1141.0731648141518 1082.2623613821343 963.41216185316443 8151.1658598016948 59.259256080724299 1344.7407897412777 1706.4691522978246 5460.7389734042808 13912.413754411042 5427.624813680537 6135.540737231262 1870.4188222512603 9018.8733379067853 31756.126383016817 4140.7513313200325 14169.609912502579 15330.547240005806 837.01014912780374 202.36652499716729 118.48428016435355
leaf_count=1379818 1004928 766686 580116 441258 353173 301507 263534 230746 198072 164709 130311 101390 74553 229704 4151 103740 164673 444558 1190478 267265 326464 40027 734953 1979721 288332 1098932 1300018 58559 14023 8091
internal_value=0 0.00249204 0.005693 0.00825656 0.0102933 0.0119103 0.0132847 0.0145632 0.0158244 0.0170608 0.0182473 0.0193948 0.020524 0.0216183 0.022609 0.0193253 0.0105312 0.00746572 0.00921894 0.0321096 0.0340736 0.0584732 0.0265452 0.0297692 0.0445526 0.00343524 -0.00321925 0.0961067 0.17637 0.284701
internal_weight=0 143092 138745 135441 132929 131015 129428 127985 126598 125266 124012 122829 121688 120606 119642 109621 64956.5 59598.7 57892.2 44664 43319.3 10021.6 14479.6 37891.7 5357.87 43412.6 29243 1217.12 380.11 177.744
internal_count=14244490 12864672 11859744 11093058 10512942 10071684 9718511 9417004 9153470 8922724 8724652 8559943 8429632 8328242 8253689 7983958 5306768 4933612 4768939 2677190 2573450 269731 1179511 2306185 373156 3589428 2490496 84824 26265 12242
cat_boundaries=0 1 2 3 4 5 6 7 8 9 10 11 12 13 14 15 17 18 19 20 21 22 24 26 27 29 31 32 34 36 37
cat_threshold=268435456 268435456 268435456 268435456 268435456 268435456 268435456 268435456 268435456 268435456 268435456 268435456 268435456 268435456 2147483648 3758620672 7 29471096 268435456 58779824 268435456 63025388 272760965 1 1619126520 1 31498360 2134504 1 3961390854 7 3963488138 2813428108 1 3385106922 2 273560964
is_linear=0
shrinkage=0.1


Tree=10
num_leaves=31
num_cat=30
split_feature=1 2 3 4 5 6 7 8 9 10 11 12 13 14 3 1 0 0 5 1 9 4 5 6 2 2 9 7 4 9
split_gain=5193.23 4176.16 3313.76 2623.54 2093.35 1767.64 1639.54 1619.77 1581.42 1512.33 1466.87 1441.8 1398.25 1262.28 1113.49 742.229 578.6 541.707 504.245 449.367 467.664 410.673 405.281 396.017 372.977 371.759 361.807 361.086 386.609 360.835
threshold=0 1 2 3 4 5 6 7 8 9 10 11 12 13 14 15 16 17 18 19 20 21 22 23 24 25 26 27 28 29
decision_type=9 9 9 9 1 1 1 1 1 1 1 1 1 9 9 9 1 1 1 9 1 9 1 1 9 9 1 1 9 1
left_child=-1 -2 -3 -4 -5 -6 -7 -8 -9 -10 -11 -12 -13 -14 15 24 19 -17 26 23 21 -21 -23 27 -15 -18 -19 -16 29 -29
right_child=1 2 3 4 5 6 7 8 9 10 11 12 13 14 16 17 25 18 -20 20 -22 22 -24 -25 -26 -27 -28 28 -30 -31
leaf_value=-0.09744152974993843 -0.099316256740868969 -0.098897386011125021 -0.098954010077242471 -0.099823977562416344 -0.099384676433927358 -0.0993076534863679 -0.099713070535416615 -0.099504960417527266 -0.099331311092625982 -0.099883805253039915 -0.099972526104737433 -0.1002699092810435 -0.10009213000976561 -0.0064556843192433953 0.026063133732813343 0.057957848849467357 0.012774038732069438 0.059866101024237339 0.0087475639178844888 0.04661223399118828 0.044893274584249375 0.066696278293610176 0.16814895917740924 0.017946864933245262 0.020003426246284761 0.037556250990130047 0.022517841241079438 0.25309538620807381 0.05100529132379869 0.094717509597909325
leaf_weight=5429.5344810690731 3938.4956371563021 2995.4943867297843 2276.9241429113317 1732.8465261193924 1438.3165087497327 1307.249092888087 1256.6212981468998 1207.5107559007592 1136.4730195519514 1072.2564393021166 1034.338694378268 981.40399174112827 874.22798252524808 22785.292280686088 2096.3394470941275 3511.4673857484013 17917.592297858559 3619.5053472481668 25368.016625656746 1212.106711871922 7850.1452132714912 748.49621733091772 949.80473649781197 8809.1039089029655 6942.5134904431179 9162.1310562323779 9274.764765814878 214.9776953253895 1278.3686788994819 543.96544179599732
leaf_count=1379818 1004928 766686 580116 441258 353173 301507 263534 230746 198072 164709 130311 101390 74553 1902843 132212 86990 1243392 236458 1750559 64514 406483 37823 46731 557798 527903 538401 592594 13192 81879 33917
internal_value=0 0.00210239 0.00497063 0.00725537 0.00906293 0.0104934 0.0117059 0.0128311 0.0139385 0.0150216 0.0160588 0.0170599 0.018043 0.0189938 0.0198533 0.0118074 0.0311773 0.0204015 0.0169405 0.0425967 0.0577326 0.0920913 0.124088 0.029978 -0.00027188 0.0211696 0.03304 0.055512 0.0855388 0.142288
internal_weight=0 143537 139598 136603 134326 132593 131155 129847 128591 127383 126247 125175 124140 123159 122285 71501.6 50783 41773.8 38262.3 23703.3 10760.6 2910.41 1698.3 12942.8 29727.8 27079.7 12894.3 4133.65 2037.31 758.943
internal_count=14244490 12864672 11859744 11093058 10512942 10071684 9718511 9417004 9153470 8922724 8724652 8559943 8429632 8328242 8253689 5097347 3156342 2666601 2579611 1374549 555551 149068 84554 818998 2430746 1781793 829052 261200 128988 47109
cat_boundaries=0 1 2 3 4 5 6 7 8 9 10 11 12 13 14 16 18 19 20 21 23 25 27 29 30 32 34 36 38 39 40
cat_threshold=268435456 268435456 268435456 268435456 268435456 268435456 268435456 268435456 268435456 268435456 268435456 268435456 268435456 268435456 3893102082 7 2684362752 7 3914427784 2147483648 90304825 1748369408 7 3265296146 1 3440904966 2 1820198932 1 26935800 3760477890 7 4002942050 7 141615958 1 3326853135 6 729872658 756950280
is_linear=0
shrinkage=0.1


Tree=11
num_leaves=31
num_cat=30
split_feature=1 2 3 4 5 6 7 8 9 10 11 12 13 14 15 0 4 5 12 1 6 0 2 1 6 0 10 3 1 7
split_gain=4668.52 3739.24 2951.6 2328.22 1854.15 1561.17 1444.8 1424.97 1387.98 1324.41 1282.71 1258.43 1218.08 1097.31 1069 1068.17 980.712 685.942 599.202 506.579 538.677 465.272 442.578 333.131 332.486 322.56 318.872 316.287 306.699 309.724
threshold=0 1 2 3 4 5 6 7 8 9 10 11 12 13 14 15 16 17 18 19 20 21 22 23 24 25 26 27 28 29
decision_type=9 9 9 9 1 1 1 1 1 1 1 1 1 9 9 1 9 1 1 9 1 1 9 9 1 1 1 9 9 1
left_child=-1 -2 -3 -4 -5 -6 -7 -8 -9 -10 -11 -12 -13 -14 -15 -16 17 27 -18 21 -21 -19 -23 -20 26 -25 -24 28 29 -17
right_child=1 2 3 4 5 6 7 8 9 10 11 12 13 14 15 16 18 19 23 20 -22 22 24 25 -26 -27 -28 -29 -30 -31
leaf_value=-0.097104310224483459 -0.099165388225767759 -0.098706251909761247 -0.098768262300902812 -0.099726604935326119 -0.099238161654589555 -0.099148312360789026 -0.099583806264082156 -0.099340928858384039 -0.099136873541035883 -0.099712268297493994 -0.099785905568611222 -0.10004572950109308 -0.099795890532920525 -0.10062664494455897 -0.039484735623455822 0.23731419870822298 0.054862372266482287 0.034215164833946474 0.021200434671198504 0.079959759487883045 0.020421876903370183 0.036844933924070455 0.051372627585710331 0.075767858455772719 -0.0026564278617790343 0.029923793458677069 0.0090622506750641044 -0.0064056779480551737 0.011717107490842333 0.053019128954752894
leaf_weight=4929.0957071660087 3568.8653447227553 2715.4421273944899 2063.9464889394585 1569.4082759339362 1303.2826657961123 1184.6697323066182 1138.4526908504777 1094.3309232941829 1030.2584816478193 971.81978875258937 937.58893278287724 889.92243803013116 793.29296152666211 752.04286027047783 3119.8904267521575 103.6769916722551 8644.4499479001388 10173.54695350118 30958.958119426854 2670.1704628160223 3563.8904267316684 5093.172895681113 2452.6199337327853 2339.0308004785329 19037.934988526627 4585.6085146525875 6490.7303900048137 20185.942175421864 3902.8929439568892 581.03348394017667
leaf_count=1379818 1004928 766686 580116 441258 353173 301507 263534 230746 198072 164709 130311 101390 74553 52376 280266 4857 523996 552681 1996481 137880 181913 331410 183459 104215 1470266 223047 486170 1449695 247221 27756
internal_value=0 0.00177214 0.00434573 0.00638594 0.00799401 0.00926299 0.010336 0.0113298 0.0123058 0.0132585 0.0141691 0.0150464 0.0159064 0.0167369 0.0174864 0.0182114 0.0197049 0.0125679 0.0310898 0.0193682 0.0460103 0.0155181 0.00975833 0.0256522 0.00481661 0.0454961 0.0207098 -0.00101711 0.0226555 0.0839389
internal_weight=0 143917 140348 137633 135569 133999 132696 131511 130373 129278 128248 127276 126339 125449 124656 123904 120784 74255.6 46528 49482.1 6234.06 43248 33074.5 37883.6 27981.3 6924.64 8943.35 24773.5 4587.6 684.71
internal_count=14244490 12864672 11859744 11093058 10512942 10071684 9718511 9417004 9153470 8922724 8724652 8559943 8429632 8328242 8253689 8201313 7921047 5073308 2847739 3343779 319793 3023986 2471305 2323743 2139895 327262 669629 1729529 279834 32613
cat_boundaries=0 1 2 3 4 5 6 7 8 9 10 11 12 13 14 15 16 18 19 20 22 24 25 26 28 30 32 34 35 36 37
cat_threshold=268435456 268435456 268435456 268435456 268435456 268435456 268435456 268435456 268435456 268435456 268435456 268435456 268435456 268435456 268435456 268435456 3960344334 5 3968598530 1774410970 3961259282 7 2244183532 2 2152727570 92372088 3903588906 7 62969968 2 2752577798 6 211104568 1 132157928 15767774 201326794
is_linear=0
shrinkage=0.1


Tree=12
num_leaves=31
num_cat=30
split_feature=1 2 3 4 5 6 8 7 9 10 11 12 13 14 15 1 0 2 4 16 3 2 6 10 14 7 13 3 4 3
split_gain=4197.42 3351.29 2632.8 2070.03 1646.11 1382.35 1277.23 1257.03 1222.24 1163.94 1125.94 1102.8 1065.64 958.1 932.32 918.198 774.154 677.834 521.82 466.789 424.172 388.935 380.768 367.345 432.205 320.779 339.829 317.758 316.559 331.369
threshold=0 1 2 3 4 5 6 7 8 9 10 11 12 13 14 15 16 17 18 19 20 21 22 23 24 25 26 27 28 29
decision_type=9 9 9 9 1 1 1 1 1 1 1 1 1 9 9 9 1 9 9 9 9 9 1 1 9 1 1 9 9 9
left_child=-1 -2 -3 -4 -5 -6 -7 -8 -9 -10 -11 -12 -13 -14 -15 21 19 20 23 -17 -18 28 -20 -19 -25 -24 -27 -23 -16 -30
right_child=1 2 3 4 5 6 7 8 9 10 11 12 13 14 15 16 17 18 22 -21 -22 27 25 24 -26 26 -28 -29 29 -31
leaf_value=-0.096741305355952059 -0.099006722509985268 -0.098503165183648392 -0.09857118029151811 -0.099626790955548244 -0.099084712270410658 -0.099478563731446534 -0.098938347171430102 -0.099171107016984617 -0.098934895848822008 -0.099538551012343046 -0.099597956322442352 -0.099822820100787912 -0.099499046466034982 -0.10031066015770007 0.069869098108758784 0.12839210700764178 -0.0028434088703230532 0.026833416957030648 0.0019908583195764381 0.041307938987978896 0.022637602125945438 -0.021325640433605346 0.012977607273961082 0.1208999878173168 0.045579702298192262 0.025482540041270527 0.061901598613207647 0.0056213192152350187 0.060234381732227352 -0.031218515517423474
leaf_weight=4475.9736056462862 3234.176674491493 2461.8681764781941 1871.1041320587974 1421.4208028391004 1181.0093077963684 1064.2259243675508 1040.8782563547138 991.81917182565667 934.04442263720557 880.81357084773481 849.90447942120954 806.96448071207851 719.86391585599631 682.54235984152183 1195.6315325452015 661.3821279630065 21374.621239068918 13143.791299475357 12264.622019629925 8364.4650995396078 9398.2014879910275 9477.4236426688731 17213.597214198671 883.8012854559347 5700.8344979276881 13451.111233267002 3178.7472905488685 8119.8849084051326 618.5499613173306 1061.9339383235201
leaf_count=1379818 1004928 766686 580116 441258 353173 272898 292143 230746 198072 164709 130311 101390 74553 52376 88069 11909 1614006 729465 801635 198853 610756 869104 1050292 48952 315703 847315 202682 687372 45772 79428
internal_value=0 0.00148163 0.00379318 0.0056178 0.0070512 0.00817953 0.00913166 0.010008 0.0108747 0.0117155 0.0125178 0.0132896 0.014045 0.0147734 0.0154299 0.0160643 0.019821 0.0172001 0.0229274 0.0478242 0.00494347 -0.00331938 0.0170946 0.0365439 0.0558573 0.0225659 0.032477 -0.00889544 0.03071 0.00260052
internal_weight=0 144249 141015 138553 136682 135261 134080 133015 131975 130983 130049 129168 128318 127511 126791 126109 105635 96609.3 65836.5 9025.85 30772.8 20473.4 46108.1 19728.4 6584.64 33843.5 16629.9 17597.3 2876.12 1680.48
internal_count=14244490 12864672 11859744 11093058 10512942 10071684 9718511 9445613 9153470 8922724 8724652 8559943 8429632 8328242 8253689 8201313 6431568 6220806 3996044 210762 2224762 1769745 2901924 1094120 364655 2100289 1049997 1556476 213269 125200
cat_boundaries=0 1 2 3 4 5 6 7 8 9 10 11 12 13 14 15 17 18 20 21 23 25 26 27 29 30 32 34 35 36 38
cat_threshold=268435456 268435456 268435456 268435456 268435456 268435456 268435456 268435456 268435456 268435456 268435456 268435456 268435456 268435456 268435456 0 7 2147483648 537935872 7 57864280 1155960724 2 3894808242 7 133292072 3894149888 187635203 2 632647696 3432779267 1 1717574345 7 3893188482 545780906 2831455456 2
is_linear=0
shrinkage=0.1


Tree=13
num_leaves=31
num_cat=29
split_feature=1 2 3 4 5 6 8 7 9 10 11 12 13 14 0 15 2 5 7 9 12 0 1 0 4 11 6 43 8 24
split_gain=3774.53 3006.5 2351.68 1843.72 1464.61 1226.95 1132.19 1111.93 1079.57 1026.22 991.783 969.977 935.883 839.907 841.949 816.944 735.441 634.692 591.354 450.816 450.742 397.305 355.682 318.315 386.229 389.593 346.283 303.695 301.979 299.12
threshold=0 1 2 3 4 5 6 7 8 9 10 11 12 13 14 15 16 17 18 19 20 21 22 23 24 25 26 13.500000000000002 27 28
decision_type=9 9 9 9 1 1 1 1 1 1 1 1 1 9 1 9 9 1 1 1 1 1 9 1 9 1 1 2 1 9
left_child=-1 -2 -3 -4 -5 -6 -7 -8 -9 -10 -11 -12 -13 -14 -15 -16 19 21 -19 23 -20 27 -23 24 25 26 -17 -18 -22 -21
right_child=1 2 3 4 5 6 7 8 9 10 11 12 13 14 15 16 17 18 20 29 28 22 -24 -25 -26 -27 -28 -29 -30 -31
leaf_value=-0.096349532581600533 -0.098838766666092384 -0.09828628852752859 -0.098360980981296572 -0.099523580132165834 -0.098922915597615305 -0.099343883548729764 -0.098757773366719342 -0.098993932372540408 -0.098723549720993439 -0.099361035530927885 -0.09940691658026074 -0.099599098105300946 -0.099198900507857735 -0.038151416959240868 -0.099978688957540612 0.37775093290734757 0.01692797830885805 0.010797747416530772 0.023952707339586342 0.040783342837531378 0.031783778699431893 -0.0034467609913659404 0.018924323496421022 0.040814606048547225 0.0525578050831432 0.098292270287763231 0.10634049931376022 0.085135194087505695 0.075706463100295551 0.0075993796360112539
leaf_weight=4065.7208583953325 2931.1466858242638 2232.2836330083665 1696.5043625209946 1287.432118580211 1070.2981717372313 964.20493506314233 943.47973156790249 898.97856857674196 846.8982071231585 798.3630216831807 770.44787416514009 731.75118253892288 653.26099396124482 3054.9933213540353 606.26503232121468 126.24606989789754 13316.5600745501 27505.622192318551 17321.948638091795 6009.3437481475994 3011.3472035396844 36017.686035239138 8843.5683252178133 2326.2377154314891 891.45797586813569 524.72995288018137 114.67736731097102 686.44613891467452 3376.5030765458941 4957.1085528433323
leaf_count=1379818 1004928 766686 580116 441258 353173 272898 292143 230746 198072 164709 130311 101390 74553 281726 50916 5341 699108 1744518 1108934 290801 184704 2735873 493479 114903 38158 22825 4809 31220 207746 238628
internal_value=0 0.00123223 0.00331078 0.00494519 0.00622542 0.007231 0.008078 0.00885637 0.00962488 0.0103693 0.0110786 0.01176 0.012426 0.0130674 0.013645 0.0149074 0.0154724 0.0126433 0.0207839 0.0362818 0.0323593 0.00555815 0.00096652 0.0651124 0.0987719 0.151208 0.257949 0.0202571 0.0550826 0.0257599
internal_weight=0 144516 141585 139352 137656 136368 135298 134334 133390 132491 131645 130846 130076 129344 128691 125636 125029 110080 51215.4 14949.8 23709.8 58864.3 44861.3 3983.35 1657.11 765.653 240.923 14003 6387.85 10966.5
internal_count=14244490 12864672 11859744 11093058 10512942 10071684 9718511 9445613 9153470 8922724 8724652 8559943 8429632 8328242 8253689 7971963 7921047 7205582 3245902 715465 1501384 3959680 3229352 186036 71133 32975 10150 730328 392450 529429
cat_boundaries=0 1 2 3 4 5 6 7 8 9 10 11 12 13 14 15 16 17 19 21 23 25 26 28 29 31 32 34 36 37
cat_threshold=268435456 268435456 268435456 268435456 268435456 268435456 268435456 268435456 268435456 268435456 268435456 268435456 268435456 268435456 268435456 268435456 60928248 3960344198 5 3457947143 2 91341404 3 3272345185 7 2290098188 3893166624 7 2746294602 725965444 3 3807423526 2370278556 5 1746677408 7 4
is_linear=0
shrinkage=0.1


Tree=14
num_leaves=31
num_cat=30
split_feature=1 2 3 4 5 6 8 7 9 10 11 12 13 14 16 15 0 3 1 14 5 0 9 6 7 8 5 6 17 6
split_gain=3394.49 2699.38 2103.04 1644.65 1305.61 1091.28 1005.94 985.971 956.083 907.329 876.247 855.872 824.679 738.838 731.825 710.882 698.763 676.897 600.969 514.473 345.757 341.455 308.957 305.011 300.846 328.518 386.709 330.331 291.138 286.482
threshold=0 1 2 3 4 5 6 7 8 9 10 11 12 13 14 15 16 17 18 19 20 21 22 23 24 25 26 27 28 29
decision_type=9 9 9 9 1 1 1 1 1 1 1 1 1 9 9 9 1 9 9 9 1 1 1 1 1 1 1 1 9 1
left_child=-1 -2 -3 -4 -5 -6 -7 -8 -9 -10 -11 -12 -13 -14 -15 -16 -17 21 23 20 -20 22 24 -19 25 29 27 -27 -21 -18
right_child=1 2 3 4 5 6 7 8 9 10 11 12 13 14 15 16 17 18 19 28 -22 -23 -24 -25 -26 26 -28 -29 -30 -31
leaf_value=-0.0959258667017064 -0.098659966977641275 -0.098053690823520112 -0.098135793947565053 -0.099415991457966424 -0.098751313251649264 -0.099203311856484025 -0.098566004111737868 -0.09880780631432301 -0.098500969020035883 -0.099178096899942766 -0.09921102295293488 -0.099372505151833365 -0.098892777560228823 -0.10048002715737336 -0.099657524389040006 -0.035215651034381124 0.17100721727307358 0.0098371977963113057 0.018148147931531623 -0.096700426501306516 0.0043433641788186948 0.022322307995993468 0.037291741661060772 -0.017931269627449356 0.044978615474124045 0.080404108240835839 0.095154383416570829 0.40963390714259956 0.031900671308498198 -0.013557964645990767
leaf_weight=3694.303037755657 2656.7969963022042 2024.4307545847259 1538.4305939639453 1166.1251383749768 970.06191548961215 873.63706489652395 855.29298878111877 814.90363413468003 767.97242524428293 723.67247575521469 698.45679643284529 663.571979269851 592.86293092137203 565.23105692816898 552.07951314747334 2920.4122882043011 129.68314505182207 6649.6375800287351 33295.353280334733 169.17872745450586 39900.321021366864 14708.514176314697 4626.0621710671112 9738.9989679893479 794.66681279428303 64.808501235209405 217.40106260869652 121.59141907375306 15731.288267156109 214.67231523059309
leaf_count=1379818 1004928 766686 580116 441258 353173 272898 292143 230746 198072 164709 130311 101390 74553 35380 51367 279285 5484 580860 1929289 9897 2490369 807427 214695 860561 34429 2904 9300 4969 927881 9592
internal_value=0 0.00101813 0.00288873 0.0043546 0.00549982 0.00639768 0.00715273 0.00784565 0.00852878 0.00918962 0.00981843 0.0104218 0.0110109 0.0115777 0.0120875 0.0125852 0.0130722 0.0141909 0.0109324 0.0141697 0.0106245 0.0306419 0.05041 -0.00666517 0.089251 0.135062 0.197093 0.305088 0.0304725 0.0588131
internal_weight=0 144746 142089 140065 138526 137360 136390 135517 134661 133846 133078 132355 131656 130993 130400 129835 129283 126362 105485 89096.1 73195.7 20877.4 6168.89 16388.6 1542.82 748.156 403.801 186.4 15900.5 344.355
internal_count=14244490 12864672 11859744 11093058 10512942 10071684 9718511 9445613 9153470 8922724 8724652 8559943 8429632 8328242 8253689 8218309 8166942 7887657 6798857 5357436 4419658 1088800 281373 1441421 66678 32249 17173 7873 937778 15076
cat_boundaries=0 1 2 3 4 5 6 7 8 9 10 11 12 13 14 15 16 17 18 20 22 24 25 27 28 30 32 34 35 36 38
cat_threshold=268435456 268435456 268435456 268435456 268435456 268435456 268435456 268435456 268435456 268435456 268435456 268435456 268435456 268435456 268435456 268435456 268435456 62955768 0 7 3363834881 7 65138805 5 3250651276 107144964 2 46332404 7436670 1 697649030 2 2388769024 7 3993003314 268435456 119586994 6
is_linear=0
shrinkage=0.1


Tree=15
num_leaves=31
num_cat=29
split_feature=1 2 3 4 5 6 8 7 9 10 11 12 13 4 1 7 8 5 12 2 0 0 3 5 6 2 3 43 0 2
split_gain=3052.53 2425.24 1882.51 1468.94 1165.81 972.353 895.569 876.129 848.661 804.15 776.209 757.288 728.811 685.193 429.656 426.968 402.461 365.435 372.974 350.308 342.783 334.633 317.987 313.191 515.725 375.311 382.271 317.555 312.821 302.909
threshold=0 1 2 3 4 5 6 7 8 9 10 11 12 13 14 15 16 17 18 19 20 21 22 23 24 25 26 7.5000000000000009 27 28
decision_type=9 9 9 9 1 1 1 1 1 1 1 1 1 9 9 1 1 1 1 9 1 1 9 1 1 9 9 2 1 9
left_child=-1 -2 -3 -4 -5 -6 -7 -8 -9 -10 -11 -12 -13 14 20 16 17 18 -15 -16 23 -21 -17 24 25 -14 -27 -28 -18 -26
right_child=1 2 3 4 5 6 7 8 9 10 11 12 13 15 19 22 28 -19 -20 21 -22 -23 -24 -25 29 26 27 -29 -30 -31
leaf_value=-0.095467005855941617 -0.098468694039950233 -0.097803324205384803 -0.097893662534692019 -0.099303018542049745 -0.098568369106235579 -0.099055571762216105 -0.098361356179827525 -0.098611073553890219 -0.098265220745984816 -0.098988078063745225 -0.099008499991998525 -0.099140992490588511 0.027254595352382879 0.15091963710466058 -0.012636291921790123 0.022806911108217812 0.031892277505467963 0.026511444136211055 0.056923317823558334 0.02354032332405688 0.0047183933920876154 -0.00043132908426461345 0.005787867273711134 0.044953731200557408 0.25317114069087387 0.10920330658077237 0.99269930089336822 0.47586506270538442 0.0075525097296164374 -0.0056929780428837898
leaf_weight=3358.0618191175163 2408.4264902337454 1836.2623754460365 1395.3260110998526 1056.3053611731157 879.31444730446674 791.63425843883306 775.45135399163701 738.77243969845586 696.49752876954153 656.01871268381365 633.23775644367561 601.77920516580343 43.959276397246867 520.99289922975004 16645.452900315169 15510.748609900009 10252.933362536132 3657.7407359853387 2384.5495877745561 7607.6524826432578 1340.9800759563223 24729.981885958929 37595.659481300507 939.16376732476056 50.696006489917636 40.99507540371269 27.285886529833078 21.066834399476647 10920.068933107425 183.80429096147418
leaf_count=1379818 1004928 766686 580116 441258 353173 272898 292143 230746 198072 164709 130311 101390 1773 29441 1265889 847673 567155 222255 140968 377485 60698 1712495 2342358 38564 1922 1553 1051 830 708441 7691
internal_value=0 0.000833372 0.00251809 0.00383425 0.00486016 0.00566317 0.0063375 0.0069556 0.00756418 0.00815221 0.00871111 0.00924688 0.00976941 0.0102716 0.00127118 0.0160189 0.0260769 0.0477205 0.0742376 -0.000853431 0.0404286 0.0052137 0.010762 0.0767539 0.154614 0.308088 0.429607 0.635988 0.0193484 0.0583359
internal_weight=0 144943 142534 140698 139303 138246 137367 136575 135800 135061 134365 133709 133076 132474 51631 80842.7 27736.3 6563.28 2905.54 48983.1 2647.95 32337.6 53106.4 1306.97 367.807 133.307 89.3478 48.3527 21173 234.5
internal_count=14244490 12864672 11859744 11093058 10512942 10071684 9718511 9445613 9153470 8922724 8724652 8559943 8429632 8328242 3469951 4858291 1668260 392664 170409 3355869 114082 2089980 3190031 53384 14820 5207 3434 1881 1275596 9613
cat_boundaries=0 1 2 3 4 5 6 7 8 9 10 11 12 13 14 15 16 17 19 21 23 25 27 28 30 31 33 35 37 39
cat_threshold=268435456 268435456 268435456 268435456 268435456 268435456 268435456 268435456 268435456 268435456 268435456 268435456 268435456 3960210950 65058892 31486460 6406264 1299263640 3 1150380178 4 541065248 7 3470801320 2 3226484736 4 63369396 2181244112 1 2160118910 1678889256 2 183325528 1 2894736668 4 39907328 2
is_linear=0
shrinkage=0.1


Tree=16
num_leaves=31
num_cat=30
split_feature=1 2 3 4 5 6 8 7 9 10 11 12 14 16 13 15 1 3 10 2 0 7 5 6 8 9 0 5 10 6
split_gain=2744.61 2180.16 1686.49 1313.46 1042.49 867.75 798.726 779.967 754.828 714.216 689.189 671.699 655.665 640.247 633.472 619.602 556.614 460.218 446.463 380.137 361.103 315.028 306.722 406.71 429.745 517.907 296.48 287.765 285.205 284.554
threshold=0 1 2 3 4 5 6 7 8 9 10 11 12 13 14 15 16 17 18 19 20 21 22 23 24 25 26 27 28 29
decision_type=9 9 9 9 1 1 1 1 1 1 1 1 9 9 1 9 9 9 1 9 1 1 1 1 1 1 1 1 1 1
left_child=-1 -2 -3 -4 -5 -6 -7 -8 -9 -10 -11 -12 -13 -14 -15 -16 29 19 26 27 21 22 23 24 25 -21 -19 -18 -26 -17
right_child=1 2 3 4 5 6 7 8 9 10 11 12 13 14 15 16 17 18 -20 20 -22 -23 -24 -25 28 -27 -28 -29 -30 -31
leaf_value=-0.09496950771136195 -0.098263235069660657 -0.097533043793218907 -0.097632497170139498 -0.099183610272194397 -0.098372498456653731 -0.098899327829038625 -0.098142090472092214 -0.098402021954378027 -0.098014301214622596 -0.098789298593196156 -0.098797547610596059 -0.09866547646336972 -0.10015535603992505 -0.09883998749613046 -0.099382199414889738 -0.017217701014029353 -0.017151032024640474 0.053991457496053219 0.013976938246866872 0.082393726193281003 0.0020733992561289875 0.012901868897930933 0.025907415184023338 0.039059449580328809 0.21924437408376107 0.38698552089142474 0.024533941268916865 0.0077325969069820186 0.021312044458501492 0.0062659728920163391
leaf_weight=3053.679812555667 2183.5857237488963 1665.922125719022 1265.7789700566791 956.88971154508181 797.1614577753935 717.39089328842238 703.16876290319487 669.83897488913499 631.77486729319207 594.744532040786 574.16017754259519 556.76811463711783 524.06495037302375 527.00452483072877 505.9684599628672 9602.0939865028486 9397.724353723228 5009.6086754836142 39490.873628886417 130.1824443526566 17376.865149335004 13412.853550986387 4789.4557514367625 1236.2760249115527 87.863468655385077 122.77113859727979 10952.023274991661 9177.569569023326 314.96649863477796 11133.095754593611
leaf_count=1379818 1004928 766686 580116 441258 353173 272898 292143 230746 198072 164709 130311 77034 36438 97851 51367 835510 681371 216637 2075272 6730 1103116 737279 259658 65724 4295 6112 612229 619501 16474 927034
internal_value=0 0.00067406 0.00219238 0.0033753 0.00429549 0.00501475 0.00561801 0.00617038 0.00671362 0.00723797 0.00773585 0.0082127 0.00867735 0.00913139 0.00956864 0.0100065 0.0104325 0.0132304 0.01969 0.00683692 0.0126347 0.0217621 0.0395027 0.0735998 0.13715 0.239322 0.0338073 -0.00485913 0.0687492 -0.00461195
internal_weight=0 145108 142925 141259 139993 139036 138239 137522 136819 136149 135517 134922 134348 133791 133267 132740 132234 111499 55452.5 56046.5 37471.2 20094.4 6681.52 1892.06 655.784 252.954 15961.6 18575.3 402.83 20735.2
internal_count=14244490 12864672 11859744 11093058 10512942 10071684 9718511 9445613 9153470 8922724 8724652 8559943 8429632 8352598 8316160 8218309 8166942 6404398 2904138 3500260 2199388 1096272 358993 99335 33611 12842 828866 1300872 20769 1762544
cat_boundaries=0 1 2 3 4 5 6 7 8 9 10 11 12 13 14 15 16 18 20 22 24 26 28 30 32 34 36 37 39 41 43
cat_threshold=268435456 268435456 268435456 268435456 268435456 268435456 268435456 268435456 268435456 268435456 268435456 268435456 268435456 268435456 268435456 268435456 0 7 3892315650 7 227666356 3 543162368 7 3841130622 4 568451184 4 6012976 2 159564136 3 3265851496 1 3777930885 2 2697081024 3926791814 2 1149374088 4 3961325066 7
is_linear=0
shrinkage=0.1


Tree=17
num_leaves=31
num_cat=30
split_feature=1 2 3 4 5 6 8 7 9 10 11 12 14 16 13 15 0 4 13 7 13 1 3 5 0 6 5 8 2 6
split_gain=2467.23 1960.79 1511.95 1175.55 933.458 775.487 713.493 695.505 672.578 635.535 613.195 597.087 581.836 567.629 561.65 548.708 540.489 530.375 418.892 392.804 414.02 350.717 272.648 270.221 269.642 250.025 223.008 219.402 232.401 240.061
threshold=0 1 2 3 4 5 6 7 8 9 10 11 12 13 14 15 16 17 18 19 20 21 22 23 24 25 26 27 28 29
decision_type=9 9 9 9 1 1 1 1 1 1 1 1 9 9 1 9 1 9 1 1 1 9 9 1 1 1 1 1 9 1
left_child=-1 -2 -3 -4 -5 -6 -7 -8 -9 -10 -11 -12 -13 -14 -15 -16 -17 18 26 21 25 22 -19 -22 27 -21 -18 28 29 -24
right_child=1 2 3 4 5 6 7 8 9 10 11 12 13 14 15 16 17 19 -20 20 23 -23 24 -25 -26 -27 -28 -29 -30 -31
leaf_value=-0.094429774161872371 -0.098041740249868906 -0.097240576582173305 -0.097350128865968111 -0.099056691564825439 -0.098162003934287867 -0.098733204427526977 -0.097906353286987796 -0.098178869881497724 -0.097746137415574363 -0.098580036455107767 -0.09857633794757964 -0.098345965012026249 -0.099777466237650658 -0.098586352711211162 -0.099063728048098598 -0.033694477159369268 0.024476441724945334 -0.0094345028903063816 0.044838786078242793 0.054996229101420671 -0.0014987155875743703 0.033320349860430747 0.13999600915389696 0.014501482940437274 -0.0028981055305348758 0.018181514020590612 0.0073061124168901405 0.00804983076534432 0.01514356031315614 0.044544291154584609
leaf_weight=2778.1501919685397 1980.0546423502965 1511.7270489172079 1148.5097624154296 866.89630816376302 722.792168324464 650.1762473732233 637.73255254467949 607.42641832097434 573.1703431433998 539.25302121695131 520.65094721224159 505.37081825756468 475.9355014343746 478.04372595832683 459.24809384951368 2855.1866180333309 14883.964463260956 25623.059602954425 5916.6893886215985 3180.9981659222394 17102.639909405261 2784.9171193353832 427.89654761087149 27573.00456781406 8561.4304674332961 4457.239652460441 15429.859972417355 2964.0867931144312 1056.0888494625688 748.26370850019157
leaf_count=1379818 1004928 766686 580116 441258 353173 272898 292143 230746 198072 164709 130311 77034 36438 97851 51367 279285 796540 1759152 300107 187180 1106948 113210 23029 1665454 563675 272478 845375 158582 55508 40419
internal_value=0 0.000537943 0.00190718 0.00297135 0.00379769 0.00444282 0.00498334 0.00547781 0.00596361 0.00643208 0.00687652 0.00730186 0.00771599 0.00812035 0.00850953 0.00889885 0.00927746 0.0102186 0.0205047 0.00627242 0.0120607 -0.000910075 -0.00333861 0.00837735 0.00801324 0.0335651 0.015742 0.0259617 0.049604 0.0801579
internal_weight=0 145242 143262 141751 140602 139735 139012 138362 137724 137117 136544 136005 135484 134979 134503 134025 133565 130710 36230.5 94479.6 52313.9 42165.7 39380.8 44675.6 13757.8 7638.24 30313.8 5196.34 2232.25 1176.16
internal_count=14244490 12864672 11859744 11093058 10512942 10071684 9718511 9445613 9153470 8922724 8724652 8559943 8429632 8352598 8316160 8218309 8166942 7887657 1942022 5945635 3232060 2713575 2600365 2772402 841213 459658 1641915 277538 118956 63448
cat_boundaries=0 1 2 3 4 5 6 7 8 9 10 11 12 13 14 15 16 17 18 20 22 23 25 27 29 30 31 33 35 37 39
cat_threshold=268435456 268435456 268435456 268435456 268435456 268435456 268435456 268435456 268435456 268435456 268435456 268435456 268435456 268435456 268435456 268435456 268435456 56750320 1789401365 5 3963492098 1 196802620 3896248070 7 3365537286 7 3968110082 2 2706399434 64215100 265403504 2 2715916722 4 2288896458 3 76637388 4
is_linear=0
shrinkage=0.1


Tree=18
num_leaves=31
num_cat=29
split_feature=1 2 3 4 5 6 8 7 9 10 11 12 14 16 13 15 0 4 43 10 9 8 6 4 2 7 5 4 7 3
split_gain=2217.12 1764.09 1356.19 1052.93 836.762 693.853 638.225 621.055 600.208 566.427 546.554 531.762 517.318 504.311 499.045 487.026 460.742 460.662 345.829 342.787 338.823 346.139 307.396 369.596 297.243 280.866 280.226 328.543 416.963 370.809
threshold=0 1 2 3 4 5 6 7 8 9 10 11 12 13 14 15 16 17 8.5000000000000018 18 19 20 21 22 23 24 25 26 27 28
decision_type=9 9 9 9 1 1 1 1 1 1 1 1 9 9 1 9 1 9 2 1 1 1 1 9 9 1 1 9 1 9
left_child=-1 -2 -3 -4 -5 -6 -7 -8 -9 -10 -11 -12 -13 -14 -15 -16 18 24 20 -19 21 22 -17 25 -18 -24 27 28 29 -23
right_child=1 2 3 4 5 6 7 8 9 10 11 12 13 14 15 16 17 19 -20 -21 -22 26 23 -25 -26 -27 -28 -29 -30 -31
leaf_value=-0.093844044353661782 -0.09780230037981974 -0.096923511837250939 -0.097044218996739845 -0.098921104205649812 -0.097935127013435541 -0.098555765153926778 -0.097652225103292634 -0.097939768351181664 -0.097458572234703889 -0.098358513041214846 -0.098342992872962873 -0.098013164058918731 -0.099399906382478198 -0.098321043864592395 -0.09873861220909412 0.030976043877407017 0.014872563215278984 0.023266894351852727 0.045807138703598219 0.0074583781317719665 0.0019105871112972414 -0.0021299955537883411 0.23094543002061105 0.28242818035485495 -0.0053133490621745175 -0.067702267871971478 -0.047556548935147096 -0.031734061357905054 0.0034437182311853349 0.48142592059853273
leaf_weight=2528.7474803780206 1795.8204467747128 1372.1520275573712 1042.3586754632415 785.43521207233425 655.47166393627413 589.32773509586696 578.49652113998309 550.92083220696077 520.10864702775143 489.00221994519234 472.18944116053171 458.78623496578075 432.23426344199106 433.68676844192669 416.87621980719268 234.7864591833204 9035.1837411033921 17999.027596351691 5356.7311830036342 57713.940228753723 5771.0884364135563 30.95526260137558 39.399416925385594 173.12121193110943 37689.397784499917 79.842171067371964 360.78298076242208 143.13379409350455 83.840787352994084 53.028090400621295
leaf_count=1379818 1004928 766686 580116 441258 353173 272898 292143 230746 198072 164709 130311 77034 36438 97851 51367 4754 521606 1103538 102043 3509147 139982 627 768 3488 2765993 1592 7671 2961 1746 1026
internal_value=0 0.000419744 0.00165514 0.00261319 0.00335598 0.0039353 0.00442024 0.00486352 0.00529861 0.00571786 0.00611529 0.00649541 0.00686524 0.00722609 0.00757324 0.00792021 0.00825745 0.00640075 0.0266794 0.0112191 0.0120171 0.0601492 0.120315 0.188663 -0.00140763 0.04121 0.0118616 0.0801343 0.171964 0.321931
internal_weight=0 145357 143561 142189 141147 140361 139706 139117 138538 137987 137467 136978 136506 136047 135615 135181 134764 122438 12326.7 75713 6969.98 1198.89 527.149 292.363 46724.6 119.242 671.741 310.958 167.824 83.9834
internal_count=14244490 12864672 11859744 11093058 10512942 10071684 9718511 9445613 9153470 8922724 8724652 8559943 8429632 8352598 8316160 8218309 8166942 7900284 266658 4612685 164615 24633 10602 5848 3287599 2360 14031 6360 3399 1653
cat_boundaries=0 1 2 3 4 5 6 7 8 9 10 11 12 13 14 15 16 17 18 19 21 23 25 27 28 30 32 34 36 37
cat_threshold=268435456 268435456 268435456 268435456 268435456 268435456 268435456 268435456 268435456 268435456 268435456 268435456 268435456 268435456 268435456 268435456 2147483648 3960210950 104980988 2183529218 4 602440870 2 1764706818 6 72112792 3 97771722 14183682 4 2287266418 1 3355182928 4 687768312 2 1299318042
is_linear=0
shrinkage=0.1


Tree=19
num_leaves=31
num_cat=30
split_feature=1 2 3 4 5 6 8 7 9 10 11 12 14 2 6 7 24 4 6 5 1 3 0 8 8 11 12 0 5 3
split_gain=1991.71 1587.69 1217.11 943.8 750.903 621.519 571.648 555.309 536.405 505.595 487.98 474.426 460.79 453.212 447.104 351.099 318.808 329.8 306.291 425.584 435.304 496.393 470.283 400.769 295.526 291.055 282.603 265.886 255.55 319.449
threshold=0 1 2 3 4 5 6 7 8 9 10 11 12 13 14 15 16 17 18 19 20 21 22 23 24 25 26 27 28 29
decision_type=9 9 9 9 1 1 1 1 1 1 1 1 9 9 1 1 9 9 1 1 9 9 1 1 1 1 1 1 1 9
left_child=-1 -2 -3 -4 -5 -6 -7 -8 -9 -10 -11 -12 -13 16 24 26 17 18 19 -14 -21 22 -22 27 25 -15 -16 -23 29 -19
right_child=1 2 3 4 5 6 7 8 9 10 11 12 13 14 15 -17 -18 28 -20 20 21 23 -24 -25 -26 -27 -28 -29 -30 -31
leaf_value=-0.093208402078847716 -0.097542847691943935 -0.096579289502693733 -0.096712334593517552 -0.098775664259218562 -0.097690009775837666 -0.098365497896863385 -0.097377676039766561 -0.097682770995887916 -0.097149354979935321 -0.098122906387967071 -0.098095588113424947 -0.097664384909996738 0.032600188526131224 0.044127863713578699 0.013082399882642502 0.0044546367451654828 0.0063354955953366862 0.11189893624874342 0.03598241201742515 0.045628244566163767 0.041705748979277479 0.014543911564472581 0.45287419033069298 0.031025974645161686 -0.0056723722950379422 0.0043799925075098311 0.037912471447346704 0.48578361475206089 0.0059591270255443529 0.014147375983517764
leaf_weight=2303.0021721448284 1629.0595226958394 1245.8150081364438 946.274566647131 711.69991973007564 594.53382378688548 534.24463940097485 524.87503422249574 499.76548261148855 472.06789547204971 443.5001806600485 428.30286020110361 416.56981250806712 600.86824738723226 2271.896886192495 16375.166599390795 39410.488260474987 7471.417741428595 576.31137744314037 2566.6239666598849 274.86283881869167 50.488297210074961 27.827190237119794 125.44070635549724 188.81522276834585 46028.929723527748 9601.132344547892 6379.2807787752245 36.555028025060892 4195.509415598819 803.63065358856693
leaf_count=1379818 1004928 766686 580116 441258 353173 272898 292143 230746 198072 164709 130311 77034 25270 146106 1005986 2449505 336493 25053 111270 11301 2279 1324 5050 8210 2998174 623813 376538 1451 188697 36078
internal_value=0 0.000321623 0.00143698 0.00230026 0.00296867 0.00348957 0.00392524 0.00432324 0.00471356 0.0050894 0.00544545 0.0057858 0.00611673 0.00643943 0.00427923 0.010168 0.0217584 0.0339792 0.0563754 0.0959091 0.148731 0.212227 0.343466 0.111453 -0.00204376 0.0120165 0.0200572 0.311443 0.0182939 0.0554831
internal_weight=0 145432 143803 142557 141611 140899 140305 139770 139245 138746 138274 137830 137402 136985 120067 62164.9 16918.4 9446.93 3871.48 1304.86 703.989 429.126 175.929 253.197 57902 11873 22754.4 64.3822 5575.45 1379.94
internal_count=14244490 12864672 11859744 11093058 10512942 10071684 9718511 9445613 9153470 8922724 8724652 8559943 8429632 8352598 7600122 3832029 752476 415983 166155 54885 29615 18314 7329 10985 3768093 769919 1382524 2775 249828 61131
cat_boundaries=0 1 2 3 4 5 6 7 8 9 10 11 12 13 14 16 18 19 21 23 25 27 29 31 33 34 36 38 40 42 44
cat_threshold=268435456 268435456 268435456 268435456 268435456 268435456 268435456 268435456 268435456 268435456 268435456 268435456 268435456 60928248 3895396102 5 25422072 5 4 577034704 4 205717956 7 3908323344 7 2357499052 1 1620222110 5 21511208 3 35943556 2 90194024 12653668 5 2836671029 2 1786836172 5 2165448848 5 1639979720 7
is_linear=0
shrinkage=0.1


Tree=20
num_leaves=31
num_cat=30
split_feature=1 2 3 4 5 6 8 7 9 13 15 10 16 0 11 12 14 14 1 17 2 6 5 5 3 6 10 5 4 0
split_gain=1788.47 1429.32 1092.72 846.481 674.498 557.269 512.604 497.09 479.988 470.066 450.563 446.442 443.05 434.799 424.661 407.237 422.787 370.23 360.948 322.16 304.67 263.947 257.993 223.982 209.826 209.098 207.075 191.761 209.446 218.167
threshold=0 1 2 3 4 5 6 7 8 9 10 11 12 13 14 15 16 17 18 19 20 21 22 23 24 25 26 27 28 29
decision_type=9 9 9 9 1 1 1 1 1 1 9 1 9 1 1 1 9 9 9 9 9 1 1 1 9 1 1 1 9 1
left_child=-1 -2 -3 -4 -5 -6 -7 -8 -9 -10 -11 -12 -13 -14 -15 -16 17 -17 20 -18 21 24 25 -21 -19 -22 -27 28 29 -20
right_child=1 2 3 4 5 6 7 8 9 10 11 12 13 14 15 16 19 18 27 23 22 -23 -24 -25 -26 26 -28 -29 -30 -31
leaf_value=-0.092518822287141866 -0.097261204056505013 -0.096205221181166159 -0.096351885065070836 -0.098619085252020011 -0.097424686813325098 -0.098160833401093162 -0.09708058554663998 -0.097405861262299082 -0.098256341359122187 -0.098581303778347396 -0.096736378531513609 -0.099038626454857587 -0.032960674721014833 -0.097727426284374974 -0.097650321604434265 -0.09701296468663656 -0.098013016597801067 -0.0075173805983573903 0.072449005240806497 0.031797546925229063 0.0046644326929081246 -0.011362936405057408 0.0024143032011198383 0.011913209147679916 0.015589466657892338 0.067990836693834877 0.02260975112258776 0.0083851639074278457 0.015882677103223993 0.020952944924237556
leaf_weight=2098.6763421430951 1478.1192388845375 1131.4636020212201 859.30513625580352 644.95973251515534 539.37506071815733 484.3824723532889 476.3372901227558 453.45558228692971 433.5105357618304 409.83835427637678 418.57470113539603 394.3550542833982 2825.3641324219061 379.03750354377553 361.5342638681177 347.27070126496255 221.78569317609072 7069.0111611504108 1650.0478899860755 10088.651249334216 5930.2678257431835 23502.185567012057 31587.731139332056 13004.729984798469 8829.3883864842355 1187.760379858315 6599.5408465173095 15746.451360054314 6764.3778246380389 1686.5438903905451
leaf_count=1379818 1004928 766686 580116 441258 353173 272898 292143 230746 110876 58899 193410 37379 288791 154848 121074 69790 13606 499482 68004 543959 343036 1687784 1866877 759354 584785 63843 371330 715501 294124 75972
internal_value=0 0.000240975 0.0012483 0.00202663 0.00262855 0.00309733 0.00348916 0.0038469 0.00419748 0.00453485 0.00486247 0.00517546 0.00549115 0.0057975 0.0066113 0.00691241 0.00720133 0.00462681 0.00495482 0.01944 0.00179765 -0.00463281 0.00738981 0.02061 0.00531705 0.0188369 0.0296098 0.0152967 0.0260521 0.0465597
internal_weight=0 145505 144027 142896 142036 141392 140852 140368 139891 139438 139004 138595 138176 137782 134956 134577 134216 110901 110553 23315.2 84705.9 39400.6 45305.3 23093.4 15898.4 13717.6 7787.3 25847.4 10101 3336.59
internal_count=14244490 12864672 11859744 11093058 10512942 10071684 9718511 9445613 9153470 8922724 8811848 8752949 8559539 8522160 8233369 8078521 7957447 6640528 6570738 1316919 5417137 2772051 2645086 1303313 1084267 778209 435173 1153601 438100 143976
cat_boundaries=0 1 2 3 4 5 6 7 8 9 10 11 12 13 14 15 16 18 19 21 22 24 26 28 29 31 33 34 35 37 39
cat_threshold=268435456 268435456 268435456 268435456 268435456 268435456 268435456 268435456 268435456 268435456 268435456 268435456 268435456 268435456 268435456 268435456 3623880195 7 268435456 3894149122 7 268435456 3762307072 7 26274041 2 55611504 6 123957756 3758621964 3 3963358217 2 67465316 1096908272 608228374 2 3274794946 4
is_linear=0
shrinkage=0.1


Tree=21
num_leaves=31
num_cat=30
split_feature=1 2 3 4 5 6 8 7 9 13 1 16 15 11 7 29 2 9 6 8 6 4 0 10 4 11 6 5 3 10
split_gain=1604.8 1286.73 981.137 759.404 606.261 499.986 460.035 445.328 429.895 420.944 410.934 353.041 345.736 333.408 324.619 337.774 314.135 299.859 281.472 279.286 412.526 340.087 367.63 418.555 297.484 326.623 370.589 376.116 258.078 257.263
threshold=0 1 2 3 4 5 6 7 8 9 10 11 12 13 14 15 16 17 18 19 20 21 22 23 24 25 26 27 28 29
decision_type=9 9 9 9 1 1 1 1 1 1 9 9 9 1 1 1 9 1 1 1 1 9 1 1 9 1 1 1 9 1
left_child=-1 -2 -3 -4 -5 -6 -7 -8 -9 -10 -11 -12 -13 -14 15 17 18 -15 -16 20 -19 -22 -23 -24 25 26 27 -21 -25 -18
right_child=1 2 3 4 5 6 7 8 9 10 11 12 13 14 16 -17 29 19 -20 24 21 22 23 28 -26 -27 -28 -29 -30 -31
leaf_value=-0.091771178345018717 -0.096955049489409251 -0.095798463653097549 -0.09596015983602342 -0.098450055781555162 -0.097137094341208263 -0.097940110602165897 -0.096758725196010018 -0.097106917113718161 -0.097983041408008231 -0.0083637477427028137 -0.098275100238530422 -0.097731958770556446 -0.097008665181911813 0.014355763348118323 0.0076459023893418916 0.010118591718648288 0.018820369111650845 0.030148026162083865 -0.016380007598119469 0.04560590178592188 0.059706536941967731 0.051435385272446635 0.37458691061047505 0.0083714918438449349 0.0036404965878040043 0.039519339905341636 0.051940772423455975 0.51575060468613187 0.24579642253666953 0.004530378519495947
leaf_weight=1913.7429498151178 1341.502418007236 1027.9632464915048 780.58752078050748 584.55254104966298 489.44850308261812 439.24777448456734 432.40236559964251 411.53357749234419 393.32295485155191 21560.039618009934 309.90882627246901 304.86109472333919 296.25438218109775 3559.4383332717698 8354.6695351488888 18260.753774654004 16327.234830009518 760.24684788042214 11689.843148959102 39.51236295234412 409.56718003191054 159.05716630164534 154.06412788620219 97.472600029432215 1421.6551944615785 557.15467632433865 112.42904512828682 50.691161847673357 89.549615933909081 55152.545472281519
leaf_count=1379818 1004928 766686 580116 441258 353173 272898 292143 230746 110876 1895437 31360 45773 130573 210084 549004 1010768 879845 44314 813481 2336 23906 10124 8037 5551 83961 31845 6372 2867 4788 3021422
internal_value=0 0.000165376 0.00107539 0.00177745 0.00231985 0.00274208 0.00309479 0.00341668 0.0037319 0.00403511 0.0043294 0.006647 0.00693136 0.00721123 0.00748293 0.0174192 0.00469433 0.0354317 -0.00636705 0.0547306 0.0855931 0.131097 0.187242 0.247304 0.0308218 0.0809733 0.187735 0.334914 0.12876 0.00779664
internal_weight=0 145568 144226 143198 142417 141833 141343 140904 140472 140060 139667 118107 117797 117492 117196 25671.6 91524.3 7410.84 20044.5 3851.4 1669.96 909.711 500.144 341.086 2181.44 759.787 202.633 90.2035 187.022 71479.8
internal_count=14244490 12864672 11859744 11093058 10512942 10071684 9718511 9445613 9153470 8922724 8811848 6916411 6885051 6839278 6708705 1444953 5263752 434185 1362485 224101 96720 52406 28500 18376 127381 43420 11575 5203 10339 3901267
cat_boundaries=0 1 2 3 4 5 6 7 8 9 10 12 13 14 15 16 17 19 21 23 25 27 29 31 33 34 35 37 39 41 43
cat_threshold=268435456 268435456 268435456 268435456 268435456 268435456 268435456 268435456 268435456 268435456 0 7 268435456 268435456 268435456 23126128 4 32 7 2718877347 2 22268145 2 2150248698 7 3291294832 6 1799392048 5 463110150 2 232077190 4 223812120 2349487690 2777266544 2 3391954368 1 1218663892 7 79753404 2
is_linear=0
shrinkage=0.1


Tree=22
num_leaves=31
num_cat=30
split_feature=1 2 3 4 5 6 10 8 4 5 6 2 0 7 9 7 13 0 3 3 29 6 5 10 9 0 3 2 6 3
split_gain=1439.32 1158.64 881.225 681.619 545.402 448.977 422.011 407.109 394.666 331.696 312.238 284.052 274.762 305.725 256.442 251.615 248.876 245.93 258.876 244.779 236.922 267.665 290.172 282.414 287.451 293.714 276.138 258.475 374.253 378.891
threshold=0 1 2 3 4 5 6 7 8 9 10 11 12 13 14 15 16 17 18 19 20 21 22 23 24 25 26 27 28 29
decision_type=9 9 9 9 1 1 1 1 9 1 1 9 1 1 1 1 1 1 9 9 1 1 1 1 1 1 9 9 1 9
left_child=-1 -2 -3 -4 -5 -6 -7 -8 9 -9 16 15 19 -14 -13 17 -11 18 -12 -10 21 22 23 -15 -25 26 -26 28 29 -22
right_child=1 2 3 4 5 6 7 8 12 10 11 14 13 20 -16 -17 -18 -19 -20 -21 27 -23 -24 24 25 -27 -28 -29 -30 -31
leaf_value=-0.090961257168401588 -0.096621926109221407 -0.095356031411590186 -0.095534289238671855 -0.098267140975567602 -0.096825072157507616 -0.09668489516381143 -0.097652273310259108 -0.012678671140840562 0.017225783500500032 0.034444774597061613 -0.01028891430542297 -0.024487152831581413 0.0050698127468522943 0.055074545853091697 -0.0023035703416859218 -0.0014832658484146516 0.0063263656862079763 0.016536142211236463 0.13195777865453953 -0.0050873519967963585 0.026793955292414136 0.021032118657485929 0.030453923697823383 0.032360356249915165 0.087689351104354801 0.085842852825396762 0.3704069974573202 0.0090964691706201511 0.013288940052073497 0.13696772206034533
leaf_weight=1746.3654721569037 1217.8527980201179 934.2862472202396 709.34023293585051 529.87865575950127 444.25870000349823 415.53752679843456 390.32265507953707 19695.891554238391 6723.8463755672565 3617.5880407524528 176.06223896937445 7213.6394284566632 18565.919549700804 682.25883104710374 18731.373020534287 2166.7849631743738 23933.892938354635 927.4385576111963 509.80473191291094 18207.110609748517 630.07640287885442 3263.0038289217046 1252.6674592441414 154.9082973911427 74.496327782049775 161.94675264391117 143.08009349636268 11555.539972331375 1940.0822893081931 644.20598194526974
leaf_count=1379818 1004928 766686 580116 441258 353173 216900 267269 1479975 393842 242487 8687 576909 1075944 37381 1358810 120145 1578345 51461 24412 1201411 30686 187341 71155 9013 3715 9407 6111 645889 92262 28954
internal_value=0 0.000108495 0.000930969 0.00156464 0.00205379 0.00243444 0.00275227 0.00305139 0.00333713 -0.00148765 0.00236219 -0.00474549 0.00913926 0.0143732 -0.00847846 0.0208308 0.0100296 0.0506248 0.0958199 0.000934965 0.0227913 0.0400577 0.0648504 0.099727 0.154672 0.202483 0.281714 0.0161054 0.041146 0.0831245
internal_weight=0 145613 144395 143461 142752 142222 141777 141362 140972 76972.5 57276.6 29725.1 63999.1 39068.2 25945 3780.09 27551.5 1613.31 685.867 24931 20502.3 5732.36 2469.36 1216.69 534.431 379.523 217.576 14769.9 3214.36 1274.28
internal_count=14244490 12864672 11859744 11093058 10512942 10071684 9718511 9501611 9234342 5441231 3961256 2140424 3793111 2197858 1935719 204705 1820832 84560 33099 1595253 1121914 324123 136782 65627 28246 19233 9826 797791 151902 59640
cat_boundaries=0 1 2 3 4 5 6 7 8 10 11 13 14 16 18 20 22 23 25 27 29 30 32 34 36 38 39 40 41 43 45
cat_threshold=268435456 268435456 268435456 268435456 268435456 268435456 268435456 268435456 3960344070 5 3900965378 65261817 2 126986296 1514062336 3 4061955075 6 1913586176 7 597387904 6 2210048536 2524053638 5 1241531042 4 92350584 2 4 130083732 1 2237769148 3 3364379963 1 271869032 4 2764055940 2712368644 44347964 751009960 5 3960286276 3
is_linear=0
shrinkage=0.1


Tree=23
num_leaves=31
num_cat=30
split_feature=1 2 3 4 5 7 12 9 6 14 13 16 11 15 0 10 17 15 1 5 6 8 2 0 7 9 10 36 3 2
split_gain=1290.03 1043.38 791.584 611.98 490.99 415.561 400.081 391.396 383.957 370.377 364.037 360.462 352.818 350.391 346.939 339.675 335.109 382.926 304.748 288.759 272.396 258.923 268.418 244.07 349.033 336.998 375.661 241.75 223.79 255.321
threshold=0 1 2 3 4 5 6 7 8 9 10 11 12 13 14 15 16 17 18 19 20 21 22 23 24 25 26 27 28 29
decision_type=9 9 9 9 1 1 1 1 1 9 1 9 1 9 1 1 9 9 9 1 1 1 9 1 1 1 1 1 9 9
left_child=-1 -2 -3 -4 -5 -6 -7 -8 -9 -10 -11 -12 -13 -14 -15 -16 -17 18 28 -20 21 22 23 24 25 26 27 -21 29 -18
right_child=1 2 3 4 5 6 7 8 9 10 11 12 13 14 15 16 17 -19 19 20 -22 -23 -24 -25 -26 -27 -28 -29 -30 -31
leaf_value=-0.090084831223144216 -0.096259212530465779 -0.094874769561218611 -0.09507129808086931 -0.09806885540799179 -0.096602271528056394 -0.097781868087904317 -0.096865942194381882 -0.096254899150996567 -0.097037673945350122 -0.097604671388246453 -0.098356756514132046 -0.097325035200906407 -0.097831726830585844 -0.030658411340273767 -0.095684170135097127 -0.09897867844741591 0.077328669929452989 0.022365930129682399 -0.0023088087132785953 0.44669892522422211 0.0024921910026071831 0.0083810375027757109 0.020437133138561644 0.031164472050852418 0.04695518120379874 0.093963960574013503 0.065708465828166099 1.001568923175608 0.0076787958565709864 0.022177073525959101
leaf_weight=1594.8807517403038 1105.9418621860677 849.5017980937846 644.85521356307436 480.39485113357659 414.74531891464721 387.0589086166583 383.421450704569 378.55963358294684 357.02473109972198 344.8898443216458 334.5338393796701 332.44760912610218 325.10281174012925 2733.6251817814773 322.59991623065434 296.33137003181037 1238.2661210165825 12563.930711978115 57763.066071633366 68.583621848374605 36175.113883016165 13140.229476517416 5607.6796881575137 1079.3302756780759 503.3088996084407 229.17640823312104 56.372526408173144 8.8672825926914793 4866.9142375484807 2652.7616814100184
leaf_count=1379818 1004928 766686 580116 441258 312615 151537 241566 330892 83703 107840 38622 163982 54515 289542 181164 19489 47007 716586 3718332 3317 2142916 773312 314221 61348 24412 11125 2509 392 183100 97640
internal_value=0 6.37041e-05 0.00080733 0.00137957 0.001821 0.00216445 0.00245939 0.00273996 0.00301693 0.00329026 0.00355183 0.00380743 0.00405863 0.00430697 0.00455234 0.00525931 0.00550532 0.00574032 0.00404577 0.00267109 0.00772883 0.0168776 0.031628 0.0636127 0.103223 0.177889 0.305087 0.451881 0.0220152 0.0398815
internal_weight=0 145645 144539 143689 143044 142564 142149 141762 141379 141000 140643 140298 139964 139631 139306 136573 136250 135954 123390 114632 56868.7 20693.5 7553.32 1945.64 866.309 363 133.823 77.4509 8757.94 3891.03
internal_count=14244490 12864672 11859744 11093058 10512942 10071684 9759069 9607532 9365966 9035074 8951371 8843531 8804909 8640927 8586412 8296870 8115706 8096217 7379631 7051884 3333552 1190636 417324 103103 41755 17343 6218 3709 327747 144647
cat_boundaries=0 1 2 3 4 5 6 7 8 9 10 11 12 13 14 15 16 17 19 20 22 23 24 26 28 29 30 31 32 34 36
cat_threshold=268435456 268435456 268435456 268435456 268435456 268435456 268435456 268435456 268435456 268435456 268435456 268435456 268435456 268435456 268435456 268435456 268435456 3930857669 7 63027420 3968732802 5 96531188 197228750 10777196 2 3797682466 2 43361020 61512876 1220455989 1 1627556846 4 2196279298 5
is_linear=0
shrinkage=0.1


Tree=24
num_leaves=31
num_cat=30
split_feature=1 2 3 4 5 7 8 6 6 4 5 11 4 8 2 3 5 7 8 0 12 3 10 7 8 5 0 9 9 0
split_gain=1154.88 939.216 710.806 549.347 442.109 373.48 363.456 356.432 292.604 264.095 308.018 263.158 241.312 227.846 226.614 232.061 224.68 221.777 244.74 306.709 327.716 319.169 218.74 304.754 378.073 357.042 271.135 406.673 249.528 223.553
threshold=0 1 2 3 4 5 6 7 8 9 10 11 12 13 14 15 16 17 18 19 20 21 22 23 24 25 26 27 28 29
decision_type=9 9 9 9 1 1 1 1 1 9 1 1 9 1 9 9 1 1 1 1 1 9 1 1 1 1 1 1 1 1
left_child=-1 -2 -3 -4 -5 -6 -7 8 -8 11 14 16 22 -14 15 -11 17 18 19 20 -9 -22 23 24 25 28 27 -27 29 -10
right_child=1 2 3 4 5 6 7 9 12 10 -12 -13 13 -15 -16 -17 -18 -19 -20 -21 21 -23 -24 -25 -26 26 -28 -29 -30 -31
leaf_value=-0.089137683339626655 -0.095864163027723159 -0.094351419728248301 -0.09456804394761921 -0.097853610526523457 -0.096241706272188476 -0.097400041136406199 -0.095908059177828645 0.0087459602575309398 0.28795705423661844 -0.0012863555019100364 0.0069329567887331106 0.0089486386181051453 -0.020757402667929872 -0.0020240833095494645 0.002384305458151696 -0.028856340865491322 0.015861405318321056 0.026611143247458825 0.037748114684874844 0.084473382185295806 0.043875713161517525 0.47715338042907973 -4.064769293365992e-05 0.0078692168258706688 0.023418006894571068 -0.054142886463261923 -0.050575979369030757 0.34949156528645642 0.39498720344699217 -0.050650061459325796
leaf_weight=1457.7821930025239 1004.656993642333 772.76666553795803 586.49139566894155 435.60911523393588 376.64925136603415 355.63690418686019 347.45214015536476 47.890563701745123 24.151201312895864 5531.0943871203344 45229.502193829278 28273.495771289803 11558.08904266078 14818.537926404038 12999.356971114757 6824.9732353179716 3072.6132358780596 1119.8127363702515 487.07247017160989 391.82014468125999 36.703231532359496 75.121939010336064 8920.030580763123 1584.1590331256157 481.68692479922902 44.047064188751392 101.38103051634971 51.691394427907653 86.073787934030406 44.195605769637041
leaf_count=1379818 1004928 766686 580116 441258 312615 271189 334410 3144 1555 401375 2871484 1616211 846015 1053660 850503 523514 177765 63556 27711 20532 2120 4420 546318 95461 28674 2583 6825 2697 4774 2573
internal_value=0 1.09154e-05 0.00068326 0.00120011 0.00159859 0.00190861 0.00217476 0.00243072 -0.00584915 0.00545862 0.00198742 0.0127687 -0.00499425 -0.0102377 -0.00683378 -0.0165259 0.0333595 0.0580809 0.0914339 0.137328 0.254376 0.350218 0.0072029 0.0338213 0.0824837 0.16053 0.0627713 0.176231 0.273913 0.0904832
internal_weight=0 145683 144678 143905 143319 142883 142507 142151 38061.5 104089 70584.9 33504.5 37714 26376.6 25355.4 12356.1 5231.03 2158.42 1038.61 551.536 159.716 111.825 11337.4 2417.39 833.227 351.54 197.119 95.7385 154.421 68.3468
internal_count=14244490 12864672 11859744 11093058 10512942 10071684 9759069 9487880 2925545 6562335 4646876 1915459 2591135 1899675 1775392 924889 299248 121483 57927 30216 9684 6540 691460 145142 49681 21007 12105 5280 8902 4128
cat_boundaries=0 1 2 3 4 5 6 7 8 9 11 12 13 14 16 18 20 22 24 26 28 30 31 33 34 35 37 38 40 42 44
cat_threshold=268435456 268435456 268435456 268435456 268435456 268435456 268435456 4161537538 268435456 56746448 2 3903193862 143774770 64172216 3758860164 7 2350976040 7 217733992 4 3354005524 2 3295263128 1 590818664 3 1906376904 2 4044034130 1 2867912716 29712404 3 2365929608 1693268240 1706108200 2 2300706136 2584033414 7 1955941480 3 1223730220 2
is_linear=0
shrinkage=0.1


Tree=25
num_leaves=31
num_cat=29
split_feature=1 2 3 4 5 12 9 3 1 7 8 10 4 11 0 6 2 9 0 8 4 43 7 24 32 5 8 3 10 4
split_gain=1033.37 845.679 638.451 493.34 398.438 360.779 354.491 342.557 317.646 278.052 237.279 221.958 216.507 255.197 213.535 202.869 240.72 282.407 317.425 411.28 496.222 558.088 452.578 257.174 234.974 213.229 304.941 298.706 238.434 206.592
threshold=0 1 2 3 4 5 6 7 8 9 10 11 12 13 14 15 16 17 18 19 20 1.5000000000000002 21 22 23 24 25 26 27 28
decision_type=9 9 9 9 1 1 1 9 9 1 1 1 9 1 1 1 9 1 1 1 9 2 1 9 1 1 1 9 1 9
left_child=-1 -2 -3 -4 -5 -6 -7 14 15 11 12 -10 13 -11 -8 16 29 18 19 20 22 -22 24 -24 -18 -20 27 -27 -29 -9
right_child=1 2 3 4 5 6 7 8 9 10 -12 -13 -14 -15 -16 -17 17 -19 25 -21 21 -23 23 -25 -26 26 -28 28 -30 -31
leaf_value=-0.088115668315620732 -0.095433863695029611 -0.093782566290735392 -0.09402130511301636 -0.097619743089683089 -0.097534282337385356 -0.096583664994327925 0.030665302340212832 0.019529097871471921 -0.017558513550883635 0.048981683791056316 0.0022471709199592279 -1.372048876929521e-05 0.0056517162635675612 0.014731341474457031 0.0076643869979735983 -0.022552279320841473 1.0235411530120502 0.0011425001548653222 -0.043638165417937309 0.022712719578120905 5.3145689700661531 0.067649734381796986 -0.016712149498959869 0.52354819588885959 0.52844654394212742 -0.034003962455022622 0.012455916107545159 -0.051788620258582302 0.45864762131778802 -0.025343326302231572
leaf_weight=1333.7059108604444 912.9905285279965 703.31751539575635 533.66806898918003 395.07590330945095 355.45200984925032 354.18272868864005 5800.7868364380556 1335.6803388628759 9359.2119978186092 3238.0735731560853 42960.774973814376 31308.011392485118 11205.692435101955 6683.875580543885 13294.544044275477 8995.1775888687116 24.18218569457531 2871.7974655430298 292.33916084724478 182.20612061838619 0.20311149582266708 104.83686835179105 31.964652072871104 12.163832002144771 15.881952254567294 36.043145006056875 281.09170046332292 16.432299609179609 46.735661328886636 4347.8972883955576
leaf_count=1379818 1004928 766686 580116 441258 155816 248249 262884 120778 733221 186028 2637001 2174582 705432 398495 744103 954375 2291 250347 24828 19295 25 10359 3289 1192 1475 3120 23819 1597 3488 405595
internal_value=0 -1.71903e-05 0.000591031 0.00105817 0.00141817 0.00169829 0.00195211 0.00220388 0.000273944 0.00241222 0.00651586 -0.00405483 0.0151906 0.0259472 0.014664 -0.0117672 -0.00164799 0.0174044 0.0616983 0.135056 0.236658 0.071033 0.413816 0.107783 0.662035 0.0198046 0.0684416 0.211399 0.336934 -0.0147822
internal_weight=0 145700 144787 144084 143550 143155 142800 142446 123350 104756 64088.4 40667.2 21127.6 9921.95 19095.3 18594.6 9599.46 3915.88 1044.08 371.439 189.233 105.04 84.1926 44.1285 40.0641 672.642 380.303 99.2111 63.168 5683.58
internal_count=14244490 12864672 11859744 11093058 10512942 10071684 9915868 9667619 8660632 6834759 3926956 2907803 1289955 584523 1006987 1825873 871498 345125 94778 37926 18631 10384 8247 4481 3766 56852 32024 8205 5085 526373
cat_boundaries=0 1 2 3 4 5 6 7 8 10 12 13 15 17 19 20 21 23 25 27 29 30 32 33 34 35 37 39 41 43
cat_threshold=268435456 268435456 268435456 268435456 268435456 268435456 268435456 29401328 0 7 3726380554 2 2180368504 1881149186 5 116634376 3 2309135482 6 3384803466 48429557 3775683870 4 7872248 1 325357716 7 3346040214 5 2797820458 49238466 6 4 2 2325974572 537497984 3 2216840202 4 2466450692 5 2164359568 5
is_linear=0
shrinkage=0.1


Tree=26
num_leaves=31
num_cat=29
split_feature=1 2 3 4 5 11 13 14 10 16 8 15 7 0 43 3 1 2 9 11 4 2 6 7 9 8 3 1 5 11
split_gain=923.229 760.957 573.073 442.811 359.067 343.189 338.7 329.185 325.424 320.666 320.268 314.431 310.578 308.709 274.378 267.465 310.033 269.472 253.177 240.907 222.53 234.95 253.767 314.498 324.888 360.365 274.353 229.211 221.777 212.28
threshold=0 1 2 3 4 5 6 7 8 9 10 11 12 13 11.500000000000002 14 15 16 17 18 19 20 21 22 23 24 25 26 27 28
decision_type=9 9 9 9 1 1 1 9 1 9 1 9 1 1 2 9 9 9 1 1 9 9 1 1 1 1 9 9 1 1
left_child=-1 -2 -3 -4 -5 -6 -7 -8 -9 -10 -11 -12 -13 14 20 16 -15 -18 -19 -17 21 -14 23 24 27 -26 28 -23 -27 -20
right_child=1 2 3 4 5 6 7 8 9 10 11 12 13 15 -16 19 17 18 29 -21 -22 22 -24 -25 25 26 -28 -29 -30 -31
leaf_value=-0.087014806447284487 -0.09496524971034731 -0.093164697713614561 -0.093427743148248796 -0.097365493433257483 -0.097497620069055171 -0.097463201850689629 -0.096671734106470841 -0.095739062179270903 -0.09799101623143168 -0.097012653448908401 -0.097521951112352886 -0.095411485871626886 -0.016948173327084582 -0.022754177891260025 0.05190956662822295 0.021109861069412234 -0.011208308586256242 -0.0094294365025859514 0.023062140267904839 0.0039560287621929263 -0.0011224674483079533 0.2024374548797126 0.013278189554752746 0.022049116440303333 0.049692123040865621 0.062034635352339711 0.086266612526995745 -0.034222752108060868 0.32218150350809177 0.003921467023203843
leaf_weight=1221.4165103575215 830.03006643487606 640.46289875748334 485.85941147175618 358.39174345025094 339.41140448773513 333.41588845761726 327.53504893166246 328.45685470744502 307.25527523446362 311.66336076607695 301.21476489043562 309.28693080268567 968.5539186008973 6652.0944213680341 2012.5307212761836 9960.5002699175384 16367.550047747209 11402.018697229098 7157.9376499411301 45865.240850855713 6079.4863181696273 39.323646613163874 2092.9659999160795 973.66132542793639 311.58179620513692 62.094012836925685 177.618121212814 230.80994172929786 196.88040386745706 30309.017008217401
leaf_count=1379818 1004928 766686 580116 441258 191030 121329 88721 211403 41110 263526 58307 282988 22097 701833 35918 583975 1332648 836186 470869 2643322 144484 847 51693 21739 6775 1204 3453 5109 3800 1947318
internal_value=0 -6.28004e-05 0.000487334 0.000909538 0.0012348 0.00148797 0.00172958 0.00196808 0.00220171 0.00243483 0.00265936 0.00288578 0.00310691 0.00332999 0.0179162 0.00182736 -0.00220534 -0.000106834 0.00361288 0.00701987 0.0117872 0.0272662 0.0377654 0.0632993 0.102143 0.136236 0.195504 0.0062248 0.264432 0.00758341
internal_weight=0 145733 144903 144262 143776 143418 143079 142745 142418 142089 141782 141470 141169 140860 13145.5 127714 71888.6 65236.5 48869 55825.7 11133 5053.49 4084.94 1991.97 1018.31 748.174 436.593 270.134 258.974 37467
internal_count=14244490 12864672 11859744 11093058 10512942 10071684 9880654 9759325 9670604 9459201 9418091 9154565 9096258 8813270 297119 8516151 5288854 4587021 3254373 3227297 261201 116717 94620 42927 21188 15232 8457 5956 5004 2418187
cat_boundaries=0 1 2 3 4 5 6 7 8 9 10 11 12 13 14 16 18 20 22 24 26 27 29 31 32 34 36 37 39 40
cat_threshold=268435456 268435456 268435456 268435456 268435456 268435456 268435456 268435456 268435456 268435456 268435456 268435456 268435456 2147483648 3893102082 7 8192 6 6311936 7 2987269120 2 2329084972 2 3253937904 2 1074157584 3453035884 4 686324314 5 412725336 2232623945 1 626954858 5 101981204 537141416 3 86823156
is_linear=0
shrinkage=0.1


Tree=27
num_leaves=31
num_cat=30
split_feature=1 2 3 4 6 12 9 5 17 13 14 11 15 16 16 0 7 8 1 3 5 9 12 11 8 11 6 10 6 0
split_gain=824.197 684.772 514.415 397.538 327.728 321.97 314.138 307.058 305.413 298.594 291.899 288.604 283.846 298.374 271.991 254.15 241.454 233.024 229.328 220.461 228.542 214.049 207.94 199.541 189.098 220.387 257.936 180.117 177.342 177.262
threshold=0 1 2 3 4 5 6 7 8 9 10 11 12 13 14 15 16 17 18 19 20 21 22 23 24 25 26 27 28 29
decision_type=9 9 9 9 1 1 1 1 9 1 9 1 9 9 9 1 1 1 9 9 1 1 1 1 1 1 1 1 1 1
left_child=-1 -2 -3 -4 -5 -6 -7 -8 -9 -10 -11 -12 -13 14 -14 -16 -17 -18 24 -20 21 23 27 -21 25 26 -19 -22 -23 -24
right_child=1 2 3 4 5 6 7 8 9 10 11 12 13 -15 15 16 17 18 19 20 22 28 29 -25 -26 -27 -28 -29 -30 -31
leaf_value=-0.085831320229921501 -0.094455113352630127 -0.092494205220134559 -0.092783939566182985 -0.095787543954550067 -0.097224047250208043 -0.096176687030820288 -0.096894963361414177 -0.098686847183325696 -0.097039691334235165 -0.096144963024809238 -0.096908862512430152 -0.097143647810712094 -0.097427382478619762 0.018702738158744955 -0.029893269818394314 -0.09497353335994535 -0.095929557035987462 0.34212715659786336 0.013758734752116178 0.033366480478266923 0.031492796736097471 0.0013767602945340632 0.0086118508720473535 -0.0026288038891195357 0.017071048494866192 0.046159804852125744 0.043310309650109909 0.0049377592188555048 -0.016957807023254133 -0.0021493429180333575
leaf_weight=1119.7955877984641 754.94946477765916 583.57680890179472 442.58930687530665 338.39227159769507 320.79944719874766 318.19719075475587 304.73065650183707 290.70306780084502 292.54680821159855 289.8871849780553 280.75823563447921 273.47359297412913 266.34478658682201 11169.175248957821 2458.401266553672 243.61878391029313 229.11746022116859 58.196545979939401 14625.549897300662 2234.9587310928619 4607.7803238253109 7796.9857090446167 23361.102011791081 4906.6639965861104 2278.133357278537 493.32519537163898 71.775659745675512 5745.9674233568367 16329.399663350894 44357.179449391318
leaf_count=1379818 1004928 766686 580116 366585 156886 250218 413295 24326 113130 83041 169340 56895 37030 678024 271213 243624 208365 1851 674700 143299 253478 501684 1218594 323865 79235 16876 2346 338433 1079592 2807017
internal_value=0 -8.94827e-05 0.000408422 0.000790294 0.00108444 0.00131936 0.00154676 0.00177097 0.00198851 0.00220099 0.00241215 0.00262041 0.00282472 0.00302515 0.00167752 0.00188837 0.00250424 0.00269855 0.00288421 0.00223248 0.000689583 -0.00653336 0.00358285 0.00866676 0.0306268 0.0791208 0.191993 0.0167747 -0.0110345 0.00156372
internal_weight=0 145724 144969 144386 143943 143605 143284 142966 142661 142370 142078 141788 141507 141234 130065 129798 127340 127096 126867 123966 109340 31268 78072 7141.62 2901.43 623.297 129.972 10353.7 24126.4 67718.3
